0,1,2,3,4,5,6,7,8,9,10,11,12,13,14,15,16,17,18,19,20,21,22,23,24,25,26,27,28,29,30,31,32,33,34,35,36,37,38,39,40,41,42,43,44,45,46,47,48,49,50,51,52,53,54,55,56,57,58,59,60,61,62,63,64,65,66,67,68,69,70,71,72,73,74,75,76,77,78,79,80,81,82,83,84,85,86,87,88,89,90,91,92,93,94,95,96,97,98,99,100
P11229,-32.39628600000001,-3.7088059999999956,-2.468211,-35.51366300000003,-8.735702000000002,-2.892959000000001,10.640515999999998,-8.478038000000007,-8.746989999999997,23.957441999999997,-6.1703429999999955,-8.236647000000007,0.6234460000000001,8.375922999999995,6.098913999999995,4.288974999999999,5.350740999999998,-12.213382000000005,-0.5542039999999994,-1.0410739999999987,-0.11158799999999845,-9.418489000000001,-17.64133000000001,1.9116830000000014,-10.833735000000011,-8.065320000000009,-8.421492999999998,-4.379554000000002,3.5391179999999967,-4.493411999999998,4.937707999999995,-24.464851,-2.6238620000000017,-4.715541999999996,12.672968000000004,4.720313000000001,-20.943849000000004,-0.24807299999999904,14.355535999999997,-14.797485999999994,13.598570999999998,4.7173869999999996,4.303444999999998,-2.3946170000000015,-5.693730999999994,4.698994000000004,-12.475340999999995,-2.437582,-8.915202,9.987345,-14.253042999999986,-16.99471,2.9320169999999988,-31.00958199999997,10.474643000000007,-21.973413,-1.8101500000000024,0.8516859999999983,-7.531229999999995,-19.256224999999993,13.121542999999994,37.391370000000016,-1.944665,6.187080000000001,23.238161000000005,11.970883999999996,-3.0179280000000017,7.275932999999995,20.112076000000002,3.693218999999999,-13.383460000000001,-2.071498000000001,1.4736569999999976,4.544892999999999,-13.922797000000012,-14.638851000000006,10.321191000000002,-11.876400999999989,8.005327999999999,-6.923064,-18.112465999999998,-5.426192999999993,18.51300200000002,3.837179999999998,10.220557000000012,-11.623434,-6.2061709999999914,-5.981224000000002,-4.517194999999999,0.9596280000000021,13.233454999999998,-10.951126,-21.556297999999995,7.599386999999999,11.823746000000003,3.418925,-12.176008000000003,-34.387345000000025,-17.05514999999999,43.799933999999986
P08908,-28.018630000000005,-5.116865000000006,-1.4236690000000007,-33.898911,-4.543389999999998,-3.023715,11.365866999999993,-12.01369600000001,-4.531939999999998,23.973990000000022,-4.0508510000000015,-3.1413120000000005,-3.568908999999999,6.793284999999998,-2.2191490000000007,3.3414540000000015,1.2424929999999996,-5.984774999999999,0.6144860000000011,-8.854735999999997,-1.9451109999999974,-12.502461000000004,-18.919315000000026,6.901568,-7.052316000000006,-4.963117,-3.770191999999997,-1.5586800000000005,2.1042300000000003,-7.184750000000004,-2.2511070000000024,-23.808001999999988,8.514242000000007,-6.719117999999996,12.367889000000003,6.141013000000001,-19.18640800000001,-0.3838040000000006,9.021028999999999,-11.428121000000004,11.320015000000005,5.005238,4.482002999999997,-2.1494350000000004,-6.630664000000002,5.462539000000001,-14.508214000000013,0.03798999999999929,-4.510645999999999,8.85493099999999,-10.71164,-16.242559000000004,8.955542,-27.315551000000003,8.049375,-20.871769999999994,-1.5592870000000008,-0.8929909999999984,-10.588295000000008,-16.046831000000005,4.146848999999996,30.457040999999986,0.5666039999999997,8.582208999999997,21.36571900000001,16.364562000000003,0.19156699999999993,13.246466999999987,11.421080000000005,1.3966189999999978,-12.262892999999991,-3.9547809999999983,7.8212630000000045,4.6666060000000025,-6.237580999999999,-14.586594999999985,3.9148480000000045,-8.439205,13.356826999999994,-4.911235000000003,-9.461146,-3.7138179999999936,7.716995000000003,3.6316029999999997,12.923981000000005,-17.055080999999998,-11.894414000000001,-3.022802,-7.4916659999999995,-0.7864580000000009,9.06706999999999,-19.643304999999977,-19.452446000000002,0.34778100000000056,5.6010399999999985,4.4130959999999995,-6.123718000000001,-25.02530400000002,-13.815702000000007,39.50421300000003
Q14332,-38.82017999999997,0.00849199999999671,-11.326312,-49.128319999999995,1.219329,-0.9544629999999972,15.459567999999985,-2.2012960000000015,-13.909047000000012,37.310061999999995,-4.1744580000000004,-9.426993999999992,-3.1963350000000017,12.300821000000004,-6.258075999999996,0.3182289999999997,4.986429000000001,-8.22996300000001,0.2862810000000013,-5.073890000000001,-5.042593999999995,-14.322413000000001,-23.572333000000025,9.364918999999993,-7.935118999999996,-8.930212000000001,-18.539605000000016,-0.4971310000000012,-2.294979000000001,-6.018768000000003,-0.3813180000000016,-33.90665700000002,3.8096779999999972,-8.370737000000004,18.380129,-0.19669899999999887,-30.098193000000002,-3.816830000000001,10.218047000000002,-20.434945000000006,12.436621999999984,4.703820000000003,20.327761000000013,-8.441739000000005,-0.5758700000000015,2.485462000000002,-19.592538999999995,0.7454019999999998,-12.919456000000002,4.238654999999999,-21.12286899999999,-17.003363999999983,4.704577000000015,-38.244246,11.189041999999999,-24.486819,-2.131082999999997,-5.517146999999999,-10.48394499999999,-17.687855000000003,7.590244999999997,47.409176000000045,-1.2298709999999986,1.9654250000000004,25.57145299999998,15.258831999999993,-6.726424,11.352149000000008,20.878669,-5.899058,-19.392786999999995,-2.4976899999999995,7.108750000000004,1.8434870000000017,-18.629191000000002,-19.504158999999998,12.344077999999989,-24.788550999999995,11.434329999999997,-2.4924800000000014,-9.175585999999996,1.2032199999999997,20.291306000000013,9.514657000000014,6.289926000000005,-19.37056,-12.687733999999994,1.2757999999999994,-1.9182870000000019,0.292246999999999,7.919431999999989,-22.428553999999995,-23.856757,1.880301000000001,16.60355000000002,11.342992000000006,-10.995788000000013,-32.737432,-22.805321,60.44189599999994
P30968,-24.87390599999999,-1.1681370000000002,-8.313729000000002,-28.875222000000015,2.7931230000000005,-0.9120380000000006,9.824321999999995,-8.240537,-5.818550999999996,9.673622000000002,-4.779462999999998,1.4618270000000007,-9.427914000000001,3.375269000000001,-2.3874880000000007,5.958452000000001,11.684015000000006,-7.549638000000001,-4.486701,-8.572849999999992,-2.166569,-6.844691999999996,-15.27173499999999,2.8491429999999975,-3.4444769999999987,-6.608239999999998,-4.128573,-8.041908999999999,3.5167439999999988,-7.069253000000003,-1.6503430000000001,-18.602367000000015,2.573505,-7.974269000000002,10.378935999999996,8.318964999999997,-18.321277999999996,1.2571540000000005,-1.0527619999999995,-12.507437000000003,8.392119999999995,2.5951719999999976,12.035379000000004,-6.022645999999999,-0.6663740000000001,6.643451999999996,-6.51047,0.7358969999999992,6.965565999999999,5.886576000000001,-19.16364200000001,-7.078841000000006,7.905873999999995,-25.503631999999985,1.4399989999999996,-13.153832,-0.054357999999999324,-8.596073999999993,-7.801019999999999,-9.174548,-6.59995,19.326767999999998,0.2836930000000004,-8.130422999999997,21.288717999999996,3.6003480000000017,1.987947999999999,6.266445999999999,6.8220079999999985,-6.260420999999995,-0.7432160000000004,0.4282820000000008,4.784453000000001,0.8026900000000019,-1.3103780000000005,-11.467531999999995,5.229756999999998,-12.086493000000004,7.130978000000002,-8.306051000000002,-12.75550399999999,-2.3054469999999974,12.859969999999995,9.906319000000003,8.535437000000003,-9.503922000000006,-2.7322970000000004,-5.027582,-9.704023000000001,3.609415000000004,7.517616999999996,-11.728576000000007,-13.771620000000004,-8.368602000000005,9.152798999999995,-2.129397000000001,-8.967731000000008,-16.574102999999976,-11.289916000000005,36.78284000000002
Q02643,-29.14033600000002,2.372526000000001,-8.991057999999997,-32.307550000000006,-2.0918899999999985,-1.174936,11.838668000000006,-10.614081,-9.01077699999999,22.183187,-8.597917,0.13020699999999802,-0.947505000000003,9.557666999999993,-1.5365639999999994,2.3143780000000005,3.239352999999995,-7.003373000000001,-2.914106999999999,-6.062780999999998,0.009421999999996863,-14.062588000000002,-19.04594900000001,7.417371000000005,-9.550368,-6.517101999999998,-7.753629999999997,-1.8885450000000015,-2.541710000000002,-5.951873999999999,3.021735999999998,-26.482749999999974,-0.892046,-6.779368000000003,16.29421499999999,-0.28490299999999946,-21.558574999999983,1.0496560000000004,8.524382000000005,-16.583763999999984,9.693339999999997,2.412296999999999,11.839319000000003,-9.399298000000005,-3.2370070000000024,4.213084,-12.147176000000005,3.8917500000000005,-4.872211,-0.20624299999999973,-16.242550999999985,-17.131541000000002,6.507991999999997,-31.183354999999988,6.981719999999995,-22.371388000000017,3.194176000000001,-5.238534000000008,-9.036289999999996,-14.660919000000012,3.0895290000000037,36.16944700000002,-1.9372829999999992,6.811119000000001,20.673709999999986,8.274184,-0.8850570000000016,7.009712999999999,11.787878999999998,-2.178042999999999,-13.942027999999993,-4.455794999999998,5.038909999999993,1.1318690000000005,-13.713406000000003,-12.349202000000005,8.445725999999992,-16.253095999999985,5.7885849999999985,-7.1346359999999995,-7.698284999999997,-3.2380770000000014,11.577930000000006,10.963666999999996,15.785517999999993,-15.985571999999989,-7.213888,-3.9970680000000005,-6.886551999999993,2.867638999999999,9.963255000000007,-14.992803000000002,-23.30577999999999,0.019284000000000176,15.230701999999981,5.551845000000006,-8.450208999999996,-24.533246000000027,-13.213237999999995,36.86533400000002
Q9BXC1,-20.912138999999993,7.3219570000000065,-7.1183109999999985,-29.15687899999999,5.208186999999999,-0.6857479999999997,7.068898,-12.663428,-12.36180700000001,11.719238999999995,-3.951004999999999,-1.2148710000000025,-0.9622830000000008,5.454536999999997,-8.136705999999998,4.221221999999998,9.613669999999994,-5.84367,0.011922999999999802,-8.11463,-0.983812999999998,-9.191030999999995,-14.847595999999992,2.154512,-2.15256,-2.3670169999999993,-10.636240000000003,-2.558135999999999,3.773535999999999,-6.042362,-4.202039000000002,-18.822900000000015,3.569741999999999,-3.528088999999996,14.912650000000003,6.661436000000005,-20.721090999999998,1.8620740000000024,2.5012319999999972,-12.992951999999995,9.566303000000003,4.510791000000001,6.452384999999999,-2.632615000000001,-0.8033980000000013,6.1366,-9.957142999999997,1.412781999999999,3.7417179999999988,3.694925000000002,-13.983184999999995,-8.496812000000004,9.953760000000003,-22.979949999999988,2.305292000000001,-19.566591999999996,5.951873999999996,-11.455119000000007,-7.216051999999998,-13.070523999999997,-4.5451049999999995,23.007856000000032,3.956832999999998,0.5097670000000001,21.516035999999986,7.284401000000001,-2.2426,10.994405999999994,6.357311000000003,-4.995634999999997,-7.374877000000004,1.1821889999999988,1.4783370000000002,-4.7984700000000045,-1.8269120000000008,-14.649348000000016,5.779532000000002,-7.554255999999999,6.919653999999997,-1.602742,-7.160397000000003,0.6446250000000021,13.559505999999999,10.757285999999992,8.445124999999999,-14.337452999999995,-6.481376000000004,-2.7888230000000043,-8.575413,1.3290170000000001,6.551852000000004,-10.013507000000002,-12.930906999999998,-7.136775999999996,8.217511999999997,1.2772270000000001,-9.600850000000003,-17.402294000000012,-8.696767999999995,36.32910499999999
P46095,-31.133418000000002,-9.242333000000002,-2.4612409999999985,-27.944853999999992,-7.558027,-1.7147499999999998,8.882914000000001,-4.548781999999998,-0.03261999999999954,19.799023,-4.661450000000002,-6.835033999999998,-4.105428999999997,7.076391000000005,2.140361000000001,0.4258919999999999,-6.746394999999996,1.186919999999998,5.455855000000002,-2.807944,-5.880281999999998,-13.220136000000005,-15.482570000000015,10.675659999999993,-6.8406199999999995,-12.48178200000001,-0.5803330000000002,4.053741,-4.091530999999996,-4.919560000000005,2.005908,-21.461768000000014,-0.8338990000000005,-12.445105999999997,10.521254999999993,5.0916079999999955,-23.43714600000002,-2.0803670000000003,8.938942999999997,-3.2930780000000013,11.049541000000005,-0.2091750000000019,10.086162999999999,-3.512138000000001,-4.760693999999995,5.047033999999999,-9.793014000000005,4.213081,-7.754406000000002,-0.7849430000000012,-14.455893,-18.347612000000005,0.5107659999999994,-25.375185999999974,6.718246999999998,-10.316675999999996,-3.571557,0.48313800000000023,-8.772907999999989,-6.312898000000001,9.088018000000003,31.681864000000008,-9.08347400000001,16.68739700000001,13.569960000000002,9.935897999999998,4.221520999999998,7.582120000000002,8.705271999999994,4.242401000000003,-19.62365099999999,-1.4384179999999993,9.189057,-0.6059140000000003,-17.802802999999997,-4.976831000000002,1.7582149999999988,-15.559980999999993,8.131811000000008,-0.884064000000001,-1.9599120000000014,-7.678767,12.487818,11.346601999999994,14.725875000000006,-12.444736999999998,-8.010091000000005,8.092974999999996,-0.7294250000000001,-6.593050999999998,18.25095699999999,-21.170259000000023,-13.354581999999997,6.592312000000002,9.381192000000002,6.587023000000003,-7.867131000000008,-21.91447200000002,-20.606127000000008,37.43682199999999
Q9Y271,-18.705692000000013,3.4023579999999973,-6.5018110000000044,-31.051247000000018,2.0406899999999992,-4.954690999999999,13.831071000000007,-12.703320999999999,-7.654336999999993,8.728495000000002,-3.9866250000000005,1.9061800000000004,-5.530277999999992,2.699601000000001,-2.3166180000000014,2.695644000000001,6.748694999999996,-7.025817999999997,-1.4358439999999988,-10.326340999999998,-3.9134089999999992,-10.081924000000003,-17.755355,2.8403429999999976,-8.526884000000003,2.4804120000000007,-8.171805999999991,-5.578419,6.028272999999997,-7.839673000000005,-2.9444580000000014,-15.119227999999989,5.147531000000005,-2.5422230000000017,10.708893,5.4327789999999965,-20.447873,1.9961379999999997,2.4347539999999976,-15.414421999999997,7.837715000000001,1.837100999999999,6.330697000000001,-5.129959000000005,-3.60181,7.135453000000004,-11.205697000000002,-1.131976,3.7274970000000014,9.499111999999998,-16.157064000000002,-6.676512000000002,9.511068999999999,-20.441835000000005,3.161947999999999,-18.432294000000006,1.7005379999999992,-7.377508999999997,-7.5461230000000015,-15.801998999999995,-9.831526000000002,20.576657000000008,3.2140850000000007,-6.108595000000001,23.336455999999984,8.480345,-1.747001000000003,10.444333000000004,7.493402999999998,-7.533131999999994,-5.382847999999999,-3.652227999999999,6.183039999999998,-1.771609999999998,-1.1338439999999999,-12.696976000000001,7.366581999999999,-7.608666999999998,9.070143000000002,-4.758351000000002,-16.724398,-3.5969579999999977,6.739561000000004,5.035897999999998,11.73637,-8.786548,-3.8536909999999978,-9.387626999999995,-8.413492000000005,7.889797000000001,3.151318999999997,-6.934742999999998,-12.960163000000005,-7.598599000000004,5.788554999999999,-0.41800399999999954,-10.012239999999982,-22.50541500000001,-4.603372000000001,35.999997999999984
Q8TCW9,-22.723564000000003,3.5117849999999993,-4.564204000000001,-30.44713300000002,0.035360999999999705,-2.3431639999999962,12.460886999999987,-12.061315999999996,-6.514864999999996,21.605113000000024,-5.223299000000002,-1.7750549999999992,0.02648499999999923,0.673412000000002,-4.690911000000001,3.4639759999999997,8.011400000000007,-8.127339,-2.584918,-10.746295000000014,-2.416343000000001,-10.175560999999995,-18.58477800000002,3.5113109999999974,-9.90427400000001,-3.548175999999996,-8.354594000000002,-3.7226899999999996,2.6880199999999994,-13.927196,-3.162267999999999,-21.676215999999982,11.134621999999988,-5.697376000000004,9.646607,8.691450000000003,-20.631680999999997,2.6333159999999975,3.7931140000000014,-18.118613000000007,6.893325999999996,1.8003100000000027,2.6484330000000007,-1.0076419999999982,-4.8878039999999965,6.845105000000005,-11.954869,0.17957799999999963,-1.5148550000000003,7.337514999999996,-17.363804000000023,-11.059674,13.929426000000001,-25.664892000000002,1.532680999999999,-22.03692899999999,4.4642610000000005,-3.6748310000000006,-7.501548000000004,-18.730632999999997,-3.0919489999999974,29.265520999999982,-0.7860589999999996,5.2598080000000005,21.238787,8.408126999999993,-1.02884,19.41618799999999,7.187620000000002,-10.311261000000009,-9.765031000000006,0.09256399999999941,2.760064999999999,-1.895687000000002,0.5773699999999999,-9.870397999999994,13.915741000000006,-5.619517000000001,9.177794000000008,-6.764183000000005,-11.298464000000003,0.1612249999999999,7.273677000000005,9.446314999999997,15.150733,-11.015429,-8.379075999999998,-2.969274,-10.69254200000001,-0.8991030000000005,1.427139,-13.658486000000005,-13.706519000000005,-7.793145,6.856860999999997,-2.1142910000000006,-7.661048,-20.892266999999997,-10.781017000000011,37.005680000000005
Q99705,-30.112203000000015,-6.926423000000006,-4.0931750000000005,-34.61604900000002,-1.4476789999999973,-8.240452999999997,13.015913000000014,-9.17604099999999,-8.485744000000004,22.083812000000005,-5.924296999999997,-6.9857510000000005,-4.693068,1.2855479999999966,2.139346999999999,1.7526329999999999,-3.4184689999999995,-4.765303000000004,4.077988999999999,-10.018210000000005,-0.8019129999999994,-14.577328000000001,-17.831576000000005,8.140308000000008,-7.547247000000006,-6.894777,-5.066153,-5.760811999999997,2.2514799999999986,-11.707916000000012,0.48851800000000006,-23.783248999999984,4.497259999999995,-6.840616999999996,13.755375999999993,14.90960100000001,-23.260162,1.0236660000000002,7.187293999999995,-14.891696000000012,11.055693000000014,8.637880000000003,6.536899999999999,-3.7695179999999984,-2.9528090000000002,3.9440279999999994,-17.427213000000005,1.3231140000000012,-5.898244,4.717361000000003,-14.376051000000002,-16.684773000000007,3.383148,-30.052397999999982,4.626141,-15.357171999999993,-0.6210760000000002,-2.1759009999999996,-8.706299999999995,-14.135314000000006,6.723806000000011,29.93271199999999,-6.199549000000001,2.9666250000000005,21.02301900000001,10.112734999999999,-4.224501999999998,8.094097,9.056271999999996,-5.102800999999997,-14.51750599999999,-3.2514350000000016,-0.3259539999999994,5.002414999999997,-11.939839000000003,-13.899919000000015,3.6981779999999977,-17.731985999999996,9.262048000000002,-8.683233000000001,-9.254355,-6.0411920000000014,12.31675500000001,6.407545000000004,18.522716,-16.525806999999993,-8.262861,-0.02424399999999699,-4.836134000000003,0.9440930000000011,15.137811999999997,-19.375156999999998,-15.806023000000017,-0.45653299999999875,3.3032710000000005,5.738359,-9.652763000000002,-25.569078999999988,-17.713262999999994,40.04577900000004
P25105,-18.75609299999999,-0.08648700000000037,-5.950893999999998,-29.585817999999993,0.4032690000000017,-1.2649630000000003,8.772369999999997,-12.280880999999994,-7.963127000000001,14.418569999999999,-4.167213999999999,-0.18584000000000028,-6.518345000000003,3.2492989999999997,-5.9925580000000025,7.691495,10.739968,-6.501587000000003,1.4932599999999985,-10.131815,-3.1029869999999984,-8.001809,-14.936864,1.7960570000000007,-11.335387999999996,-1.1352609999999996,-5.067688999999998,-8.748707999999997,7.994081000000002,-9.339104999999998,-1.9521460000000015,-16.002899999999997,5.044177999999999,-6.487574999999994,10.309363,6.686280000000001,-21.762049000000005,1.4692659999999995,3.008576999999999,-10.067860000000017,7.403221999999999,1.658331,7.487495000000004,-3.533086,-3.399594000000001,4.960247000000001,-12.13081799999999,-2.5344060000000015,3.1021630000000022,8.611318000000015,-14.019231999999999,-5.913489,9.901019000000012,-22.344195,0.39261399999999813,-17.393421000000007,2.8681449999999993,-7.170410000000002,-4.989393000000001,-16.076426999999992,-6.965963999999998,23.546982,-0.6841079999999966,-2.156532999999999,25.109676999999994,6.827266999999998,-5.225061000000002,13.87829499999999,4.628052000000002,-3.805093,-6.134204000000002,-3.45689,4.170169000000001,-0.38487000000000077,-5.5459770000000015,-14.230282,6.723779000000011,-8.496719999999996,9.956716999999998,-4.9323179999999995,-10.899596,0.4406899999999993,13.457620999999993,9.609372999999998,11.677344000000002,-12.982615000000001,-2.8814979999999983,-5.027017999999998,-8.411611999999998,1.352253,4.38953,-10.654845000000009,-13.649866999999999,-9.336665000000002,5.369527999999999,1.4159320000000006,-9.483705000000011,-17.409499,-14.990196000000012,37.143556999999994
Q9H244,-20.731391999999996,4.790270999999999,-9.871471999999995,-32.072113,4.625626000000001,-3.8288499999999974,8.398183,-14.699004000000006,-7.680011999999998,10.518206999999997,-0.9242280000000004,-0.2738850000000008,-3.8635740000000007,2.302357000000001,-7.422388999999998,2.6965359999999983,9.604946,-7.319792000000001,-2.8637179999999995,-8.755155,0.8618220000000005,-10.099996999999988,-17.860390000000002,3.5131570000000027,-10.967721000000004,-0.9268409999999995,-9.493179,-10.141036000000007,7.049132000000003,-8.947153000000005,-6.236691000000002,-9.057384999999993,5.055318999999995,-2.3868429999999976,9.362433999999999,6.590773999999999,-21.109378000000003,2.099771000000001,-1.3933320000000013,-17.779720999999995,11.192847999999998,3.386066,8.963913000000002,-0.4896679999999995,-3.5163660000000014,2.0449770000000007,-2.0906539999999976,-0.9006740000000009,5.594052999999998,6.692734999999999,-13.660104999999989,-3.987295999999999,13.26495299999999,-23.81350399999999,-0.9803020000000012,-22.467479999999995,2.066772000000002,-8.191372,-9.343256000000004,-16.276221999999994,-9.548370999999992,20.83024899999999,1.440346,-3.1705510000000023,27.219778000000005,6.964609999999999,-2.599695000000004,13.42193200000001,7.319697999999998,-10.374783999999996,-1.5999920000000003,-3.434490000000003,3.5204380000000017,-1.6039310000000009,2.734534000000003,-14.229004000000003,7.901907000000007,-5.687544999999996,7.023842999999998,-5.135228000000007,-12.068517000000005,1.1149299999999993,7.465758000000001,6.7952890000000075,10.213944000000009,-9.616074999999993,-3.313562000000003,-7.504699000000001,-9.393524000000006,2.333402,5.056280000000001,-8.312448000000003,-14.51932900000001,-8.793050999999997,2.1051839999999995,-4.761493999999997,-14.212882000000008,-19.604484000000003,-8.585135000000001,41.12280999999999
Q9BPV8,-21.000132999999998,-0.7246149999999991,-6.3989650000000005,-30.27445300000002,2.6088060000000026,-3.2068270000000014,12.008049999999992,-9.764577000000006,-3.637959000000003,12.433756000000006,-3.722374000000002,0.523973,-3.308457,6.181886000000001,-3.3494419999999976,3.402257000000001,9.933250999999998,-7.849928,-3.496339999999999,-10.842135000000004,-1.1402710000000025,-6.116999999999993,-16.572665,3.2142609999999983,-6.968584000000003,-0.704101999999999,-3.781127999999999,-6.586146000000001,4.764211,-11.384212,-4.811852999999999,-14.445080000000006,4.549285,-6.872374999999998,11.03721499999999,6.875377999999995,-19.216807,1.2275199999999997,-0.13354199999999933,-14.014408999999985,10.230734999999997,3.977781999999996,5.599407000000001,0.15488799999999905,-5.784839000000009,5.279343000000002,-9.211892999999998,-2.738522,7.886688999999999,8.731144999999994,-16.531285999999987,-5.6443399999999935,12.572678999999999,-23.307481000000006,2.9006079999999996,-20.970569999999995,0.42419199999999924,-8.891135,-6.5457209999999995,-12.263606000000014,-6.259451999999999,22.277288000000006,2.6792529999999988,0.0034900000000005326,24.08106899999999,6.816078000000001,-0.6445189999999995,8.746070999999999,10.808722999999993,-7.983582999999997,-2.984165000000001,-0.4686270000000002,4.554930999999999,-0.9666910000000002,-0.7672650000000012,-10.221108000000006,4.965732,-9.825033999999997,7.196597000000004,-4.525876999999998,-17.138283000000015,-1.8332289999999987,8.106443,9.221079,11.4767,-12.221556999999994,-4.041333999999999,-8.041933000000002,-11.169868999999995,3.5221700000000045,5.786720999999998,-9.101231000000006,-13.391410999999998,-9.142225999999997,9.511538999999999,-4.447062999999999,-12.130358000000005,-19.659954000000013,-7.335106000000008,39.562884000000025
P08913,-40.492391000000005,-7.156058999999998,-4.562345000000002,-37.33449100000001,-9.891710000000012,-4.806366999999998,13.173393000000008,-5.791672000000001,-4.561063000000005,25.286430000000003,-6.272473999999998,-9.317406000000007,0.2086679999999999,7.110384000000002,7.296319000000002,-1.0543970000000005,-3.2207389999999987,-13.005550999999997,16.14325300000001,7.826993999999999,-0.958318999999999,-17.634892,-16.662142000000003,5.470144999999997,-5.5897949999999925,-3.2079770000000005,-7.9318629999999954,4.366106999999996,-3.6922469999999983,0.9325729999999991,4.452435,-20.396669000000006,4.19668,-5.757449,8.73642999999999,10.189508999999987,-29.634070000000012,-5.944639999999999,16.986785999999988,-8.066469000000003,17.632124000000005,8.581349999999999,12.604844,-1.319983000000002,-9.963663999999998,-4.635854999999998,-9.690076999999999,0.27211099999999944,-11.927274000000002,6.703182,-9.609557999999998,-22.27681999999999,6.055505000000007,-31.603375999999987,12.543363999999997,-20.987913000000024,-8.452415000000006,2.163166000000005,-6.363780000000005,-9.504484000000009,14.359961,33.67102999999999,-5.363283999999995,9.423069000000002,15.914446999999996,14.343547000000003,-5.997894999999999,1.0666129999999996,17.289407,-0.8625210000000002,-21.99447700000002,-3.387943000000001,5.766234999999999,6.236483000000008,-12.146689999999998,-10.888591,2.938879,-14.636489999999986,7.8174979999999925,-4.125300000000005,-10.016195000000005,-7.766844000000003,15.283609999999987,-3.2844909999999996,13.448458000000006,-11.642233000000008,-11.819703,-0.7400870000000003,-2.897262999999997,1.8598920000000003,8.609517000000004,-17.390926000000004,-17.341913999999992,10.071442999999991,6.317556000000005,3.0084039999999987,-8.528929999999999,-36.48187500000001,-13.10273999999999,44.437235999999984
P46663,-23.17330699999998,-5.306291000000005,-4.811665999999998,-30.425758000000037,0.09657499999999995,-0.5491939999999997,12.724622999999994,-6.907719999999996,-7.852388000000003,15.946451999999999,-8.971407,2.3085609999999988,-4.426847999999993,10.985003999999998,-3.5021930000000006,1.3568739999999995,6.850894999999993,-8.256332999999994,0.5043690000000002,-1.4579579999999999,-3.584072999999998,-10.911354,-13.661296999999998,5.855127000000003,-7.1572130000000005,-10.684631000000007,-2.037876999999999,-6.355464000000006,3.2759590000000025,-7.074734999999999,2.615280999999999,-19.02528500000001,-0.08658500000000059,-7.105564999999995,8.781781999999994,3.849006000000003,-20.888331,-0.6394830000000007,4.693903000000005,-11.299490999999987,9.721043999999994,0.9869000000000001,6.697381000000003,-6.714414999999995,4.910213000000001,6.427634999999996,-8.359897000000002,1.8996550000000008,-0.43457899999999944,3.5194390000000007,-14.931013999999996,-9.810208999999995,3.055342999999999,-25.95867599999999,3.633173999999997,-16.558606999999995,-0.40595300000000084,-3.499851000000002,-9.453219999999996,-8.247954999999997,-5.306515000000002,26.65134899999999,-1.3514870000000014,3.6500430000000037,16.671125,5.895655999999995,3.620548000000001,5.729945,8.382916000000002,-4.7686679999999955,-8.666051999999995,-3.637325000000002,6.154726999999998,-2.535851,-4.567047000000002,-11.339025000000001,8.149211999999999,-9.530493000000002,6.829386000000002,-5.964385000000004,-8.760184999999996,-3.298939999999999,15.539926000000001,14.38003100000001,12.310033000000004,-13.178058999999992,-6.509298000000002,-4.007932,-8.441571999999999,3.9018340000000005,10.608596000000004,-13.63760900000001,-17.003997000000016,-4.978990000000001,2.0304869999999977,-0.9387370000000006,-10.101415999999993,-19.85632800000002,-14.610184999999998,37.949565999999976
P47900,-27.197586999999988,0.1158640000000011,-6.267166999999997,-29.626363999999988,6.252406000000003,-3.3920779999999984,13.268909,-9.556126999999998,-6.108206000000002,15.129844000000004,-4.397748999999997,-1.301006,-3.083021999999999,3.146955999999999,-2.9559150000000005,3.1205579999999995,4.672497,-1.761931000000001,-1.0477689999999993,-7.986019,1.4332249999999993,-11.431408000000001,-18.09344,2.680206,-8.011160000000004,-1.1693250000000008,-3.8962159999999995,-4.008035000000003,4.618995000000001,-12.199350000000006,-2.351804999999999,-19.66905899999998,4.682051000000004,-8.261558999999997,15.399749999999997,8.453527000000001,-22.85977199999998,1.1673199999999995,6.565265000000001,-14.962399000000005,12.958424999999998,3.3786240000000003,8.002793,0.5320549999999996,-5.552203999999999,10.215443999999998,-9.050718000000007,-2.1867469999999996,1.3197460000000012,4.855671,-14.05212999999999,-10.620101999999989,9.857342000000006,-25.158107,2.4798810000000002,-20.04161000000001,0.1630890000000006,-5.326068999999998,-3.6885630000000003,-14.692987999999996,-5.838156999999999,27.24983800000001,0.22524999999999867,0.05663099999999979,22.065522999999985,4.656340000000002,-4.803779999999999,15.841394000000008,8.641344,-5.692451999999997,-8.999387999999994,-3.2848379999999984,5.226030999999995,-1.2086399999999995,-3.721053000000005,-13.228685999999998,6.468086000000003,-12.369514000000002,8.029825000000004,-8.100576,-10.784946999999987,-4.324417999999998,8.802746,9.989427000000008,11.21349999999999,-15.544709,-4.5830610000000025,-3.8635720000000013,-10.687968999999994,0.9520739999999993,7.78723,-11.59146900000001,-16.132102999999994,-3.0623559999999967,2.1892709999999997,1.2288409999999985,-11.054934999999993,-22.514479000000005,-8.085848000000006,38.78937000000003
P25024,-23.387559999999993,0.37328599999999973,-7.279649000000002,-31.138407999999984,1.620572999999998,-4.2463929999999985,8.098520000000006,-9.256614,-11.727984000000005,16.46299099999999,-7.363742000000004,-0.9496969999999999,-3.0926429999999994,2.7349570000000014,-5.414201000000003,1.1513300000000006,8.040643000000005,-3.179995000000003,-1.8282949999999998,-8.623742999999996,-0.597475999999999,-16.00993299999998,-13.193884999999996,2.5019160000000014,-7.422895000000001,-5.7750099999999955,-1.3122909999999992,-0.028203999999998827,1.4220570000000012,-9.382110999999997,-2.0769530000000005,-22.26134299999999,4.563896999999999,-4.758673000000006,14.872987999999998,6.844214999999998,-20.302324000000013,1.2648209999999993,2.528857,-13.827705999999994,6.2929739999999965,2.684491999999999,8.781175000000003,0.6310789999999995,-1.7654350000000005,9.232429,-6.431188999999999,-3.8191409999999992,1.7746349999999997,5.721192000000003,-19.719883000000003,-8.577874000000007,8.766499000000003,-24.90157499999999,-0.9968889999999999,-16.413542000000003,3.475596000000001,-6.114039999999992,-6.918515999999998,-11.351272999999997,-3.5705869999999966,22.067783999999975,0.8441590000000009,4.204669,18.036189,4.356893999999999,0.6526319999999991,10.200677000000006,9.602692000000003,-9.789461999999997,-8.702526000000002,3.3198329999999983,3.7596199999999986,-3.907501000000003,-5.626684000000002,-7.7962659999999975,6.773194999999998,-8.229163000000005,10.194164000000004,-0.8289299999999994,-6.123298,-1.341585,9.234665999999997,13.899739999999992,12.401540000000008,-12.337810000000013,-8.943577999999995,-2.05765,-8.747855999999995,6.290862000000006,7.487053999999999,-14.13931,-15.508229000000004,-5.737111000000001,6.043960000000002,2.9587740000000005,-7.778036000000009,-14.168254000000005,-13.864283000000002,37.750151
P35367,-35.203913,-0.4923620000000022,-10.671149000000005,-38.49461599999999,4.789974000000004,-8.768422000000005,13.590448999999992,-11.322050000000006,-10.316652999999999,19.362233999999997,-6.938516,4.622983999999998,-4.4416319999999985,7.943918000000004,-2.8198309999999993,7.372108000000004,8.953935000000014,-11.417059000000009,-4.986025999999996,-8.585256999999997,-5.155414000000003,-12.778060999999992,-20.728539999999995,6.459354000000001,-12.033492999999998,0.7302560000000009,-7.48668299999999,-3.5583190000000022,4.465588999999999,-8.438647000000008,-1.2960579999999997,-19.526132999999987,2.4176269999999995,-5.262277999999999,16.374312999999997,5.241952,-23.525850000000002,2.4650119999999998,2.9901979999999964,-11.222343000000004,9.343488000000004,3.4458130000000016,10.085367999999999,-8.526584000000001,-3.681695000000001,5.332169000000003,-13.857907999999993,-1.736393999999997,6.327389000000008,10.872314000000006,-17.268404,-9.461588999999995,11.912505999999997,-33.36205899999999,10.949638000000007,-24.863323,4.910125000000001,-9.835696999999998,-6.438144000000005,-23.428654,0.21725199999999917,31.272743000000006,6.649391999999998,-0.7910820000000002,30.423965,8.741996000000002,-0.47545600000000016,13.953979999999994,18.176756000000008,-5.624477000000004,-9.993184,-1.1806939999999997,-2.4437719999999965,4.978472000000006,-3.5798080000000048,-17.289585000000002,11.521028000000006,-12.091926999999991,9.961875000000003,-13.286005000000005,-19.416146000000005,-3.191929000000001,14.720369999999997,4.1515140000000015,15.48841900000001,-17.023164000000005,-10.454001999999996,-9.106603999999999,-11.023462999999994,8.83359200000001,11.099755999999998,-11.31143999999999,-12.954854000000017,-5.409589,15.103864000000014,1.546222999999999,-11.912809999999999,-31.538181000000034,-11.868316999999992,44.50125500000002
P18825,-39.71274999999999,-15.344545999999994,-7.415622999999997,-31.82695900000002,-8.532510999999989,-9.605739000000003,15.940346999999996,-7.10502700000001,-3.430557,28.731924000000003,-10.468774999999994,-11.361806999999999,-0.637375,5.276519000000006,3.4719389999999946,-0.8917980000000004,-8.639119999999995,-6.592411999999994,19.655540999999992,5.058890000000005,-1.6901599999999999,-19.047503000000003,-16.878176999999976,9.928737000000009,-2.0717999999999996,-5.923770000000002,-2.1740570000000017,8.225932999999996,-2.673858000000002,1.865214999999999,2.5485680000000013,-19.305017000000014,1.6916409999999993,-6.208576,14.230172999999995,2.024889,-29.50066499999996,-1.3446790000000006,21.715626000000004,-4.082895999999995,23.750035999999987,8.672334,11.695642999999995,0.16961699999999952,-4.945928999999997,3.021193000000001,-12.748311000000008,3.396250000000003,-14.16186699999999,4.615395000000001,-14.580884999999984,-29.50429000000004,3.3810009999999977,-29.61207999999998,16.023437999999985,-16.542786000000003,-5.140130000000001,7.041136000000001,-6.881194999999996,-16.96106100000001,15.579543000000001,37.178680000000014,-6.574774000000001,25.136730000000014,14.646440999999987,8.265520000000008,-0.48600399999999977,7.2636569999999985,18.913294999999998,3.047912000000002,-32.909836999999996,-9.796360999999997,7.328029999999994,4.185298000000005,-20.060806000000017,-8.652327000000001,0.9221399999999997,-17.75077699999999,9.714069999999998,-0.6504960000000009,-6.970381999999997,-5.477767999999997,16.03533699999999,-1.3998240000000006,14.051738999999992,-12.765908000000007,-9.952504000000003,4.569376,-3.17844,-3.6937299999999964,17.343743000000014,-17.247925000000016,-19.06275699999999,6.647392000000009,6.462948,10.936447000000015,-9.983130999999997,-33.996023,-23.96260100000001,46.87689400000001
P34969,-31.43165400000002,-1.2527430000000006,-5.8466619999999985,-37.12396799999999,-3.214411000000002,-3.7821050000000045,12.274633000000014,-6.049974000000001,-12.531078,27.825713999999984,-2.2196920000000024,1.6896499999999997,-5.128134999999997,7.062976000000003,-2.332914,3.655038,7.3457149999999976,-11.715975999999996,-0.2756159999999984,-9.854168999999999,1.4941060000000008,-17.007450000000006,-16.59241999999999,8.734214999999995,-5.243296999999994,-3.361960999999999,-5.685907000000002,-2.5689269999999986,1.2591789999999992,-9.335499,-2.477232999999998,-25.795039999999986,3.2769719999999998,-8.497215999999993,15.492983999999986,5.811477999999996,-24.986721999999997,2.889565000000003,4.600137999999993,-17.015219000000005,11.045752000000013,3.90865,11.128524999999984,-2.5450989999999996,-5.011488000000005,3.989805999999998,-13.070989000000006,-3.0171079999999977,-5.014323,7.900933000000005,-13.876765000000008,-15.540438000000018,13.691172999999988,-32.84982099999998,5.632511000000005,-24.187883999999997,5.149523000000003,-2.741493999999999,-9.006696000000003,-20.296825000000002,2.1902579999999996,33.15339400000002,0.24916999999999878,4.720953000000002,26.68417699999999,11.611338000000007,-0.20192699999999972,15.538509000000003,10.137675000000007,-7.578771999999994,-14.265517,-1.7245,5.374350999999997,0.6024500000000007,-5.493485999999997,-10.66771100000001,12.587090999999997,-13.639916000000001,12.944305999999996,-7.509234999999993,-12.675850000000004,-0.737683,11.94683100000001,7.215130000000001,12.996279999999992,-19.040101999999997,-14.767226999999993,-0.4816630000000004,-1.846273999999999,3.785261000000002,8.686923999999989,-18.900708000000023,-15.473802999999995,0.9968829999999992,9.882296,2.924876000000002,-12.825280000000008,-25.52794700000001,-17.891274000000006,49.20658099999999
P43116,-25.247766,-3.8621689999999997,-9.336506000000007,-27.667579000000014,-0.8330579999999997,-0.18162900000000023,4.350244000000006,-5.740659000000008,-8.752787999999999,17.602300999999997,-10.899812999999996,-3.584244000000004,1.9226479999999968,2.789040999999999,0.47817400000000054,2.199246999999999,3.1642399999999995,-5.374774999999996,5.694575999999998,2.1299559999999986,-1.7434250000000018,-15.260295999999999,-13.895591,6.563774999999998,-8.051229000000001,-13.137805000000007,-3.661417999999998,-2.4607640000000006,0.8629140000000007,-3.684475,3.438109999999998,-19.685722000000002,-3.304261999999998,-10.628706999999993,13.951334000000005,0.7388589999999982,-23.33463899999999,3.336725999999997,10.090599000000005,-9.750520000000005,14.728226,5.656228000000004,1.022888,-1.687832999999999,1.4083599999999994,9.089871000000002,-8.196508,2.4619,-7.652771000000004,2.0586940000000005,-15.796196000000007,-14.642339000000012,2.540678999999997,-20.950560999999993,7.2136050000000065,-15.278180000000008,1.7996530000000013,-2.8294779999999986,-5.013047999999998,-10.871454999999994,4.052522999999999,29.204669999999982,-0.7119469999999998,8.530107000000003,17.789013999999984,12.659394999999998,1.1735939999999996,5.914965999999995,12.750780000000004,0.41550800000000215,-14.359063999999996,-4.316435000000006,1.997332,0.7924779999999991,-9.946766000000004,-10.737436999999996,4.606286999999999,-14.298177,8.247093999999997,-0.7927520000000001,-7.655720999999999,-2.748335999999999,16.098727000000007,7.377624999999997,6.1915260000000005,-11.152316000000013,-7.154025999999998,-2.6338839999999992,-6.381685999999999,6.337786999999993,14.366994000000005,-13.031059999999997,-15.272870000000012,0.41809000000000085,10.143661000000002,1.1399789999999996,-7.428977000000003,-23.728004999999996,-18.553354,33.53093499999999
P49190,-36.03487800000001,3.8090470000000005,-10.79514799999999,-41.191566000000044,0.3071680000000012,-2.5673759999999994,11.819685999999997,-11.779295999999999,-12.368654999999983,27.607637000000008,-7.363616999999999,-5.196731,-3.1151430000000007,7.255340000000005,-3.926061,1.9454200000000017,9.049173999999988,-9.688651999999983,-4.504294000000002,-14.684556999999991,5.168817000000004,-15.210812000000004,-25.45636,7.971161000000009,-8.474976999999988,-1.313892999999999,-13.14464900000001,-9.367522,4.854497000000003,-13.930166000000007,-1.0794970000000008,-31.128594,10.53782800000001,-8.659594,18.94114100000001,8.362772999999988,-27.177559000000006,-3.444691000000001,7.666542999999995,-20.844855000000024,12.929983999999997,5.484972999999996,12.313376999999981,-6.913837000000001,1.034664,5.692509999999994,-15.718316,-0.5338400000000008,-2.640498,7.393043000000001,-22.004643999999992,-15.10528599999998,10.414971999999993,-35.210968,10.230270000000012,-29.295603000000032,6.386341000000003,-6.844658000000007,-8.913919000000002,-27.12856999999999,-1.447129000000003,42.13467199999998,-0.9791180000000003,4.122432000000002,31.962371999999974,15.226605000000013,-5.007591000000001,16.040415,17.40411,-9.822879000000004,-12.898095999999999,-4.6970149999999995,9.498136,3.803726000000001,-1.6958369999999978,-22.049872999999987,15.181828999999995,-14.681359000000004,6.040925999999999,-8.421164000000005,-13.359566000000001,0.6383379999999995,15.813556000000005,15.223124999999982,15.566062,-17.990520999999983,-15.041701000000003,-2.042441,-9.688282999999997,5.510387,9.822037999999997,-16.295963000000004,-21.823484999999994,-4.1368329999999975,13.614020000000004,8.947972000000005,-10.617266000000004,-30.456787000000002,-16.386256000000003,50.60393800000001
P43115,-27.926817999999983,-2.8123530000000003,-6.872051000000001,-28.418240000000015,-4.4547680000000005,-1.379920000000001,6.297877999999995,-5.335364999999999,-7.727074000000006,17.694020999999985,-3.608054999999997,1.521893999999998,1.8490690000000007,2.515900999999998,0.841276000000002,0.6855310000000007,4.328623,-5.416413999999999,-0.5813649999999997,-0.6672059999999999,-4.909808999999996,-12.578429999999992,-14.228774000000001,10.651253,-5.557872999999998,-9.672864999999994,-4.859227,-3.8584199999999997,2.278731,-7.122845000000004,2.2691690000000007,-20.789679,1.0013760000000007,-4.605030000000005,11.33228399999999,-1.9673569999999978,-25.90030800000002,3.394925000000001,5.448674,-14.885717999999997,19.230320000000006,8.946951999999998,8.874114000000002,-5.689688000000006,0.6988499999999984,7.851811000000005,-13.822912999999996,-1.6854170000000006,-2.3483620000000003,5.129375999999999,-20.312087999999996,-13.999298000000003,2.8395499999999987,-23.897908,6.414855000000001,-16.57172699999999,-0.32106099999999804,-1.9107409999999987,-6.618612000000002,-12.995506999999991,1.6340319999999986,37.44015,-1.1831289999999999,1.5719319999999992,24.887860000000003,7.286936999999995,-0.6654220000000024,9.058594000000008,11.928011000000007,-2.419189999999999,-12.805962000000005,-4.049939999999995,5.731820000000003,-0.056574000000000096,-12.060680000000003,-11.402607000000003,5.507219999999996,-15.985899999999992,11.577798999999995,-4.621108999999996,-5.568321000000002,-8.125424000000002,12.916241000000001,11.359091000000001,11.667425000000007,-12.378785999999995,-10.044891999999997,-1.5577529999999986,-6.710111000000002,-0.020279000000000408,14.65884100000001,-12.543647000000002,-17.241047,-2.5552410000000005,11.912633000000003,2.127879,-9.006911,-26.744295000000022,-19.663931,36.64557100000001
P30559,-27.54804999999999,-4.590474999999996,-3.819156,-28.255769999999977,-13.24551,0.0599380000000006,8.657321,-7.363262999999999,-4.164219000000001,19.45232299999999,-6.213484000000003,-3.2921400000000047,-1.906538999999999,6.953075000000011,3.1268459999999973,5.166887999999998,-4.580110999999995,-5.218940999999994,4.6717689999999985,-3.0755489999999983,-2.4267209999999992,-14.648539999999995,-14.543776,9.601492999999994,-6.532111999999998,-7.799600999999995,-1.8288169999999992,-2.922839999999998,0.4299749999999997,-10.970627000000011,1.4432360000000013,-22.82637600000001,-1.899228000000001,-10.237801000000003,15.28002400000001,4.4752800000000015,-24.469895000000008,1.7747720000000011,10.703933999999997,-9.431360000000002,10.751552999999996,0.6170170000000013,10.782905999999995,-6.023368999999995,-4.465176999999999,12.035936999999995,-9.11511399999999,-3.068061000000001,-7.5595310000000016,-0.8104089999999986,-12.508234999999996,-17.174831000000005,2.252989999999999,-26.715396999999985,7.365639999999998,-17.369863999999986,-4.130288999999998,-0.756330000000001,-1.9684499999999983,-14.912970000000001,5.396341999999999,35.79518799999998,-5.104902000000005,9.55326100000001,16.808432000000003,6.0846350000000005,1.0513070000000004,9.50323,11.334228000000005,0.7666340000000003,-20.88441299999999,-1.5646920000000004,7.842318000000001,-0.702006,-13.812088999999991,-8.126595000000007,2.350012,-12.305682,5.648967999999997,-1.103481999999999,-8.941434000000001,-7.024815999999996,14.587297000000007,8.767852999999995,7.954087999999997,-14.525110999999992,-4.520837999999998,-4.167992000000001,-6.264068999999998,2.6832159999999985,15.180928999999997,-15.327323999999987,-18.559436000000012,0.9193079999999995,9.514371999999991,3.6994019999999987,-6.803047000000005,-25.66848000000001,-18.986393999999986,38.93784900000002
P35368,-36.20281599999997,-6.482532999999997,-10.911575999999995,-41.344288000000006,-8.446518999999999,-11.04720300000001,15.051114000000004,-9.680919999999997,-7.115075,26.816495000000003,-9.263975999999992,-2.6723549999999996,3.2983399999999987,8.853911999999996,1.6185369999999986,0.7667419999999993,3.138145999999999,-8.654530000000003,0.878852,0.5875290000000001,1.8433049999999986,-16.07469699999999,-22.657168999999975,11.165778999999995,-10.04741699999999,-8.500367000000017,-12.005166000000003,-5.000315999999999,3.354811000000001,-4.854906000000002,3.6192429999999995,-21.20081000000001,3.1332139999999953,-5.481458999999997,16.24971800000001,5.3671969999999956,-23.915526000000007,-0.03988700000000234,12.792527000000003,-15.911840000000014,18.320416999999996,4.763626000000005,9.161931999999997,-0.7910109999999989,-11.909377000000005,1.110474999999997,-13.674220000000007,0.7659990000000034,-6.324747999999996,13.72529600000001,-9.770243000000006,-20.898754000000014,9.007444999999999,-34.81460700000004,7.831625999999999,-24.13286399999999,-0.7663639999999993,-4.225834999999999,-6.724865999999996,-23.566083,8.361585999999999,37.112689999999965,-5.633402000000006,7.477814000000002,27.912071999999995,14.815942999999988,0.27333300000000005,10.352229000000007,18.58942699999998,0.09367799999999873,-20.12557500000002,-4.094825999999998,9.526176,2.2347259999999998,-15.552521000000018,-18.553925999999993,3.102598999999997,-19.524623000000002,12.49871700000001,-5.089226999999995,-18.409173000000013,-9.107120999999992,16.21622599999999,1.693007999999999,9.616162999999997,-23.324230000000007,-14.439230999999994,-2.605005000000001,-4.536596999999997,8.708119999999997,6.523948000000001,-19.220015999999976,-25.067406,0.12827700000000208,13.486252999999996,8.782620999999999,-9.846638,-40.55889100000004,-21.88992499999999,46.14701000000004
P21452,-26.63436099999999,-0.19228100000000012,-5.745438999999997,-33.122594000000014,-0.8617309999999994,-1.9211760000000009,10.004386999999994,-9.598076999999996,-4.8763080000000025,20.806736999999977,-4.749107999999996,-1.908632000000001,-1.3229199999999997,1.6167999999999998,-2.372400999999998,3.3896129999999993,3.0572010000000023,0.4747639999999983,0.9898870000000008,-3.4128799999999995,-5.262736999999999,-13.828698,-13.156680999999995,6.514581000000004,-8.208632999999999,-6.192793999999999,-7.355136999999998,-3.289960000000002,3.153251999999994,-8.946382999999999,-2.6139030000000028,-20.67122799999999,5.226849000000002,-3.975252000000002,13.153143999999998,6.341829000000006,-25.210811000000014,6.215587000000003,9.481479999999996,-14.045041999999986,10.024288999999992,-1.867049999999999,10.593489999999994,-7.6992020000000005,0.4442299999999989,7.374242000000001,-19.57664399999997,-2.2621589999999996,-5.536462999999997,-1.9613089999999997,-18.279605000000004,-19.378939999999993,5.178442,-27.607254000000026,1.327749000000001,-21.338575000000006,1.0550730000000008,0.08097599999999916,-7.018930000000002,-14.190753999999995,0.568261,31.067495999999988,-2.2921080000000007,5.103178000000001,18.842687999999995,9.441196999999995,1.1568500000000008,10.867506999999994,10.539938999999999,-3.4535790000000044,-15.570051999999999,-0.8550009999999997,6.624386,-1.4901929999999965,-12.255212000000004,-14.599914999999998,8.834393999999998,-10.856350999999986,11.181430000000004,-6.184148000000005,-4.933621000000001,-3.7961840000000016,15.298752999999992,11.395026999999988,14.179586999999996,-17.38516500000002,-6.435128000000004,4.347622000000001,-5.878608999999998,-7.547747999999997,7.733411999999995,-15.377958000000017,-18.079127999999994,-4.207562000000005,9.641162000000005,-0.250401000000001,-9.801023999999995,-23.662370999999997,-14.571010000000006,42.661627
O43614,-28.39904299999998,1.9175290000000007,-8.809189,-35.648812000000014,1.2117050000000018,1.3838009999999943,13.48290400000001,-13.491099999999996,-11.644378999999999,24.094177999999985,-8.180622999999997,2.0803869999999955,-1.354298,3.9645630000000005,-4.147664999999997,6.699300999999999,3.6282619999999977,-9.699002999999994,0.07680599999999953,-7.165634999999996,-3.0886500000000003,-11.181114999999986,-21.66790899999999,-0.756655,-8.907674999999998,-6.221408000000001,-5.818514999999998,-7.0057259999999975,2.4216450000000003,-11.67619000000001,-4.156017999999999,-23.70475900000001,4.106544000000002,-2.134020000000001,13.59029699999999,9.316519000000007,-18.378235999999976,2.1902189999999973,5.028301999999998,-13.206396999999996,12.939137999999996,1.6983330000000003,9.710235000000006,-1.8726390000000004,-3.7935839999999996,1.1788980000000002,-13.474918999999995,-1.0852969999999995,-0.24600100000000022,7.363104999999994,-16.622869,-14.327115000000008,11.311072000000003,-31.64729299999999,4.109358999999998,-25.622656999999997,5.0776900000000005,-2.945757,-9.409735,-20.10415600000001,-1.0366880000000005,31.049135999999994,-2.4872969999999994,1.9875359999999995,23.962430000000005,10.748752000000001,-2.372028000000002,12.004679000000005,11.94198700000001,-3.023571000000001,-11.682182000000012,0.44223599999999924,1.1289409999999993,3.366343000000002,-6.249968999999995,-14.599921,12.259006,-13.632805000000005,8.783452000000002,-5.26538600000001,-10.504544000000006,-2.402585000000002,12.413080000000011,10.780373999999991,18.52352299999999,-11.049493999999992,-4.206317999999998,-2.252096999999999,-8.464660999999996,4.016591,10.131805000000009,-9.412208999999995,-16.061944999999994,-5.675609000000004,17.367955,4.393094000000002,-7.205064000000008,-28.245548999999986,-13.835085000000007,43.34288500000001
P30411,-27.187543999999995,-3.3675490000000026,-7.518774,-29.836288999999987,4.714312000000002,-3.2382210000000016,11.993954999999993,-10.221603999999992,-16.10031,17.588724000000003,-6.869528000000007,-2.024063000000001,-8.769461999999997,2.831849000000001,-2.841615999999999,3.4778280000000006,7.715820999999995,-6.068663000000001,-1.3615639999999996,-8.264714999999997,-2.5937130000000006,-10.706793000000012,-18.643571999999992,4.220357999999999,-8.086453000000008,-10.997095999999992,-5.276594000000003,-10.0432,4.838434999999993,-11.942577000000005,1.1843359999999998,-22.42336899999998,2.741022000000003,-1.7106039999999991,10.797829999999992,7.04643200000001,-21.32172800000002,-1.8621230000000006,1.0728900000000003,-16.791174999999992,4.710423999999998,1.5645000000000007,6.475423000000001,-4.812788,0.7189550000000008,7.705520999999997,-13.271605000000001,1.8974979999999977,0.009407000000000805,4.363668000000003,-14.438233999999998,-12.131068999999993,9.26239100000001,-22.345236000000007,1.6022639999999992,-23.044835999999982,0.9248759999999997,-6.584502999999997,-4.419401,-12.530081000000006,-0.8966250000000017,31.075997000000008,2.4943949999999986,-0.5138930000000004,24.836705999999978,11.133516999999996,-0.3946709999999999,12.115427999999998,11.266534999999998,-8.457846,-9.583196000000006,-2.9207820000000004,3.1564809999999968,0.6017710000000005,-0.8335720000000003,-11.823600999999995,5.652996000000002,-11.650421,8.845962000000002,-7.594339999999996,-9.567853999999999,-4.8444169999999955,9.446667999999997,11.954895999999996,12.240406999999983,-13.072745999999995,-6.326125999999995,-5.110984999999995,-9.008503000000001,5.108484000000001,7.005625999999997,-13.444802000000006,-15.347278000000012,-10.196814999999999,6.148110999999997,0.7825430000000005,-11.802050999999993,-21.641059999999985,-15.175900000000011,39.060701000000016
P07550,-28.713336000000023,-3.655797000000001,-5.478295000000002,-32.734508,1.9352640000000008,-5.165829999999998,12.470148999999996,-15.040084,-15.211982000000008,20.85850399999999,-5.454030999999995,0.6136770000000022,-8.538202000000004,5.568298000000002,-2.274804000000001,0.45937999999999823,9.260639999999992,-7.807470999999993,-4.417499999999999,-7.8313749999999915,-3.951526000000001,-9.45215,-18.234007000000013,3.838878999999998,-6.054706000000003,-6.159912,-6.816930000000007,-6.585261999999997,3.0643009999999977,-10.450677999999995,-0.8210940000000021,-23.181197000000015,6.987352999999995,-4.982211999999998,13.837773,6.472364999999998,-18.87098200000001,3.1509480000000023,6.680387000000007,-11.396167000000002,11.744095999999988,4.518340999999999,4.749702,-3.9879480000000007,-2.632103,7.576617000000006,-16.368886000000007,-0.27234100000000067,-1.2823200000000015,3.324552000000002,-17.284519999999993,-11.414940999999997,14.446592999999988,-24.005880000000005,5.392744000000003,-22.740314999999974,2.5770150000000016,-3.719935000000001,-6.556384000000004,-21.061846000000003,-2.9254970000000022,26.050348999999976,1.6035200000000007,-0.5641540000000003,20.46720599999999,7.224099999999999,-2.7028630000000007,15.10504,12.465902999999997,-10.682758000000007,-7.808647000000004,-1.7763660000000014,4.192866,-0.9606659999999998,-1.106429999999998,-17.53700499999999,9.521586000000003,-8.119108,2.9714989999999997,-6.706752,-9.562853000000002,-0.9858359999999998,8.613658,5.789521999999997,11.958274000000001,-14.783627,-5.5456989999999955,-2.6159390000000005,-16.480056000000005,2.2640119999999997,5.4039540000000015,-11.712181000000001,-11.773309000000003,-11.317661999999997,10.913104,1.7030309999999997,-8.503180999999998,-23.536313000000007,-13.895576,39.80096900000003
P21554,-33.821883999999976,-1.0013600000000007,-6.123389,-41.84239299999998,2.5456610000000004,-5.213544000000007,12.967749000000001,-10.095715999999998,-11.127074,19.259289000000006,-10.466312000000006,1.0606519999999988,-6.191891999999995,4.356609000000005,-8.713313999999986,4.1144510000000025,7.536942999999995,-8.148003999999998,-2.1070259999999985,-13.169155000000007,-1.4528630000000002,-19.946510999999987,-24.03238000000003,3.2455170000000004,-6.561911999999997,-1.5826949999999993,-10.142953000000002,-1.9926409999999992,6.732010999999993,-15.317372000000004,-2.3101609999999986,-22.678974000000004,2.4923710000000003,-7.6457590000000035,14.367284000000009,4.746141000000001,-22.940752000000014,0.5259299999999961,2.891485000000001,-12.490412999999998,11.299552000000004,4.864404,8.976364000000004,-4.397821999999997,-0.4870189999999999,3.6301589999999972,-13.487132999999993,-2.98066,0.13344499999999965,5.737614999999991,-19.604026000000008,-10.392325999999995,15.462421999999997,-26.788078999999957,3.6873290000000005,-22.734815,7.533260999999996,-10.887917000000012,-8.034287000000003,-22.387842000000013,-1.8368869999999984,31.744385999999995,0.09286099999999992,2.005257,28.253017000000003,10.59479299999999,6.256690000000004,22.72917500000001,13.414833999999994,-12.283860000000004,-7.0315319999999994,-4.692685999999998,6.299084999999995,0.9717009999999998,-4.847507000000002,-15.35175800000002,11.914011000000006,-5.495232999999998,10.786353000000004,-10.191358000000008,-13.131744000000007,-5.14411,7.4491790000000035,7.647408000000002,18.596032,-15.383560999999982,-8.822249999999999,-4.948962999999999,-9.158265000000004,5.302994000000006,7.368109999999995,-14.654795000000012,-12.579021000000004,-5.3344029999999965,13.291106999999995,1.9287189999999999,-9.26818899999999,-22.49800800000001,-15.234317000000015,44.957551
Q96RI0,-30.49351600000002,-7.846147999999998,-0.602596,-28.941448,-12.829149000000003,-1.491958,7.738676999999994,-4.102570000000001,-4.900715999999996,22.454596000000016,-9.292381000000008,-8.067727999999999,-2.630792999999999,11.467377999999982,3.9738409999999944,-2.4881159999999984,-3.7672190000000016,1.6572440000000002,4.0737239999999995,-0.6385220000000005,-1.5919979999999971,-16.889044000000002,-5.8461469999999975,9.578490999999996,-7.833460999999999,-20.182837000000006,-3.5157939999999983,4.296282999999997,-6.7430179999999975,-6.225744999999996,3.9547080000000028,-24.55952400000001,-6.946477000000001,-10.973111999999995,14.951791,1.8891809999999987,-21.22444,3.334047,10.255604000000018,-2.9635800000000057,13.317470999999994,8.114147000000003,11.220187999999998,-5.692081000000001,1.861764999999999,4.457117,-8.982457999999996,0.6328320000000016,-9.893689000000002,1.5055420000000015,-10.128251000000002,-21.79125099999998,-0.7562300000000001,-26.289340999999975,3.7292599999999996,-11.312239999999996,-5.388839999999998,1.7304020000000035,-6.425875999999999,-8.144845000000002,14.379507999999994,34.02592200000002,-11.954656000000014,22.09238900000002,9.403412999999993,10.908963000000002,5.279480000000004,6.623224,17.163745000000002,4.163019000000005,-20.06728199999999,-3.8704040000000024,0.7434579999999998,2.534781,-17.147197,-5.598920999999999,0.11149900000000014,-18.740378000000018,4.762208,-3.200219000000001,-1.8761069999999986,-10.638785999999993,19.83288799999999,10.029888999999995,10.099524000000002,-20.78996700000002,-13.576615999999998,8.064169999999995,-1.5027980000000003,-1.7540720000000025,22.058960000000006,-21.93279699999998,-17.147791,5.416447000000001,7.357249000000004,8.170913000000004,-6.078674000000002,-19.172086999999994,-27.85637399999996,38.90539499999998
Q9ULM6,-40.51373299999999,-4.62644,-5.945182999999996,-46.18582399999999,4.184875000000003,-7.580799999999995,15.815108999999998,-10.082795000000006,-11.846289999999986,31.708591000000006,-6.804139999999997,4.3408710000000035,-4.174064000000001,8.663162000000002,-4.419598000000001,7.232557999999998,18.004273999999988,-20.523630999999984,-6.5893509999999935,-7.511386999999998,3.2681899999999993,-16.764139,-22.488819000000014,2.0793169999999987,-7.3951360000000035,-6.664297999999993,-8.925861999999999,-6.075796000000005,2.680995999999999,-17.191100000000016,1.3917130000000013,-28.98792,1.2506860000000004,-11.311867999999988,13.255034999999992,9.697871999999991,-9.830014000000006,0.0374890000000008,1.5920270000000012,-7.180848000000001,6.418504000000001,9.576752999999998,8.640154000000004,-6.455028999999996,1.0760670000000006,1.081439999999997,-12.646347000000011,0.07429899999999934,-0.44819299999999945,19.517348999999996,-15.983309999999996,-12.712800999999988,20.47810000000001,-29.285153000000005,8.394249,-30.260297999999988,2.618616000000002,-9.363655999999999,-13.985133999999995,-31.516298000000024,0.648462000000001,32.389436999999965,5.709137999999997,-2.6792749999999983,29.499247000000025,10.868962999999999,5.4117040000000065,12.456846000000017,21.305793000000012,-12.108245000000009,-0.7862579999999995,-3.6342039999999964,-0.010311000000001569,4.615554000000007,4.966701999999998,-19.30321299999999,14.630835000000001,-7.330210999999994,8.926979000000005,-15.090602,-23.026847999999973,1.9560880000000005,10.102184000000005,6.458549999999998,13.187264000000004,-20.586995,-19.181678000000034,-12.06085200000001,-26.25296400000001,15.127241999999997,9.921029999999995,-12.953786999999979,-11.228842000000016,-1.7311349999999994,19.698830000000008,2.123675999999999,-13.902376000000014,-27.28684200000004,-7.3665349999999945,38.97004500000001
P59551,-23.554667000000002,1.8087759999999988,-11.100794,-29.719781999999988,1.4098660000000003,-6.418487999999999,11.023996000000002,-7.813110999999995,-7.400362999999999,11.245495999999997,-5.135851,0.2396730000000001,-5.145968000000002,3.7637410000000004,-6.214803999999999,1.7789269999999986,7.7904480000000005,-4.202426999999998,-0.7198240000000011,-5.966569999999999,-2.038240999999999,-9.872956,-10.78860999999999,6.709111,-8.555092000000002,-5.936878999999996,-7.1087339999999966,-3.847876000000007,2.8249170000000006,-10.785471999999995,1.1482539999999994,-15.616148,5.016798999999997,-5.496196999999997,11.789102000000002,1.1259540000000001,-20.760933999999995,0.9775799999999994,2.6638979999999965,-16.032258,11.712673999999993,1.209183,3.854547000000002,-4.560456,-0.3193290000000004,7.156341000000003,-6.324070999999998,1.906834000000001,2.2529939999999984,6.291023000000007,-11.967091000000003,-8.64002800000001,5.905276000000003,-26.683672999999988,-2.1159529999999998,-15.875201999999994,1.2468170000000005,-5.217671000000001,-9.530935999999995,-7.247403999999997,-2.2542300000000015,19.266930999999996,-3.1145039999999993,3.346051999999997,24.142570000000013,4.118917000000001,-3.273576,5.603797000000004,7.354646999999994,-4.744875999999998,-11.472560000000003,-1.3946830000000001,6.029231999999998,-3.1742969999999957,-5.255466000000002,-9.707669000000005,6.699745999999999,-12.138379,8.911316999999999,-4.2732360000000025,-4.683751999999997,-7.848015999999995,13.071183999999992,13.408139000000002,8.96055,-11.455334999999998,-6.511217000000001,-0.5721369999999996,-3.1816739999999992,-4.99897,9.566146000000003,-13.386219999999994,-14.221755999999994,-9.674682999999991,5.563016999999997,-0.12668000000000074,-7.952774999999998,-16.052156,-14.215208000000004,38.54564699999999
P21730,-22.016360999999986,-3.134364000000001,-2.8161450000000006,-29.202566000000004,0.46117599999999953,-1.448796000000001,11.756019999999996,-11.340690000000002,-5.823193000000003,13.648557,-11.546090999999993,0.8667140000000004,-1.178142,5.003839000000002,-5.934748999999995,-0.9873690000000022,5.111889999999999,-3.797304000000002,-1.2358850000000003,-2.7105820000000023,-3.684495999999997,-11.489235999999998,-12.543463999999991,4.273533999999999,-6.736007000000003,-6.090332999999996,-3.5077879999999992,-3.149292000000001,-0.5477129999999982,-8.140375999999998,1.208695,-17.74763799999999,2.449743,-7.5855440000000005,13.530451000000001,6.254101999999996,-21.438069999999993,-0.44050399999999973,8.570874999999996,-9.478090999999992,10.99646,2.5998169999999994,6.315642000000008,0.6617639999999999,-0.2638910000000003,4.687947000000002,-4.975935000000002,-0.5675410000000001,0.41517400000000143,4.653062999999999,-13.397757999999998,-13.87051099999999,8.457444000000002,-27.025697000000005,5.271789000000002,-16.419249,-1.467746999999998,-6.545840000000001,-8.391028000000004,-10.650518999999997,-1.4605029999999997,23.02462100000001,0.41227099999999983,5.175265000000001,21.910260000000005,8.346074000000003,-1.532654,9.597238000000004,8.931036999999995,-3.860740999999994,-10.74275499999999,-2.9294769999999986,6.690243999999999,-2.3008039999999994,-4.901003000000008,-12.609271000000001,6.649149999999997,-7.904272000000005,7.580541000000004,-5.354273000000001,-9.96158,-2.464092000000001,11.944319999999998,10.598582999999996,11.215698000000007,-10.988728,-4.850610000000001,0.510425,-10.025323999999987,-2.5068349999999997,10.678636999999995,-16.196112000000007,-15.013970000000002,-4.123482999999998,6.321541000000005,-0.044782000000000044,-10.331595000000004,-16.264435,-14.535318000000016,36.671417999999946
O14842,-23.326810000000023,-4.419768999999996,-5.613158000000003,-24.109693,-6.595657000000001,-3.7966369999999996,3.570824000000001,-3.1144279999999984,-1.633432,16.801971000000005,-6.915698000000003,-6.256618999999998,-0.9359770000000006,4.044459000000001,-2.810341999999999,-3.097937,-5.9962949999999955,-0.017079000000000344,6.752858000000005,-0.3824030000000002,-4.898360000000003,-10.339791000000004,-11.705569999999991,7.638830000000002,-1.3069549999999988,-11.80770799999999,-3.908193,2.3959379999999997,-8.230292000000002,-2.054008,4.565369000000002,-21.349031000000007,2.1999829999999987,-6.801793000000003,12.762816000000008,2.497411999999999,-21.532310999999975,-3.5684639999999974,9.584282000000002,-3.978827000000001,10.204901000000005,5.912849999999997,8.099102999999998,-3.527615000000002,-0.2916180000000002,5.948225999999999,-8.120743000000003,2.7711120000000005,-11.998368,0.24868999999999977,-12.690125999999998,-15.122160000000004,-0.567752,-21.230767999999998,3.1503110000000016,-12.578463000000003,-4.656499999999999,-4.218166,-5.175249000000002,-5.439851999999999,6.478448999999997,28.427637000000015,-6.397554000000001,9.639564999999992,10.588716999999997,9.742175999999999,1.518609,4.3590610000000005,7.9778829999999985,4.032313999999995,-18.423671000000017,-0.9467420000000006,5.781350000000002,-0.5090589999999997,-14.399805999999995,-5.369525000000001,-1.1799549999999999,-11.192252,4.763397999999998,-3.553212999999998,-0.6785379999999995,-4.934464999999999,14.919737999999995,7.726295999999995,9.342061000000003,-12.055110000000012,-8.724493999999996,7.397663,-1.144749,-6.580406000000007,10.940426000000002,-16.620203999999998,-12.729297000000003,4.509810000000001,4.440196999999996,9.881455000000004,-9.589792999999997,-14.273650999999994,-15.950737999999987,34.215606999999984
O95665,-34.45858899999999,-9.356276000000006,-5.874056999999993,-28.34857099999998,-4.509151000000001,0.009924999999999996,9.645658999999997,-6.583070000000003,-1.925228,26.22040299999999,-9.198249000000004,-0.3762939999999999,0.4915900000000005,10.078886999999996,2.868804000000001,2.1104300000000005,5.153852,-6.266396,2.13562,-0.6604539999999999,-2.1914619999999996,-17.538966999999992,-11.242795000000001,6.897701999999992,-6.786450000000001,-14.277632999999998,-4.647856,-1.1829880000000015,-2.1402470000000036,-0.6020750000000008,5.704310000000003,-24.34731299999999,-8.762074000000009,-6.000715999999996,13.29000299999999,4.508663,-22.729744999999994,2.9402940000000037,10.989176000000004,-7.852293000000001,8.15630300000001,3.820396,6.371486999999998,0.0438920000000003,-0.8320980000000001,5.878354999999995,-8.24761399999999,4.829519999999999,-10.799978000000005,6.593093,-16.071977999999994,-22.551186999999977,3.669526999999998,-26.822197999999965,4.14896,-14.229373000000006,-0.3101589999999994,-0.7871449999999994,-8.520969,-10.012148000000003,11.912310000000002,36.466079999999984,-5.242497999999997,11.21695800000002,17.977275,12.174919999999995,1.956886999999997,8.301673000000001,14.661504999999988,1.642011000000001,-20.260770999999995,0.4843689999999995,3.5361490000000013,0.30632800000000066,-17.505725000000012,-9.135425000000009,6.047087000000003,-17.771767000000008,8.594892000000002,-3.2520489999999995,-9.13224500000001,-6.743664000000006,14.961130000000002,9.604341999999995,14.750539000000003,-17.195200999999997,-7.360865000000007,4.370085000000001,-6.357685999999998,2.820345999999997,14.735426000000002,-16.041471000000005,-19.333313999999984,4.0059890000000005,9.461575999999999,6.137715999999996,-9.070327999999996,-27.178843000000025,-19.153124999999992,34.043557
Q9HC97,-21.099513999999996,-5.477371999999999,-2.3923500000000026,-23.857573000000002,-2.2366239999999995,1.0194680000000007,4.696168999999999,-1.5819810000000007,-7.196284000000002,15.518259000000004,-5.081290999999998,0.1926400000000004,-4.7547820000000005,6.505196999999998,-3.6795600000000017,5.863582000000004,-2.3055139999999996,-4.056345999999999,0.7059960000000004,-3.9709459999999996,-4.149984999999999,-8.222185999999992,-8.450456999999997,4.6573429999999965,-4.449464,-9.100115000000002,0.06233500000000042,1.4796680000000006,-2.386051,-7.579368000000003,2.8680689999999984,-22.514314000000024,-0.9897300000000004,-7.229982,12.965013999999998,1.800625999999998,-18.096424000000003,3.4709639999999995,6.2139109999999995,-9.433984000000008,6.729679000000002,4.570857,8.096894,-5.540070999999998,-1.1225170000000029,8.731282999999996,-10.11205,-1.3252799999999987,-5.2431209999999995,0.9906140000000003,-8.98322899999999,-12.273011999999989,2.947967999999998,-17.069284999999994,2.6052209999999985,-15.161081000000012,0.1636500000000003,0.5247240000000007,-5.725599999999998,-11.386441999999997,2.282746999999999,30.67548399999999,-1.668614999999999,6.948458,13.482515,8.799460999999996,-0.06051800000000032,7.176923999999999,7.543863999999996,-1.8935579999999979,-14.445288999999992,1.0192460000000003,4.775644,3.5536710000000027,-8.45006,-7.6199869999999965,3.250133,-9.216394000000003,7.5223289999999885,-0.4822419999999999,-4.154579000000002,-4.292574,11.795862000000014,7.623327,6.466707999999995,-13.789613000000005,-5.695057,4.7508089999999985,-4.524066999999997,0.5603400000000004,11.628881999999996,-10.92945000000001,-14.425236000000005,-0.2912070000000002,6.889996000000004,5.176534000000002,-7.849918000000002,-14.646124999999998,-17.594334999999994,33.25051199999997
P23945,-41.816989999999976,-2.1274529999999965,-17.62027699999999,-55.22700999999997,9.661775000000011,-11.460716999999995,18.037054999999985,-15.546313999999995,-17.105434999999964,31.381113999999975,-8.022376000000001,-0.9672130000000022,-8.252510999999995,13.667346999999983,-7.660154000000004,5.777644000000002,19.991068000000013,-18.26673900000001,-7.5368679999999975,-19.35588900000002,-6.482069000000004,-18.688075000000005,-33.904493,2.790315000000002,-2.4613749999999985,-3.380402,-12.044653000000004,-3.696243,-0.43668800000000074,-18.346249,-5.418692999999998,-36.26061199999998,6.800833000000001,-21.022526000000017,19.915893999999994,16.475679999999993,-29.417359000000033,9.384186000000003,4.555823999999997,-15.490761999999998,15.081024999999993,8.491782000000006,10.311570000000005,-8.917952000000001,-1.268415000000005,15.348244999999997,-14.364827000000014,-0.11564900000000014,1.6733069999999994,21.444892,-28.891278000000018,-15.519530000000001,29.852687999999986,-32.426129,4.736808,-34.05108099999997,12.868529999999996,-14.853446000000025,-12.880286,-33.329822000000014,-7.225077999999993,42.683240999999974,-0.14877199999999974,-4.834546000000003,39.72454799999997,18.70191400000003,4.445901000000007,22.48396399999999,19.911929,-16.073809,-9.754786999999991,-1.0103709999999992,5.0057220000000004,4.162800999999999,0.05024900000000162,-23.276258000000023,16.777066999999988,-19.539568,21.25840899999998,-12.333881999999994,-23.653906000000017,-5.118948,15.018894000000014,14.919946999999999,23.684097999999995,-18.70739799999996,-20.89788900000002,-18.20489499999995,-23.89466300000004,16.722567000000026,9.450652999999999,-14.902225000000014,-16.312504,-9.165260000000004,21.664991,7.252868000000005,-15.032126,-34.51997399999997,-15.350555999999996,64.48730299999998
P47211,-21.36135999999999,-2.2631620000000012,-5.186447000000001,-33.217412,-5.275984000000004,-3.4836389999999984,9.103100999999995,-7.196914000000002,-5.150014999999999,15.443576999999994,-5.630024000000001,0.16865200000000033,-0.2791499999999999,5.150539999999999,-3.188182000000001,2.2452239999999994,6.365233999999999,-2.307417000000001,1.1872380000000018,-4.490417999999997,-1.3008689999999998,-12.63212900000001,-15.166592999999997,4.158488000000004,-7.519760999999998,-0.6045850000000003,-5.233527999999999,-5.938360000000001,-0.2765770000000012,-5.5446010000000046,0.5447790000000007,-15.733962000000009,-0.5613410000000002,-7.624277000000001,12.283398000000004,3.253343999999997,-19.18492300000001,1.4533289999999994,1.731714000000001,-10.834081999999997,8.730089999999993,0.6529340000000012,6.044093000000004,-0.2260949999999996,-4.408772999999997,5.084594,-4.227331,-0.8766929999999995,1.2487699999999995,9.010418000000007,-15.822255999999994,-14.039445999999996,4.7254450000000014,-23.51481000000001,2.013385999999999,-19.688923999999986,1.7858759999999996,-10.564846999999997,-6.939155999999999,-14.578141999999994,-0.9709579999999995,22.382052999999992,0.5611029999999997,2.6334209999999967,22.51113500000001,7.9222139999999985,0.7835319999999993,8.35189600000001,10.13619099999999,-4.438822999999996,-9.870235999999986,-0.9546390000000005,6.093545999999999,2.3550769999999996,-8.520757000000007,-11.101789000000005,3.008010999999997,-13.12953999999999,10.164068999999996,-5.462011000000001,-9.905371000000008,-1.9665980000000003,7.770480999999998,10.557276000000005,10.36997599999999,-11.270598,-6.937918000000002,-6.476898999999996,-3.3654020000000013,1.2446330000000008,9.268269000000005,-11.129000999999993,-10.419945000000011,-1.8902490000000005,4.906788000000003,1.9810430000000006,-9.530306999999995,-25.413501000000018,-11.162475000000006,36.39343
P43088,-23.51433899999999,0.3778869999999999,-5.954075000000001,-29.881924999999992,-0.7408060000000005,0.4630390000000008,7.420087999999999,-8.708073000000008,-8.204779,14.175639999999998,-8.687965999999998,2.7158089999999984,-4.0379900000000015,0.11580299999999974,-3.5201700000000016,4.2768260000000025,4.807669999999998,-4.112810999999997,-6.462192000000001,-6.663239000000002,-1.1300820000000003,-8.886904000000001,-15.272574999999996,4.679192000000002,-9.305672,-2.1054629999999994,-3.236129000000001,-7.4563840000000035,0.7247510000000004,-14.093619000000002,-0.0015350000000003833,-19.424346000000007,4.646640999999995,-9.408075999999998,16.189842000000006,4.705620999999996,-22.837211000000018,-2.0379340000000012,0.32896699999999945,-13.052822999999998,11.261552000000016,5.338574999999999,5.000101999999998,-6.345392,-1.1198839999999999,9.530457000000004,-8.591908000000005,-1.6129210000000007,3.9401360000000007,8.256377999999993,-20.433812999999997,-7.865142999999995,6.793769999999993,-19.506413999999992,1.447179,-19.264271999999988,0.8699769999999993,-9.868856000000005,-7.647965999999994,-12.701967999999999,-6.3347960000000025,24.97247500000001,3.9333020000000016,1.8303720000000003,27.416139000000005,10.652163999999994,1.4255709999999995,9.289672999999999,10.571271999999999,-6.987200999999998,-6.809334999999999,-0.5740900000000029,5.988675999999999,3.160568999999997,-2.1845389999999982,-10.00641400000001,6.001977999999998,-6.434488000000004,5.1940040000000005,-4.036925,-10.608314000000005,-0.7951650000000003,7.627205000000005,5.4519860000000016,12.402197000000005,-11.489135000000001,-6.571907000000001,-8.469204000000001,-11.598256000000001,1.3881310000000002,7.9488650000000085,-11.654854000000011,-10.990037,-10.83731300000001,8.215400999999998,4.473578999999998,-11.413572000000004,-18.480800000000002,-9.43160900000001,39.04439300000001
O00421,-20.142363999999993,0.99064,-6.941519999999999,-28.348422000000003,6.584085000000005,1.5122239999999982,11.208766000000008,-5.899058,-9.596073999999996,9.973529000000005,-5.812253999999998,-0.7094499999999996,-4.120163000000005,7.146921000000003,-7.554549,3.0219129999999987,9.45103600000001,-8.909539999999998,-0.9657590000000001,-5.930919000000007,-3.4306340000000013,-10.665599,-15.80680200000001,4.225832999999999,-5.634272000000005,-3.568189,-5.418885000000002,-3.5787340000000007,3.9659410000000035,-4.979929,-0.47786499999999993,-19.120003999999984,1.9050329999999995,-9.582207999999996,11.968644000000006,5.904417999999999,-16.74003699999999,0.9298890000000005,3.9094229999999976,-9.968618000000005,6.386928999999996,3.211307,8.512404000000002,-11.355497000000003,2.2977739999999964,5.528908999999998,-5.790752999999999,-2.6118900000000007,0.3689379999999989,3.272933,-14.095645000000008,-6.182708999999999,9.441289000000006,-26.621692999999986,1.814634999999999,-23.155925,4.239773999999996,-8.783552999999996,-6.967240000000002,-15.702849000000006,-2.089573000000002,22.82633100000002,2.627927000000001,-0.09285100000000114,24.574384000000006,5.464092000000007,0.5121229999999999,9.477276000000005,11.696491000000009,-3.5928260000000036,-7.866404999999995,0.23724500000000087,0.6235820000000015,-1.9906199999999998,-1.8441520000000016,-10.696067000000001,10.795293000000006,-3.171814999999998,3.455468999999998,-5.470833000000005,-7.307477000000001,-1.1243400000000017,8.872088000000007,9.795367999999996,8.443793999999997,-11.913110999999997,-4.374327999999999,-4.250935,-6.592623999999989,2.812978999999999,7.315847999999998,-11.766835000000007,-11.959321000000003,-5.014398999999992,9.372008000000003,2.9293879999999985,-10.252583,-20.208153999999993,-11.909746000000007,38.705500000000015
Q6DWJ6,-24.700653000000006,3.3428390000000023,-11.137913,-34.17548400000001,1.539755,1.2275519999999998,9.058757999999997,-10.181737000000014,-8.376723999999996,11.813718999999999,-8.947538000000005,4.0395879999999975,-0.45362400000000025,3.4912550000000016,-2.2978469999999978,-0.14832499999999987,10.537740999999999,-7.067852999999997,-4.500953000000003,-10.692849999999998,1.8980270000000001,-10.401852999999997,-17.27577100000001,0.39797800000000066,-8.769081,-1.562564,-4.402483999999998,-10.007676999999992,3.9692410000000002,-10.732759999999999,0.5318520000000012,-11.273039999999996,7.942551000000001,-11.650171999999994,12.270445,7.052715,-20.527519,2.609243999999998,-0.6798899999999999,-11.023007000000007,10.365561999999999,3.1388330000000004,10.773148000000004,-1.173283999999999,-6.503493000000001,4.865989999999994,-14.828286000000007,1.8996649999999997,2.3068560000000007,3.911075000000001,-14.200855000000018,-11.414909999999999,11.817207000000003,-23.85917399999999,2.591933000000001,-18.717565000000004,3.6925580000000013,-10.227780999999995,-5.3181270000000005,-11.28793100000001,-3.153841,18.183249999999997,2.7148760000000007,-1.4481230000000014,24.511676000000005,6.496347999999998,-2.699189000000001,7.962644000000002,6.873698999999998,-3.2051520000000013,-7.749548000000002,-4.219278999999997,1.678927000000001,-0.2071869999999998,-3.137547999999999,-11.414249000000007,6.009191000000003,-9.208161999999996,12.782564000000002,-6.787076000000002,-13.339619000000003,-3.249912000000001,12.236174999999998,11.844412999999998,13.029666999999996,-13.706032999999993,-1.0188070000000027,-4.8993439999999975,-9.778649999999992,-1.725690999999999,3.5790650000000004,-8.678754999999999,-14.610820999999998,-8.481833000000002,7.913814000000001,-3.2844530000000036,-3.100883,-21.00420000000003,-13.311857,40.26335400000003
P41968,-14.256766,1.0271139999999996,-9.282665999999995,-29.28784400000002,3.746895999999999,-4.398124999999999,8.416632,-11.517537000000003,-8.018558000000004,9.098415000000006,-4.823773999999996,-0.7536580000000005,-3.0093530000000004,2.220102000000001,-6.183254000000002,5.950413000000003,3.8170540000000015,-0.6405129999999989,2.872828,-10.005475,-3.7085279999999994,-9.437687,-16.879071999999983,6.590855000000002,-8.497756999999991,-2.369280999999999,-10.052703000000008,-3.8546700000000005,5.282208,-6.805802999999995,2.5546279999999992,-20.583965999999997,6.730416000000002,-8.260245,13.286590999999992,9.333387999999996,-18.76974100000001,2.239076000000001,3.4179549999999996,-15.960815999999994,2.8947679999999982,1.658101999999999,7.199939000000004,-2.7861800000000017,0.11715799999999948,4.191829,-11.520326999999998,-1.029215,0.6146689999999985,5.028035000000003,-17.889969000000008,-6.481299000000001,7.985676000000006,-17.232281000000008,0.5090539999999992,-17.588292000000006,3.545624000000003,-9.559293999999992,-7.085860000000003,-8.761354,-4.531445999999999,27.35870599999999,-1.3889369999999994,-1.5440400000000012,19.960140999999993,8.435441999999998,-5.408477999999998,11.137139999999995,7.7375070000000035,-5.289960000000001,-11.191942999999993,-2.5584750000000005,6.684897000000004,-2.814108,-7.550554000000003,-10.329530000000009,3.389682000000002,-9.263293000000006,12.32137,-0.9560729999999997,-7.9796039999999975,0.9969220000000008,5.692157,6.869569999999997,10.800078000000001,-13.245802999999995,-2.2523960000000014,-0.38412600000000147,-3.821406000000002,2.2423940000000027,5.767025999999993,-12.323454000000005,-12.401846000000003,-8.750638000000004,10.207225999999999,3.6148370000000005,-10.123073999999987,-16.04336400000001,-17.156946999999995,38.33450400000003
P51582,-26.31178700000001,-4.070678999999996,-9.709316999999997,-30.63706899999999,-2.7649960000000005,1.4284739999999987,8.572226999999996,-8.974649999999999,-8.653313999999998,16.863200000000006,-4.954801999999998,0.2245010000000006,0.13796800000000073,7.705746999999997,-2.522542000000001,2.4073190000000007,4.024314999999997,-3.162071000000001,1.4780929999999983,-5.299435000000002,2.189772999999998,-14.681128999999999,-12.417595000000006,10.016549999999995,-7.4497570000000035,-10.840146000000003,-3.672487000000001,-0.8223519999999993,-3.2939240000000005,-4.368598999999994,2.602283000000001,-25.269378999999994,-2.5030230000000007,-6.800739000000002,10.801966999999992,1.9711039999999997,-22.429162,4.826219999999999,8.225553000000005,-14.116823000000009,10.929441999999995,4.203333000000002,8.626104,-4.778831000000002,-0.7897730000000003,7.157205000000003,-9.803179000000004,3.3633399999999987,-4.240812000000003,1.9125959999999986,-16.738112000000005,-15.60341899999999,4.550262000000005,-24.521147999999993,5.7091650000000005,-14.393282999999995,-2.386277,-5.615191999999992,-4.382170000000001,-9.62765100000001,8.792142000000002,33.72675399999998,-4.540972999999998,6.767897000000002,19.898707000000005,11.330614000000002,-3.2835850000000018,5.643820999999995,12.860976999999998,0.8914979999999987,-14.530483999999996,-3.685002000000001,4.479702,6.240384000000001,-14.801417000000015,-7.981156999999998,4.681720999999999,-17.849239999999984,3.2404179999999996,0.11287899999999985,-5.313369000000001,-3.9628229999999953,13.54318299999999,12.898621999999992,10.825572,-15.434757999999986,-5.295001000000003,1.5409060000000017,-5.966242999999996,1.7301579999999994,9.035266000000004,-12.074412999999998,-16.275582000000004,0.8000179999999991,9.866950000000003,6.316251000000002,-5.582622999999997,-24.97929900000001,-17.605994999999993,35.55474999999999
P25021,-27.97671300000002,-2.6409689999999975,-2.437086000000003,-29.641418000000023,1.2205639999999995,-2.237594,5.849195999999997,-8.578654000000006,-7.532347000000004,14.772747000000006,-1.6966490000000007,-1.3232819999999994,-4.620106999999998,5.515787999999999,0.727512000000001,3.454114000000003,5.762619,-7.326876999999996,-1.0268639999999989,-8.533306,-4.083050999999998,-8.42043899999999,-15.670298999999996,7.377175999999998,-5.541418000000002,-2.5271470000000007,-4.702171000000002,-3.9831840000000005,3.6835760000000004,-10.627016999999995,-1.2953640000000002,-17.99856800000001,2.2398669999999994,-4.326677000000001,11.630429999999992,9.40668600000001,-20.115713000000017,3.292881000000001,4.791060999999996,-11.713538999999992,7.410252,4.429821999999999,8.317462999999998,-5.964652999999999,0.10610900000000084,5.464029999999999,-9.703749000000006,-2.4497459999999984,-1.8372119999999994,5.726190999999995,-12.909137999999993,-9.069354000000004,7.129249999999999,-19.077104000000002,3.2636420000000004,-18.951458000000002,-0.5012190000000007,-3.5546910000000005,-6.525164,-9.947921000000001,-2.2459550000000017,29.714503000000004,-1.0130350000000012,3.8193050000000004,23.27727,9.645168999999996,-2.312089999999998,13.855712999999993,6.410757999999998,-5.488814999999995,-11.337065000000003,-1.390072999999999,3.762063999999999,4.562688000000001,-0.8101160000000012,-11.393138000000006,5.599482000000004,-7.873524999999996,9.811808999999995,-8.542019999999996,-6.872664999999993,-1.9689660000000009,11.477157000000005,8.34408399999999,12.628688999999984,-11.654538,-6.660905999999999,-0.6133610000000003,-13.028500999999997,3.153079,7.191705999999999,-10.468524999999985,-14.313741,-3.667769000000001,7.121457,2.2766329999999995,-10.751910000000002,-16.703044000000006,-13.33475200000001,35.99337300000004
P28336,-27.21405500000002,-2.8343190000000016,-10.605254,-33.36228099999999,2.644816000000002,-4.826617,13.15247700000001,-12.260982999999996,-8.941452000000004,15.24983700000001,-6.259621000000005,0.0946069999999983,-5.293433000000004,1.3763290000000006,-2.1004659999999995,0.8381879999999992,8.771030999999992,-7.688807999999997,-6.931701999999998,-9.784361000000002,-2.251318000000001,-11.533144999999996,-20.974856999999993,5.456744000000001,-10.691276,1.1175980000000003,-8.240493999999996,-6.334802999999997,0.3551310000000015,-13.35644200000002,-0.9289459999999995,-16.143226000000006,3.4427669999999995,-6.8371179999999985,10.465506000000001,6.0661970000000025,-19.91492399999999,0.722432,4.165938999999997,-12.794647999999992,7.9248080000000005,6.839825999999999,4.077848,-3.206876,-4.958566999999996,5.528004999999997,-11.353135999999996,2.369812000000001,3.409122000000003,5.283454,-15.064053,-9.703584999999997,12.058921999999988,-19.431346000000023,1.363297000000001,-24.749441999999995,-0.33923999999999804,-9.509314999999992,-4.955437999999993,-17.16909400000001,-5.727388000000003,30.351679000000008,1.4110420000000006,4.612890000000003,25.61969599999999,8.764028,2.091642,10.70986100000001,8.612633000000004,-6.3828570000000076,-6.9719520000000035,-1.781606000000002,5.762212,-0.12491400000000001,-1.3898729999999995,-13.916939000000006,6.615591999999999,-12.127740000000005,9.379768,-11.654279000000002,-12.820058000000015,-2.3171929999999996,9.172373000000004,6.472667000000001,12.448687999999994,-10.853939999999998,-9.336834999999992,-4.233566000000002,-12.590924000000003,3.5808729999999995,8.541279000000001,-14.932229000000005,-11.063304000000004,-2.137328999999998,6.549638999999998,2.6642409999999983,-7.851249000000001,-22.32693700000001,-9.471364000000001,34.35602200000001
P34995,-36.53746399999999,-15.667962,-0.9170700000000012,-30.297577000000036,-13.348305000000007,1.9631910000000001,7.873445999999995,-1.3294270000000012,0.3197040000000001,26.120981999999987,-7.938383999999995,-7.348041999999996,0.11218399999999829,6.212328000000006,9.297934999999997,-2.1855260000000007,-12.059406000000006,-1.4196469999999992,10.934468,10.540167000000014,-4.772139999999997,-17.695537999999992,-11.049405000000004,9.631043999999992,-7.280032,-18.596221000000003,2.9288070000000013,6.309672000000003,-6.7196190000000025,-1.8191180000000007,4.380678000000002,-25.298373,-8.331381999999996,-12.334568000000008,15.546975000000007,-2.0846320000000014,-28.702147999999983,-4.254258,17.836080000000013,-5.859062000000003,17.333043999999987,8.822920000000002,8.916157000000004,-1.8478750000000008,-4.127132000000002,6.639133000000001,-11.199967000000003,4.364430000000002,-15.816824999999998,0.27563199999999854,-14.43725199999998,-26.837707999999992,-7.569042999999999,-24.238937999999973,8.306075999999996,-9.915110000000011,-5.9952900000000025,0.562667,-7.515374,-4.1950150000000015,19.365598000000013,41.759148000000025,-9.955222000000003,25.326165999999997,10.548539,12.03226699999999,0.7419840000000009,1.8263339999999988,18.914063999999996,10.492722999999998,-31.550699999999992,-7.501454999999999,9.244737000000002,-0.8764009999999993,-25.069653000000024,-4.435555999999994,-2.376073000000004,-23.211510000000004,7.037404999999993,2.693280000000002,-0.7501249999999995,-10.265695000000006,16.347344000000007,6.892962000000001,8.728933,-15.365588999999993,-10.226581999999999,2.7077810000000015,-0.2517360000000005,-4.896240999999997,26.984309,-23.650998,-19.629107000000005,14.54694899999999,10.929729000000007,5.59400000000001,-5.916101999999997,-27.73162199999999,-22.135173999999978,39.32914299999998
P21918,-34.02379600000001,-3.9928760000000074,-6.177474999999998,-33.60436900000001,-2.9223280000000003,-4.756892,9.468017999999988,-10.588020999999996,-7.979682000000001,25.527234000000007,-5.995257000000005,-3.884573999999999,-7.480341999999993,3.1295079999999977,-2.1526930000000006,1.5551429999999988,4.2685330000000015,-12.323314999999997,-0.9239930000000008,-9.944667000000004,-1.452113000000001,-13.188958999999999,-22.30669499999999,5.382331000000001,-9.101292,-7.971776999999998,-11.510021999999996,1.1738600000000008,-0.9049689999999998,-11.023928999999988,3.7912460000000006,-32.398385,5.640767000000004,-9.891823999999982,12.379947999999995,9.721609999999998,-21.099647000000004,0.08430400000000021,9.305907000000003,-15.130535999999982,9.556781999999997,3.434146000000001,11.855880999999995,1.174825,-4.849583999999999,5.047615000000003,-13.362091000000003,2.2367220000000025,-5.960759999999997,5.217657999999999,-17.65439300000002,-21.649325,9.604845000000006,-31.244990000000012,7.56739,-23.278751999999997,9.785249999999994,-5.8133870000000005,-12.765513999999994,-19.827906000000006,1.057066999999999,34.89816699999997,-7.869989000000001,1.7370130000000004,21.394554000000007,15.827113000000011,-6.412774999999996,8.286534000000003,12.440472999999981,-4.97478,-11.419724,-3.113596999999999,6.658590999999998,0.27787999999999935,-12.173076999999996,-17.079451000000017,10.663294999999989,-13.931294999999997,7.656056000000001,-7.0686170000000015,-9.686741999999992,-1.9324069999999984,15.966833000000001,6.769941000000003,13.730240000000004,-20.767287000000017,-8.0878,-1.0386809999999989,-7.292337999999995,2.9668309999999978,6.002262999999996,-13.877095000000013,-18.169420999999982,-0.7256850000000002,12.015478000000005,3.585304000000001,-13.138342999999999,-28.378636000000004,-18.07518900000001,45.876876
Q9UBY5,-24.165087000000007,-1.5972609999999994,-6.456622,-30.862381,2.9693219999999996,-8.280561000000004,10.403690999999993,-10.705473999999992,-9.880387000000006,12.240961999999994,-5.823006,2.179557000000004,-2.6572389999999997,4.637594000000001,-6.622254000000003,1.0547699999999993,6.444397,-4.3799239999999955,-0.9926180000000004,-4.994451000000001,-1.769599999999998,-7.6021139999999985,-18.140338999999994,1.8442930000000004,-9.545806999999998,-2.544136999999998,-4.082439000000003,-5.517180000000007,4.305688000000002,-6.348568000000003,1.4606220000000005,-14.681811000000009,4.0983930000000015,-4.042319000000003,11.103039000000004,6.9612609999999995,-21.028996000000017,4.504315999999996,3.3279130000000006,-12.825291999999985,15.238474999999996,0.2824880000000016,5.056350999999994,-5.3218570000000005,-7.526041000000003,5.046695,-9.539178000000003,0.5315820000000021,-1.6569899999999986,10.172132999999992,-17.142980999999992,-7.043765000000002,8.406792000000001,-20.974905,4.300655,-19.649597999999997,3.728257000000002,-7.263434999999999,-7.212776999999997,-13.087755999999995,-1.7622249999999997,22.636704,-2.6519149999999985,-1.109854,23.158140999999997,7.415915999999994,-0.6235929999999998,16.482776,10.401901999999993,-5.627700000000003,-10.266114999999997,-4.7763029999999995,0.545216999999997,2.220649,-4.589158000000001,-13.351457999999989,5.943032999999996,-11.299229000000002,12.957736999999986,-3.5224309999999996,-10.994083999999996,-2.444965,7.958369000000005,11.06077,7.945236999999999,-10.790795999999997,-3.4917630000000024,-2.072774,-8.763474999999994,1.7380500000000008,8.103891000000003,-9.934282999999995,-20.951843999999994,-9.158552999999996,3.1971560000000014,0.7764599999999995,-9.440143000000003,-21.724148000000014,-16.191239000000003,36.338735
P35348,-32.02948399999998,-1.4120859999999995,-12.912314000000004,-36.49032400000003,-3.717508999999998,-11.201703999999996,10.283776999999986,-8.069319,-9.082778,19.861939000000003,-5.749857000000002,-0.34287299999999965,0.3060039999999989,5.4559500000000005,-2.059935999999999,1.5690130000000007,4.794138999999999,-6.857201,-1.0419740000000004,-9.203975999999997,-3.0011450000000006,-9.772077000000001,-22.628115000000015,7.250980999999999,-8.574749999999996,-2.110638999999994,-10.213576000000003,-5.814585999999999,6.391869000000003,-8.141435999999997,-0.19352199999999967,-23.00205800000001,-0.6642390000000002,-8.202298999999991,12.882010000000003,9.171297999999997,-21.518059999999988,1.2195150000000006,2.9310519999999975,-17.26992799999999,11.795516999999995,9.302460999999997,1.9950979999999987,-5.2214140000000056,-7.535234999999994,2.420596,-12.837518999999993,-0.48542599999999997,-3.1476009999999985,6.671534999999993,-14.72251200000001,-17.359130999999998,6.920148000000006,-31.006611000000028,3.949156000000001,-26.84205299999998,-0.45264199999999755,-12.642545999999998,-8.255346999999999,-21.15552500000002,1.3396960000000009,33.42014000000002,-2.8898129999999993,1.6530019999999992,31.89635899999997,14.141359999999997,-1.8450190000000013,12.588315,15.050984999999995,-6.082566000000001,-19.539161000000018,-3.7023679999999968,3.090545000000001,5.303242999999997,-8.458273000000013,-14.967887000000005,4.628201000000001,-10.894028000000015,10.870523999999996,-5.709598,-16.95464499999999,-4.238616000000003,8.477592999999993,7.152594000000001,17.265380000000007,-14.783583999999975,-9.557580000000012,-7.326475999999994,-6.620309999999998,6.582095000000009,6.223360000000007,-11.089032999999997,-19.312661000000027,-1.5401259999999999,7.779460000000006,9.092027999999999,-9.304569000000003,-32.520250000000004,-17.824980000000018,47.352636999999994
Q9NQS5,-31.28092400000002,-4.1442549999999985,-4.703498999999996,-32.128913000000004,-4.351832999999997,-3.8124780000000005,8.461306999999996,-9.312710000000003,-3.062686000000001,19.625405000000008,-2.3192929999999987,-0.5530119999999998,-6.594633000000003,7.602799000000004,-2.096453000000001,-2.5164429999999998,3.684251000000002,-6.057500000000007,1.7862700000000014,-0.24167699999999984,-3.390409999999999,-17.491809999999987,-15.829631000000008,4.025504999999995,-7.716448000000007,-5.784240999999999,-3.9460729999999993,-2.797874999999997,-2.731531000000001,-8.00253,1.9932499999999993,-23.22262499999999,-0.33197999999999983,-5.006814999999999,14.416371999999999,7.976789999999999,-19.074942999999998,2.5947290000000005,7.290403999999999,-9.520552000000002,10.969303000000005,2.1551180000000003,11.754767999999995,-1.8118240000000014,-0.2978209999999999,5.839092999999995,-7.098131000000002,-0.22155199999999986,-4.813945000000002,2.385901999999999,-11.834151000000002,-14.819805000000024,7.724125999999996,-21.793954999999993,3.9330679999999982,-17.744721000000002,0.883047,-4.239915999999999,-8.98183199999999,-15.913195,5.421499999999999,33.86014099999996,-3.171846999999999,8.318597000000004,15.662756000000005,10.161985000000001,-0.6902689999999999,10.388204000000007,12.288376999999999,-3.862512999999999,-12.924882000000013,-0.22278699999999863,5.064589999999996,0.5722139999999996,-4.536757000000001,-9.494048000000001,6.257451000000003,-11.700466999999993,9.48565399999999,-8.286145000000005,-8.330143999999999,-6.654630999999998,13.077226000000007,8.997177,14.738414999999994,-13.342789999999994,-9.769430999999997,1.5207850000000014,-10.385133000000007,3.6003120000000006,12.870152999999997,-16.438575000000007,-11.122174999999993,2.4146560000000035,6.730792000000006,6.048107999999997,-5.931310999999997,-19.305690000000006,-18.378545000000003,34.24877600000002
P51684,-21.143151999999997,-1.802813999999999,-7.244116999999995,-31.973319000000032,5.426139999999999,-1.9314059999999995,10.150760000000002,-10.110530000000004,-11.719451000000003,11.130517000000005,-5.759820000000001,2.0119450000000008,-5.564807,1.8363360000000013,-4.771977999999999,6.5460389999999995,6.525230999999999,-7.548843999999993,-2.024731999999998,-9.145255000000004,-3.8004390000000026,-9.041403999999982,-20.238453999999997,2.8158749999999992,-9.12869600000001,-1.9250199999999993,-3.426139999999999,-4.620648000000001,3.8591680000000004,-10.536455000000004,1.2961630000000006,-18.076620000000002,3.937111999999998,-6.032317000000003,11.595647999999995,9.039349999999992,-17.049081,5.166447999999997,1.343303999999999,-17.675369000000007,10.272516,4.906304999999999,1.4343760000000005,-6.651300000000002,-2.8767060000000026,8.890219000000002,-6.860061,0.6814060000000001,4.080690999999999,5.610353999999995,-17.28509800000001,-11.751490000000006,10.003722999999997,-24.918163000000007,-1.1891270000000003,-20.250347999999992,4.718642999999992,-6.1118419999999976,-6.294451999999998,-20.216346999999995,-6.465004000000004,27.089877000000005,2.5248420000000005,-4.648926000000002,22.958873000000004,7.814596999999997,-4.734714,14.561776000000007,8.857646,-9.708426000000001,-7.68911,0.6435109999999995,3.3459840000000005,-1.7104340000000013,-1.9136210000000005,-16.0365,8.74711899999999,-7.587933000000005,9.414905999999998,-8.710918,-11.197709999999997,-3.121431,7.112882999999999,7.364556999999995,12.027406999999982,-12.083215000000003,-5.4790730000000005,-7.038401000000001,-9.296111,5.810079000000004,7.494963000000004,-9.832890999999991,-15.274877999999994,-10.316177999999995,4.747759999999999,2.4067199999999995,-9.16846100000001,-21.947163000000007,-12.029109,41.316906000000024
Q16602,-24.943525999999995,0.7936480000000011,-10.398285999999999,-36.731895000000016,7.997359999999999,-4.497180000000002,9.029404,-11.971526999999996,-14.317444,18.250017000000007,-1.8955689999999994,-1.6464570000000005,-8.765799999999999,7.465740999999991,-8.084699000000004,2.8883669999999975,12.001407000000011,-16.969054999999994,-8.215942,-15.219126000000006,-0.6501780000000001,-17.094358999999994,-18.05475300000001,3.6078600000000014,-3.301698000000002,0.8492129999999997,-12.715833000000002,-7.339793999999999,3.6936159999999996,-12.072231000000002,-4.096026,-26.375322000000008,9.158987000000002,-12.621361999999992,17.331998999999993,11.692448000000008,-24.021148000000004,2.224282999999998,1.070363999999999,-14.554673999999986,8.749867000000005,8.200919999999998,10.123648000000006,-13.532049999999991,2.4462869999999968,5.067430999999995,-9.738603999999999,0.04917100000000055,2.123449,7.120710000000009,-22.566352000000002,-12.949652,14.027477000000003,-27.571336999999986,6.756272000000002,-24.225031999999995,9.923422000000006,-13.901887000000007,-9.577606000000001,-21.240727999999994,-6.574544999999995,32.05967800000003,3.248239999999999,-7.7997309999999915,29.235062999999982,12.409008999999992,-0.7698130000000007,12.296530000000011,8.13347,-11.947420000000006,-5.685932000000001,-0.8115029999999992,8.758445000000007,-2.5440340000000017,3.1938540000000026,-18.736140000000002,15.387583999999988,-8.401919000000007,6.078020999999994,-6.299738000000007,-14.96647400000001,0.41873500000000047,14.801421000000019,13.533703999999993,13.757191000000004,-17.32623500000001,-4.5355719999999975,-5.036795000000001,-10.739566999999992,5.380887999999997,5.0825589999999945,-6.279430000000002,-12.503084000000005,-13.727854000000004,16.109321000000005,3.2501429999999982,-10.589218000000006,-24.01959400000001,-8.771992999999993,51.014871999999976
P50406,-37.20739900000002,-8.527413999999995,-9.374548000000003,-39.182351000000025,-14.399034000000013,-3.082157000000002,8.502499999999996,-4.574067000000004,-5.023480000000006,23.340014,-9.465882999999994,-1.5914910000000027,-2.3791209999999996,12.131933999999983,2.5607269999999955,5.9901570000000035,-4.753664999999999,-3.499484000000003,4.178279,-1.8438800000000006,-6.559525999999999,-16.116546000000003,-17.10161499999999,17.796858000000004,-5.706622000000001,-19.054602999999986,-9.540410000000008,0.3655290000000024,-3.945538000000001,-4.758158000000001,5.714321999999998,-25.698833999999994,-4.415142999999997,-11.839536000000003,15.485244000000002,2.2385629999999996,-24.396651999999992,-3.104655000000002,11.146968999999997,-4.731182000000002,15.258629999999995,5.404120000000004,13.965945999999995,-4.898419000000003,-6.943708000000011,8.840993000000001,-12.592009000000019,4.412166000000004,-9.572365999999993,3.567189000000001,-7.397947999999998,-16.797468999999996,-5.527431999999998,-30.005607999999995,2.412382,-14.106827000000008,-1.831369999999999,-4.459987999999998,-8.647696000000005,-5.420394999999997,18.706972000000004,42.238749999999975,-10.294195999999992,15.733841000000012,18.44121500000001,13.53106099999999,1.3191230000000018,1.7474659999999969,20.54968100000001,6.630254999999994,-18.55391399999999,-3.895369000000002,5.060251,4.2435719999999995,-21.884521000000024,-5.522670000000002,2.6604019999999977,-22.434387,6.262205999999998,-1.8514230000000012,-8.446124,-2.815912999999998,14.840603999999999,6.724641000000002,12.394919000000005,-21.985511000000006,-9.507853000000003,2.2475349999999996,8.247661000000008,1.8755639999999991,16.88804399999999,-18.520157999999995,-22.552274000000008,8.828890999999999,13.084221999999999,9.559417999999997,-7.250648999999999,-30.627810000000007,-21.734555000000004,44.68770300000001
