0,1,2,3,4,5,6,7,8,9,10,11,12,13,14,15,16,17,18,19,20,21,22,23,24,25,26,27,28,29,30,31,32,33,34,35,36,37,38,39,40,41,42,43,44,45,46,47,48,49,50,51,52,53,54,55,56,57,58,59,60,61,62,63,64,65,66,67,68,69,70,71,72,73,74,75,76,77,78,79,80,81,82,83,84,85,86,87,88,89,90,91,92,93,94,95,96,97,98,99,100
O95180,-189.3447280000002,-41.232164000000054,-41.58995500000009,-176.29213900000013,-28.711896999999972,-20.00141500000002,70.33297900000014,-17.85879099999999,-43.60075299999996,164.94332399999973,-32.69249200000001,-43.83975799999996,2.958803000000001,51.683386,20.59523600000001,-1.9596380000000047,30.95913999999997,-63.01014600000007,24.283808999999938,6.378627000000006,-6.720051000000019,-89.36211700000008,-81.14935999999983,33.802778999999965,-37.107940999999904,-38.804244999999966,-36.31347100000004,8.961013000000003,-20.95657000000001,-14.997051999999995,22.959128999999987,-133.86004999999977,-20.479737000000004,-40.23494399999996,50.59187200000003,15.221379000000004,-106.36149200000013,-16.652064000000035,69.89321899999999,-35.85274400000001,58.8531870000001,38.385554999999954,61.220348000000065,-16.799541000000012,-15.593609,0.2822439999999994,-48.72109399999986,9.779310000000004,-58.48651700000003,55.48321899999999,-63.099888000000036,-94.90894199999983,24.33673399999995,-148.14221500000008,59.34984499999988,-88.23986399999977,9.075128000000028,-11.151995000000024,-37.45815199999995,-92.94295600000004,98.69866699999996,189.80345500000018,-25.300091999999996,69.23123800000006,84.14995100000002,54.811143999999985,-5.311695999999999,34.93313200000002,102.02732900000012,12.064621999999998,-104.71975600000003,-4.805573000000002,19.497964999999997,47.250143999999906,-92.46349700000005,-59.84222800000017,36.479838000000015,-85.08827299999997,27.72721000000006,-22.532203000000035,-69.86058099999978,-23.555980999999985,70.35733799999998,9.19110399999999,58.90875899999994,-69.49928899999985,-56.08138799999994,-14.019156999999971,-27.931788999999988,44.67904599999999,40.75410100000005,-84.7121219999999,-85.73033900000003,40.65819099999993,87.98587799999977,38.11433799999995,-21.403110000000012,-157.47730200000018,-77.1600689999999,189.62698100000014
O43497,-185.80188899999996,-50.30949499999992,-52.20832099999999,-181.8550340000002,-33.892425,-32.88345499999998,65.759252,-33.24483300000004,-47.41360099999998,144.7583910000001,-46.46239600000013,-9.783030999999983,16.580506999999997,55.84830499999993,10.901256999999994,5.181023999999999,44.50823900000004,-52.544012000000016,-0.41295699999999824,-7.980948999999991,-11.523860000000036,-72.51842400000008,-94.85392000000003,25.540784999999932,-50.916455999999904,-30.412534000000026,-41.480952999999985,-2.750283999999998,-12.672563000000011,-25.430884000000017,26.04060799999998,-132.0058349999998,-31.868911000000026,-54.78734499999991,41.45802400000002,21.049387999999972,-109.55108500000016,-9.412461000000018,57.30442700000008,-39.313127,54.668617999999974,37.015078000000095,54.12569300000002,-21.330253000000013,-13.733790000000017,13.501768999999967,-52.02870699999988,10.947157000000006,-39.14382100000001,49.68294799999993,-72.66829500000013,-75.76397400000002,36.248908999999955,-150.76428200000018,40.484069000000034,-87.47488499999994,26.006894000000074,-19.76816099999996,-36.31316399999999,-103.84024500000004,74.20051799999995,189.35242200000005,-27.344695000000023,37.00348199999993,96.39034099999992,54.38458300000005,0.6261739999999982,16.928524999999993,101.9922439999999,8.44630199999999,-90.1968099999999,-12.944744000000018,14.097508000000046,36.40720800000001,-70.48599999999983,-53.807224000000105,38.96765100000008,-88.69295999999994,16.439894000000006,-44.32545500000006,-78.90442900000005,-23.920924000000007,68.37623400000018,11.153351999999995,61.88781300000003,-78.74715699999994,-56.80693299999995,-38.288042999999995,-38.906574000000056,55.9305740000001,47.69343599999999,-68.56417400000014,-75.06030800000009,24.102229,94.64276600000004,23.333831999999994,-32.06515399999997,-165.09270500000036,-79.04413699999998,197.95444499999977
Q8WXA8,-31.98460899999999,-0.5814289999999988,-10.709766000000005,-37.023053999999995,1.9637990000000003,-4.806717999999998,11.337068000000015,-10.866333999999995,-10.422819000000002,21.51030500000001,-9.246551000000004,-5.488270999999999,-1.2732599999999992,8.703373999999991,-4.316444999999997,5.165246999999997,9.164202000000008,-8.276573999999998,-0.8914819999999974,-8.215956000000004,-4.177831999999998,-12.009740999999995,-13.628812999999992,3.272441,-9.461926000000002,-5.358011999999997,-9.933966999999999,-5.733991999999994,-1.602814,-5.990922999999999,0.3548170000000005,-25.105988000000014,-0.44110799999999895,-10.825736000000001,11.811884000000003,11.864541999999995,-21.775928999999994,2.0532499999999985,3.9018330000000025,-12.431426999999996,10.719739000000004,3.782865,9.60991199999999,-1.379681,-2.756252999999999,-0.20524899999999938,-12.818851999999989,1.4992149999999997,-2.863455,8.390980999999996,-14.441521999999994,-10.901168999999987,10.638830000000004,-32.61066200000002,3.862682999999999,-20.891789,-0.225230999999999,-8.177054999999992,-10.099536,-16.561619000000015,0.6697590000000003,33.798380000000016,-3.0325850000000014,-0.6159899999999995,21.69799999999998,9.245387000000003,-0.2606040000000001,6.988602999999996,14.125626,-4.906891,-8.975386999999998,-2.9722079999999966,-0.2416930000000005,0.8594639999999998,-8.751403999999997,-16.028737000000003,6.696300999999999,-15.685472000000013,6.284165999999993,-10.745819000000001,-13.17093200000001,-3.061753999999998,14.422299999999987,6.171953999999997,13.301075999999997,-16.464893000000018,-9.674275000000007,-3.534842,-7.446409999999998,3.1869709999999993,7.990872000000005,-17.815628000000007,-20.900174999999994,-4.753907999999996,9.841261000000005,4.603249999999997,-12.383709000000009,-27.071680000000008,-13.479113000000012,43.02374300000001
Q96RD7,-24.926020000000012,-6.117515999999993,-3.5690450000000036,-30.599828999999993,2.3525659999999995,-4.458304999999998,16.251576,-6.6016039999999965,-7.768743999999999,19.161832,-3.888499999999999,0.48934200000000005,-4.776785000000001,8.043453,-7.999162000000001,5.1557299999999975,9.597286999999998,-12.837911000000004,-7.250370999999999,-12.864799000000007,-2.832974000000002,-7.1006380000000044,-22.044154999999993,-1.7303320000000006,-8.951109,-3.467686999999998,-6.444453999999999,-7.0964230000000015,2.308448,-16.742974000000004,-4.342441000000001,-20.74325499999998,0.2727809999999993,-10.080811000000004,10.795689000000001,11.176419000000003,-18.01568499999999,-0.07865499999999997,4.083759999999999,-6.776347,6.965799000000004,4.0109330000000005,8.608441000000001,-6.297487000000004,0.3851870000000002,7.574855000000003,-5.822745000000006,-1.3640910000000002,3.635846000000002,12.044099000000003,-12.13122599999999,-6.1158800000000015,15.180775999999991,-22.936211999999994,6.672987000000004,-27.028254000000008,3.7414780000000034,-4.7896889999999965,-7.562117999999999,-22.207638000000006,-2.6523209999999997,28.509887000000028,-0.876356,-4.312892000000001,25.10559099999999,11.325123999999994,4.961819000000003,11.114389999999998,12.095930999999995,-11.978778,-3.2772840000000008,2.1814899999999993,1.6002640000000004,4.596650000000007,4.678289999999999,-14.825457000000009,7.8657530000000015,-7.024681000000001,6.869399999999999,-10.389759999999997,-19.175319,-3.2682250000000033,8.681474999999994,3.6117520000000014,15.435105000000007,-11.718657000000002,-7.00314500000001,-12.064607000000004,-17.711134999999995,7.188764999999998,4.955753,-9.32804600000001,-9.105306000000015,-4.146830999999999,10.750308,2.3759259999999967,-10.698013999999988,-21.91614299999998,-9.706801999999994,40.045824000000046
Q13936,-159.76462899999973,-24.512028999999984,-29.998923000000033,-176.40922399999994,-5.840512000000013,-34.72123400000003,60.246392000000036,-41.053035000000094,-47.530061000000025,124.08643899999988,-16.912747000000003,-7.753155999999994,-24.07054600000002,31.803044000000035,-9.259524000000008,16.285315000000008,33.53996999999998,-56.88384899999999,-7.116244999999996,-35.55537400000003,-4.8729179999999905,-53.033637999999975,-87.58039900000011,7.901446000000018,-36.776129,-3.7760489999999987,-34.42985200000007,-12.152317000000021,3.2538880000000123,-46.53260900000006,0.322585999999995,-117.06384000000008,13.298316999999997,-40.251121000000076,40.68387700000004,57.504133999999965,-92.34093999999999,2.2610160000000032,35.350385999999965,-46.458098000000014,48.48377399999999,26.123299999999936,47.328858000000075,-14.91264699999998,-14.786872000000029,8.458968999999959,-45.15243199999988,-0.45648900000000125,-7.1861269999999955,61.905328999999966,-60.972754999999935,-58.46804399999995,69.31393600000007,-139.30088999999973,36.56299099999997,-104.59792699999977,18.168189999999992,-10.764934999999973,-39.730934999999924,-115.65577100000016,20.082316000000038,154.00566200000023,-1.7459989999999992,21.593594000000046,95.00957100000007,46.50223700000007,2.185420000000002,72.64243200000016,82.16694300000017,-38.020561999999956,-40.574119000000024,3.871949000000021,18.48080099999999,14.581483000000008,-9.513077000000017,-61.75484200000002,63.95519400000002,-47.82867099999985,38.96952900000004,-34.23622000000001,-77.78372800000004,-4.3975409999999995,55.3840309999999,23.219330000000017,67.55927399999993,-73.88367300000006,-58.11005799999994,-54.33278499999986,-56.52973199999994,31.709611999999982,42.48095399999987,-83.40770299999984,-48.937868000000066,-8.016472000000029,76.380063,17.803148000000036,-42.762634000000034,-123.975821,-57.60347399999997,178.52789100000018
P57789,-35.80739899999999,-8.964084000000014,1.6146129999999992,-36.38432800000002,-5.4728669999999955,-7.180813999999999,17.424275999999992,-11.591482999999984,-5.869160999999998,27.798771000000002,-4.394703000000002,-4.724820999999998,-3.9293669999999983,7.029454,0.08019899999999713,4.110664999999999,5.348055000000002,-16.485801000000002,-1.2487869999999999,-2.7945370000000014,-0.5080120000000007,-10.642487999999993,-22.115811,1.857391000000002,-9.079110000000012,-2.0620640000000017,-3.1215139999999995,-6.906850000000003,0.6669849999999997,-14.017105999999995,-2.297716000000001,-24.007953000000015,6.203817000000002,-5.079472999999993,9.876992000000008,12.563343999999988,-15.438748000000016,4.954111000000007,10.273165000000008,-11.741542000000003,14.824029999999997,3.5352360000000043,15.477963,-0.2990210000000001,-9.789369999999993,3.2027130000000006,-11.49535800000002,2.0138320000000016,-0.01325299999999964,15.161159999999992,-17.09718800000001,-13.503298999999982,20.873463,-36.549093000000035,9.796108000000004,-26.583955999999983,-1.4350389999999988,-0.12146700000000155,-9.824282000000007,-29.953630999999973,6.961361999999988,33.72297600000004,3.7582050000000007,9.596859000000004,21.412146999999994,10.806043999999995,6.123652000000003,18.670477,14.503291999999993,-7.225843,-8.426563000000012,-3.974340000000001,7.346705000000007,7.720468000000017,3.229961999999999,-12.659189000000003,15.353091999999982,-8.656381000000001,7.556270999999992,-13.851224000000009,-25.783320999999994,-3.445504999999994,9.31736499999998,3.8624279999999973,24.756020000000003,-21.607689999999977,-16.983873999999997,-10.543819000000004,-19.139870999999996,1.1259810000000017,14.670654000000004,-19.956898000000002,-9.395657000000007,2.6631260000000014,15.034061999999999,-0.21346699999999919,-13.958866000000004,-31.221234000000017,-9.110078999999997,41.15653400000007
Q02641,-50.83134100000005,-13.309439999999993,-3.917848000000001,-46.47352299999994,-10.886529000000005,-14.995541999999988,16.266982000000002,-10.222364000000008,-9.055937000000009,43.345222000000014,-3.8672410000000004,-3.2509850000000005,2.837730999999999,13.737508000000007,5.441679999999997,-6.729775999999999,8.390472999999993,-22.11467099999999,-1.8775030000000008,-2.301566999999999,-3.1133299999999995,-19.430465999999992,-20.112733000000002,-0.06397700000000281,-6.887088000000002,-4.504943999999999,-11.186849000000016,-8.151151000000004,-9.489714000000001,-9.788440000000003,2.844694,-33.93323900000001,-7.394533999999998,-11.504558,7.235149999999997,10.004413000000005,-8.751257,-0.9977099999999979,17.361931000000006,-0.9903339999999982,12.29420200000001,13.402775999999987,11.398189000000011,-0.39712199999999964,-8.808790000000009,-6.831941,-11.103761000000015,-1.7988890000000013,-12.085982000000014,22.495304,-7.120813000000008,-18.685085,15.09614200000002,-32.12643,10.122533999999993,-19.94323100000003,3.2466289999999978,3.8323030000000013,-8.589855000000002,-34.819942999999995,22.15153999999999,40.084178999999985,-4.414329999999997,14.137994000000003,15.711344999999989,16.22085999999998,2.359704999999998,7.578669000000006,31.392790999999992,-3.955371000000001,-7.724205,-2.907903999999998,-1.3568999999999982,18.823056999999974,-6.373095000000006,-7.632277000000006,15.031555999999993,-17.522724,3.8290970000000013,-14.101471000000013,-28.98050200000003,-13.936182999999994,14.484919000000005,-9.542101999999998,19.467087,-17.504946000000007,-15.130453000000017,-16.80052000000001,-20.880676999999995,16.330381000000006,9.341172000000014,-9.860231,-10.762235000000002,11.762070000000012,28.26170999999999,7.010157000000003,-2.935994,-47.072496000000015,-11.759642999999995,32.078474000000014
Q8NEC5,-59.09400000000004,-16.765032999999974,-21.90570899999997,-52.11736400000001,-3.7970070000000007,-13.237418999999997,22.246685,-16.333607999999987,-11.393613000000014,57.801055000000034,-16.384304999999983,6.617237999999996,7.152069999999991,18.518942000000006,7.387407,7.975388000000005,46.346444999999996,-10.459908,-6.679757000000001,-0.1933130000000015,-5.129711000000005,-46.16819299999993,-20.14191899999999,11.722621999999998,-22.971421000000014,-1.6475590000000033,-6.901747000000008,-5.019191999999993,-12.933645999999989,-6.387275000000002,11.806991000000007,-51.02150599999996,-7.3939490000000045,-28.318443000000027,27.145439999999986,3.8930260000000065,-38.526727,5.688117999999999,4.665494999999999,9.962704999999993,10.890093999999998,4.650537000000001,26.014488000000014,-16.636312999999962,4.467295999999999,-13.817488000000024,-20.936885999999987,6.793499999999996,-10.988471000000004,19.995033000000006,-40.24792399999996,-2.2405190000000026,20.596905000000003,-53.364219999999996,6.053714999999997,-11.794048999999998,26.969054999999987,-18.762044000000007,-19.62074300000001,-32.011762000000076,12.223016000000001,46.60582299999994,15.08593399999998,11.855101000000014,35.76070400000001,-6.266284000000014,10.692285999999976,5.550962999999996,31.69100000000001,0.02580399999999833,-32.123775999999985,1.3808200000000008,7.794009000000005,1.5410929999999996,-20.565091000000006,-27.691994000000005,18.99576399999999,-20.978800999999997,3.250417000000003,-29.092597000000026,-28.642708,-1.5898580000000009,20.289021999999985,12.936582999999997,27.645410999999985,-23.12809900000003,-28.988075000000006,-12.041189000000005,-24.694456,21.959591000000025,11.986883000000008,-8.377391,-3.4237299999999977,-5.1570119999999955,48.234649000000005,-0.08209700000000131,2.614891999999997,-41.105937000000026,-36.82669499999996,64.33920899999998
Q14CN2,-59.52277800000002,-7.186194999999999,-4.215875,-75.52743300000002,2.5685989999999967,-13.847644999999979,20.990472999999998,-23.14630999999997,-10.301829999999997,52.232320999999956,-5.5573109999999994,-8.179342000000009,-1.686827000000004,13.469134999999982,1.8913010000000008,4.795734999999995,25.060616000000028,-27.179002999999987,-14.850227000000018,-21.159457000000003,3.2272920000000074,-24.60755999999998,-47.36609099999996,2.341858000000002,-17.089615000000023,3.4876960000000032,-17.288080000000008,-8.76163100000002,-2.2620529999999963,-19.004269000000008,-7.71583300000001,-43.819725999999974,10.641459000000001,-18.766124,14.03516099999999,25.371214999999985,-18.50101000000001,4.193953000000005,2.736641000000005,-11.769981999999995,11.031836000000002,14.633549999999989,17.354855000000004,0.8250450000000007,-16.817864000000007,-0.3011070000000001,-23.737993999999993,1.286733000000002,-2.7870170000000023,28.194516999999987,-19.97316599999999,-29.35615700000002,42.50188200000004,-56.351995999999986,8.80703600000001,-43.252613000000004,7.911270999999999,-11.02018800000001,-13.096704000000004,-47.498599999999975,12.026395999999995,56.77437300000002,-4.378964999999998,-11.957234999999999,51.08031899999997,16.98192200000001,7.934325000000012,29.882608000000012,26.164296000000018,-12.990352999999995,1.7657429999999996,-6.179378000000003,6.236216000000002,12.065885,6.953830999999998,-29.495372000000003,15.705749999999988,-21.82356200000001,21.162211999999975,-29.620217000000025,-36.68287100000003,-16.226492999999994,9.939617999999998,-0.3085149999999997,39.055854999999994,-31.962113999999993,-24.61548300000002,-22.63938600000004,-32.472483,12.270228000000014,0.5669730000000028,-33.65005299999995,-16.248788000000015,2.8107540000000006,28.48050800000005,8.078587000000002,-12.593148,-61.541714999999954,-14.67040600000001,71.97819899999996
Q8NET8,-57.81707200000003,-9.289891999999998,-4.099760999999996,-61.23009399999994,3.684542000000004,-9.969995999999993,28.30836599999998,-13.289498999999992,-15.635427,38.182132999999986,-14.846345999999999,2.4354429999999976,-8.867930000000007,12.926128999999982,-12.89773700000001,9.748748999999993,20.13798800000001,-27.346919,-1.6427630000000024,-11.350453,3.5060029999999998,-17.775806999999997,-28.280954999999995,-2.2134789999999938,-8.70928099999999,-2.5596900000000016,-8.621559000000007,-6.679724999999995,0.3287760000000012,-23.792871000000027,-4.440527999999998,-37.098688999999986,9.451604999999995,-10.464874000000002,15.433021999999967,14.968306999999985,-29.15483699999999,3.4476790000000013,12.35359499999999,-14.978100999999976,12.979684000000011,6.910770999999986,15.21253099999999,-6.261990999999995,-4.0993280000000105,6.404392999999999,-13.096681000000013,-5.310313999999996,-2.4904500000000014,25.795143000000028,-22.55838099999999,-17.037626999999983,29.215705999999997,-50.306936,11.650347,-45.581297000000035,2.570386999999999,-4.680344000000003,-9.803602999999994,-45.70505100000006,1.3818419999999976,52.38078199999996,7.537275999999999,4.758446000000007,35.590220999999985,13.849689999999999,4.6280100000000015,22.19079299999998,26.29833599999999,-18.05314200000002,-8.349605000000004,6.248601999999998,10.031551000000002,4.668051,8.259355999999999,-22.84062099999998,28.02390599999998,-14.588542999999987,11.734654000000022,-16.464766,-33.674793999999984,3.4253279999999964,18.016860999999995,13.379990999999988,21.717097999999993,-28.71014300000001,-25.161633000000023,-17.174231,-28.270792000000007,11.60293200000002,16.243781999999975,-22.487459000000012,-16.578019999999995,-5.037426000000002,24.68242700000003,-0.3034810000000009,-17.808847,-39.63047499999999,-17.028446,61.711790999999955
Q9Y3Q4,-103.14078299999994,-39.001597999999966,-24.478190000000005,-107.58783300000007,-34.83797099999994,-25.683682000000054,29.178156000000058,-18.789465999999994,-10.332848999999992,81.58449499999992,-22.627567999999975,-19.521862000000006,19.487966000000007,28.38959299999999,19.09997400000001,-6.96379599999999,13.222612999999994,-17.160647999999995,11.112695000000018,5.521247999999998,-14.246032999999999,-36.906647000000056,-47.12433999999995,18.231503999999973,-36.00841399999999,-27.500478000000005,-20.95972700000001,0.9420520000000039,-18.274297999999998,2.734589000000004,18.89232900000001,-54.773812,-19.233399000000006,-40.46044399999999,2.9766050000000055,10.323499999999989,-42.39425800000001,-15.03453800000001,35.23558600000001,4.447610000000001,27.511797000000023,18.746630999999997,37.24390099999996,11.200057999999986,-31.093972000000022,-12.681164999999995,-43.31161800000001,13.982889000000009,-31.90542400000002,29.961392,-35.66641700000003,-54.836756000000086,13.374819000000018,-82.22463099999995,6.147206000000006,-23.858574000000054,1.928108999999997,7.370252999999995,-17.798445999999995,-41.50323900000006,65.30263499999997,85.96570699999995,-25.335383999999927,24.203827000000032,28.91765899999996,28.945675000000037,1.5585519999999997,-10.276818999999996,66.41193700000001,29.706023999999992,-44.76485200000003,-17.885628999999994,11.246809,32.57456899999996,-54.34709600000004,-29.67470800000001,-0.5263160000000005,-65.78176300000003,21.203162000000027,-29.232055000000006,-41.76274300000001,-33.813128000000034,41.350780000000086,-14.096980000000006,37.12661400000002,-52.262087999999984,-26.577180000000013,-23.69499699999998,-5.065144000000002,9.493595000000008,39.458771999999975,-41.67646699999996,-35.432248999999985,34.56244899999999,56.03597700000001,20.82545999999999,-8.477911999999996,-102.7549990000002,-20.90238499999999,91.69100599999994
P28472,-34.257536000000016,1.4651139999999994,-3.954976999999999,-34.842683,-1.540003999999999,-2.298062999999998,14.443740000000018,-8.038084999999997,-6.805509999999996,31.020394000000014,-6.75868,-2.5042860000000027,-6.4394809999999865,4.626727999999998,-2.7376650000000007,0.34658500000000037,12.888341000000011,-12.276783999999997,-3.774562999999999,-9.971244999999994,-2.219534000000003,-21.13609300000001,-19.870216999999986,-4.802348999999997,-7.1110139999999955,-4.490038,-4.8440389999999995,-5.519289000000001,-3.6342390000000018,-10.687672000000008,-5.979505,-19.93649199999998,9.692726999999998,-8.196456999999997,11.967261,8.732924999999998,-24.78541799999998,-1.8493840000000015,5.827740000000004,-4.575937999999997,9.953771999999997,4.963181999999997,10.310937,-0.4137580000000007,-4.5297360000000015,0.5930890000000019,-11.187422999999994,-0.6915820000000008,3.398395,7.294603000000006,-12.381428999999995,-13.222608,20.797508999999977,-27.766733000000013,8.572058000000002,-21.416079999999987,1.4976329999999978,0.43152600000000146,-7.792351999999998,-25.08183699999999,1.2480860000000027,29.824068999999994,5.9729249999999965,6.058123000000004,23.885329999999996,9.088610999999997,-4.763486000000002,21.604159999999982,8.497276999999995,-14.849060999999994,-7.892200999999999,-7.473710000000006,3.2240269999999995,-3.762090999999997,0.15043000000000017,-15.17946099999999,13.996257000000009,-7.9232200000000015,4.746281,-14.278238999999992,-11.360473999999998,2.028005000000004,16.620509999999985,7.683288999999998,11.722573999999993,-15.010622000000001,-14.787778000000017,-6.544017999999999,-16.512701,3.6324280000000004,4.326384999999998,-13.68077900000001,-11.118198999999999,0.02763400000000127,9.724734999999995,0.33969099999999697,-15.344802000000007,-25.206459000000017,-15.890624000000008,39.19493300000004
P51790,-61.57547499999997,1.797076000000004,-3.1036180000000035,-63.55540999999995,-0.31126200000000137,-10.622074,25.07510000000002,-14.508288000000004,-15.359135000000009,47.90993500000005,-8.938690999999986,-5.195666000000002,-2.760121999999996,12.967959000000004,-6.873206000000002,2.458841000000002,9.121395000000003,-16.819724999999988,3.4816440000000015,-16.97862900000001,7.731309000000003,-26.78743800000002,-40.112834999999954,5.708250999999999,-11.824933000000001,-4.212318999999994,-5.295132,-4.623143999999996,1.3979110000000003,-15.246892999999988,-5.312660000000002,-37.58583299999997,14.304184000000006,-10.609241000000004,23.865046999999993,9.071412,-42.829434000000006,1.814121999999999,9.817468999999994,-16.829001,19.295128999999974,7.031524999999992,10.792905000000012,3.1130750000000003,-4.741239000000002,10.122534999999992,-22.82557100000002,-0.3455929999999992,-4.4319580000000025,15.411867000000012,-24.945738000000006,-27.786187000000005,29.622036000000005,-54.14626700000007,10.485221000000015,-42.529539000000014,1.095511000000001,-10.082088000000015,-12.210467000000008,-41.67576800000004,7.278632999999997,58.92854299999996,2.5049289999999997,11.276512000000002,35.591338999999955,21.328718999999985,-5.495561000000001,29.469450000000034,22.26486299999999,-18.583529000000027,-20.219205999999996,-2.8021910000000023,12.84019500000001,-2.985053000000001,-10.085408000000013,-23.030647999999978,12.831292999999997,-15.533675000000002,17.389832999999967,-16.556029000000002,-19.82034299999999,2.992918999999995,19.144643000000013,16.534774,29.52643399999998,-24.88654000000002,-26.573672000000016,-2.2226120000000034,-19.834025000000015,1.451416,19.333302999999997,-33.42236899999999,-21.971260000000022,-6.380381000000004,20.598939000000048,2.9441060000000014,-20.322514000000023,-40.14816099999995,-23.094800999999986,70.78536799999999
Q92953,-60.460044000000025,-16.65506899999999,-15.900065999999994,-67.41429999999995,1.2063089999999994,-12.522608000000002,18.94105200000001,-17.816361999999994,-17.80192000000001,54.99022100000004,-17.478957999999967,-7.338178999999996,4.206652000000003,21.42345899999995,-1.3480060000000005,8.963731999999982,22.809067999999993,-29.363531000000005,-17.289490999999977,-6.747411999999997,-1.5266849999999992,-18.452080000000038,-36.85430200000003,-1.7004519999999943,-12.484878999999998,-0.03819299999999982,-10.272477999999992,-10.492710999999993,7.67655,-15.885310999999987,-4.958214000000011,-41.79085800000001,-11.055746000000005,-16.77718000000001,11.51862100000001,8.51064300000001,-22.093363999999973,3.995880999999996,16.769749000000015,-9.310566,18.761339999999976,15.320420000000015,7.7096339999999985,-3.2999069999999984,-6.182401000000009,1.1873390000000033,-16.991381,1.4990249999999992,-11.230935000000004,27.795661,-23.158877000000025,-23.40993299999998,20.81877500000001,-50.07473300000008,13.662089000000005,-46.946803,14.73478400000001,-5.8188379999999995,-14.911042000000004,-56.57543899999997,24.203069000000042,66.75936499999999,10.935925999999998,6.259655000000003,49.40955899999998,25.217098000000004,6.5829650000000015,12.398480999999997,42.07372400000001,-11.193412000000004,-10.790605000000001,-2.774494000000001,4.069614999999996,17.885671000000002,-1.8162020000000014,-26.427815999999975,25.242148000000025,-23.809951000000016,11.371530000000005,-17.062881000000004,-40.78327799999998,-8.336158000000006,17.531347999999984,-3.197063000000005,24.991573999999964,-33.023493000000016,-25.58830400000007,-32.948592,-33.221782000000026,26.42779699999999,19.41604900000001,-14.602022000000016,-16.662917999999994,6.591580000000007,44.585209999999975,6.169697999999997,-15.266578999999998,-62.37526399999995,-15.426756999999998,62.54611400000006
P14867,-33.81953499999998,-4.720455000000006,0.5511619999999999,-35.110832,-2.821017999999998,-0.24210400000000115,12.293248,-10.475174999999998,-4.181073000000004,23.700646000000017,-3.4127110000000003,-4.728033000000001,-2.316913,6.555589000000004,-0.9340269999999995,-0.9613220000000003,17.59883300000001,-19.780253999999996,-5.2846420000000025,-4.514723999999999,0.6603029999999992,-17.279211999999976,-16.17906199999998,1.7667709999999992,-7.9661519999999975,-1.0012120000000007,-6.986132000000006,-10.739827999999996,-1.822336000000002,-6.443409000000003,-4.362274,-22.80016400000001,5.724811999999997,-3.8579269999999988,10.575392,8.091880000000005,-16.585440999999978,5.1610830000000005,7.537832999999996,-7.833236000000003,6.999410999999999,2.186561999999993,11.047922000000005,-3.2408949999999983,-4.896007000000002,-1.3706070000000006,-3.807681999999998,2.313540999999998,-3.5681240000000014,7.84295,-12.870710000000003,-14.832479999999995,14.07256699999999,-34.16185599999999,7.173715,-23.407253999999995,-1.071525,3.080092999999998,-8.645724,-24.504639,7.460861000000004,29.797086000000004,3.178386000000001,-0.48958600000000024,23.155293,13.205191999999998,-5.616318999999998,18.738198,11.196159000000003,-8.887621000000006,-1.962564999999999,-2.135435,1.5363139999999995,6.112212000000005,-4.662018,-11.810124999999998,12.091837999999994,-16.357324000000013,9.577393999999998,-12.616418999999992,-13.476718000000014,-3.3506430000000007,11.538756000000001,5.713522000000003,16.58891,-19.05389900000001,-10.088431000000009,-5.7087730000000025,-12.760076000000014,0.33179000000000014,5.081234999999998,-17.882589999999983,-16.116212,-1.8199109999999985,13.553101000000002,3.653716999999997,-11.909899000000003,-24.030149000000016,-5.182084999999998,33.36360800000002
Q05586,-71.35869700000003,-10.398586999999992,-4.294231999999998,-71.73134699999991,-0.057066000000001185,-17.431774999999988,22.374622000000002,-8.538789999999995,-8.907155,57.683880999999985,-5.758682999999998,-3.265435,-2.0867959999999965,19.621404000000002,-1.6931109999999947,2.150119000000001,15.192325000000015,-32.763315,-6.264354000000011,-5.564767999999999,-3.3786269999999985,-27.22005300000003,-37.73429700000001,-0.7233569999999943,-16.400387999999992,0.5450989999999996,-4.764519000000005,-12.62043899999999,0.4979429999999996,-21.165667999999993,-5.005782000000009,-48.12216999999993,12.316835000000001,-11.204233000000006,20.93364800000004,20.242904000000014,-42.199049,2.7424840000000006,9.678730000000018,-13.818322000000006,22.635606999999993,9.496113999999999,15.775553000000004,-5.1512649999999995,-8.432461000000005,3.597446999999996,-24.374501,-0.7583779999999998,-14.431598999999997,21.33923800000003,-28.983181,-32.18035100000003,26.899300999999983,-52.18206200000002,18.83584899999998,-43.15553499999998,-2.862833999999998,-1.6987630000000027,-14.458754999999986,-50.428555,9.856245000000003,66.22793999999999,2.010496000000001,15.323599999999994,38.18743900000001,19.51017900000002,0.35516600000000004,33.55128799999998,34.06228499999995,-20.404734000000015,-23.04140899999999,5.169276999999994,4.761027,9.385935999999996,4.438960000000004,-31.22115200000001,29.09138300000001,-14.009332000000017,18.824037999999987,-21.44401000000003,-30.498130999999983,-5.187140999999995,18.27526199999998,7.0724490000000015,28.05999699999998,-25.71705599999999,-25.864737000000012,-19.958816000000013,-40.78724599999996,11.837182999999985,18.179782000000007,-24.312181999999964,-20.489431000000007,-0.6486449999999976,27.79688099999999,4.937868,-17.99459300000001,-51.31323800000002,-23.881823000000004,65.86505999999997
Q96L42,-79.31925899999982,-22.008188999999987,-22.22369499999998,-84.65063999999987,1.3860410000000023,-22.746899999999993,27.891507999999984,-21.621161999999973,-20.240731000000032,51.668396000000044,-18.122140000000016,1.0424509999999971,-8.613695000000012,15.452227999999991,-9.688656000000007,4.381384999999993,30.26032999999996,-33.91389800000003,-23.47472200000004,-25.780112999999986,0.5308149999999977,-30.06928800000003,-52.704783000000035,-2.224505999999996,-21.742992000000015,-4.9264420000000015,-20.347939999999987,-13.434832000000009,5.034867999999998,-28.147465,-5.624409,-53.31845199999997,-1.2582200000000054,-20.765807000000002,14.29891,18.271674999999977,-27.565108000000045,4.005924000000001,12.110487000000006,-23.072047,26.261341999999967,19.23424099999999,19.109089000000022,1.8361660000000026,-8.138798000000005,5.092502000000006,-23.18073699999996,-2.351332000000002,1.4229830000000006,38.66276099999995,-37.194217000000016,-24.704495000000016,30.231296999999977,-62.801317000000004,16.961758999999983,-50.83677000000003,11.403319999999995,-21.572012000000026,-16.264447999999998,-60.53854000000013,14.654661000000003,76.77251199999998,3.559612999999997,0.055466000000000945,60.764609000000014,22.484043000000018,8.065347000000001,32.504974000000054,39.91898900000003,-8.601843999999991,-13.920095999999987,-10.511126000000015,6.14832299999999,11.033356999999995,9.570293999999986,-27.572111999999976,32.71985000000003,-22.881706999999984,22.548314000000033,-25.396615999999995,-46.14996700000003,-15.618149000000008,14.835159000000017,8.94678599999999,44.492787999999905,-41.412822999999975,-30.57324300000004,-36.806124000000004,-46.160846999999954,34.97916100000001,17.116288000000008,-15.511504000000008,-21.879424000000007,-2.7648999999999995,43.26065600000002,6.415003999999996,-16.469416999999986,-69.34946600000004,-14.927488000000015,81.68972999999986
Q15825,-33.808875000000015,1.7519749999999963,-2.4996619999999976,-38.804331999999995,10.015979999999999,-2.773315,13.313632,-12.489936000000005,-12.440874999999998,23.701043,-4.867589000000003,-3.6356500000000023,-3.8491169999999997,8.614156999999995,-4.979897000000003,5.995081999999999,17.46846999999999,-13.983024999999994,-1.4951660000000013,-14.066491000000001,0.39078700000000033,-13.881562000000013,-20.652606000000002,5.9808639999999995,-6.971280999999998,0.017290000000000874,-11.939750999999992,-7.863093000000008,4.232819,-9.181457999999989,-0.6399390000000009,-26.96256299999999,5.048198999999994,-7.05615899999999,16.121250999999997,12.043041000000008,-21.251024,1.1352719999999983,5.838136000000003,-15.156203999999995,9.348291000000001,3.589101000000002,10.374503000000002,-9.101157,-4.473763000000002,1.0347150000000007,-11.548894999999993,-2.200412000000001,-3.117428000000001,11.205168999999998,-15.362360000000017,-10.930388000000004,18.595281999999997,-34.36555000000001,10.331638000000003,-31.37091399999998,-0.7656069999999999,-8.53957999999999,-7.665679000000001,-24.318464000000027,-0.07747800000000155,30.77320999999999,4.642296000000006,-6.823703,28.354332000000028,6.624114999999998,-2.1295849999999996,18.154469000000017,8.91462,-8.986572999999987,-6.585589999999999,-3.532884999999998,3.783213999999997,4.333800999999998,-2.5215029999999996,-19.245265,12.158293999999993,-8.876850999999997,13.143576000000001,-8.912691999999996,-13.460147,4.4569600000000005,8.599392000000005,11.101028000000003,12.659638999999995,-15.695226000000005,-9.873347999999991,-7.840195000000003,-12.058259000000007,8.866346999999998,1.306832000000001,-14.836506999999992,-17.65548700000002,-5.261518999999999,10.109436000000008,-0.07196499999999945,-11.065218999999999,-32.693448999999994,-12.978638000000007,46.86930500000002
O00591,-31.757453000000044,-0.596440999999999,-5.676866000000003,-33.94779600000002,4.317717000000002,-4.342199,15.811339999999987,-11.236957000000006,-9.856300000000006,23.877207000000006,-4.0669099999999965,-0.23962100000000103,-4.745645999999999,1.360460999999999,-2.6175060000000006,3.348215999999998,16.992406000000006,-10.05783500000001,-7.964226000000009,-8.597035999999996,0.4850670000000018,-15.694175000000001,-21.57964700000001,-0.5195660000000003,-8.353857999999999,-1.9900410000000013,-5.924296999999996,-7.363068000000005,6.053494999999997,-13.341432999999991,-6.108101,-21.30648599999998,6.240860999999997,-10.084071,8.91453000000002,12.367844,-18.001002999999997,3.519097999999999,4.995303999999999,-18.051718000000015,9.510620000000005,5.079682000000003,8.635796999999991,3.2404779999999977,-0.6417109999999997,5.827023000000004,-15.05604799999998,3.825813999999997,0.6096540000000006,7.288033999999995,-10.282986000000006,-8.191043999999996,18.334554,-20.493610000000004,0.5213430000000008,-18.840152999999994,4.141455000000004,-5.046477999999995,-8.108400999999997,-24.52506899999999,0.7303030000000008,26.614427000000006,1.4702280000000005,-2.474363,19.844866999999994,9.741424999999996,-5.177790999999997,14.656592000000012,12.952974999999993,-13.54697899999999,-0.3960719999999993,-2.3857569999999964,-1.211555999999998,3.2561089999999986,5.4573959999999975,-14.829742000000014,12.527777000000002,-9.875724000000016,10.972310999999996,-13.199803,-15.41685200000001,-4.042083999999998,15.347303,9.349663,16.561403,-16.559623,-9.801656000000001,-8.873648000000006,-19.65808800000001,9.223384999999993,6.218642000000003,-11.007834999999996,-11.582585,-9.287823000000001,8.502653999999994,-4.366858000000001,-11.906634000000013,-22.496427999999995,-11.597430000000019,36.470886000000036
P02708,-35.246367000000006,-0.7779469999999999,-4.116791999999997,-41.153439000000034,7.144003000000001,1.5371779999999977,11.683211999999985,-12.967749000000008,-9.926315,21.292118000000006,-5.2891319999999995,-1.9947910000000013,-0.15892900000000038,10.804848999999987,-7.035894000000003,4.465237999999996,12.526325000000009,-8.708736,-4.177737000000001,-12.031206999999991,-0.7980450000000009,-14.53554700000001,-25.180105000000008,1.7657299999999996,-8.371828999999998,1.4318239999999993,-10.66992399999999,-9.295660999999999,-0.0962090000000003,-10.749150999999994,2.2090639999999975,-24.227043,6.509618999999993,-8.436838999999994,11.43202399999999,12.06247499999999,-22.27539400000002,2.4425659999999993,9.113749999999992,-11.600797999999996,7.687372000000004,2.7569239999999993,8.752138000000006,-1.6108120000000004,-6.491547999999994,-0.5627389999999994,-15.580859000000007,-0.6527660000000005,0.7470200000000009,11.787867999999996,-14.745969,-8.67561,22.71202500000001,-32.48045099999999,9.730620000000004,-28.76667100000001,2.9000200000000005,-6.765763999999997,-7.599481000000002,-19.43362599999999,3.254360000000002,28.308871000000003,-0.38530599999999904,-0.8010239999999983,20.647241000000026,10.88535900000001,-1.3818689999999985,13.432123000000004,18.412978,-9.811214,0.10394099999999985,0.5871999999999997,8.540588000000003,8.468204,-4.739592000000003,-18.138097000000013,8.85302899999999,-11.127069000000002,11.133778000000001,-11.510371,-11.290473999999998,-1.9446049999999995,7.872710000000005,9.277370000000008,19.38458799999998,-14.955813999999997,-11.289542000000004,-9.815872999999998,-14.766020999999995,5.5491620000000035,-1.2039109999999993,-16.268141999999997,-16.77686700000001,-9.034321000000011,10.652225000000001,-0.6637890000000013,-9.714298999999999,-28.095268,-11.865459000000001,44.247960999999975
Q8TCU5,-78.49710299999998,-17.184500000000003,-12.859793000000016,-87.09495899999995,0.2777570000000032,-6.616881999999987,20.548581999999996,-28.483659000000003,-25.52500699999996,66.72588400000005,-16.44675099999999,-3.192701000000007,1.9641879999999972,17.503403,-1.4759269999999989,4.772153000000002,27.22448300000003,-32.67046099999999,-11.054582000000018,-9.496443000000006,-7.997606999999998,-39.446807000000064,-38.92510500000006,9.477131999999978,-24.822245999999993,-10.967555000000013,-12.260973000000018,-14.36527800000001,-0.43061999999999934,-23.012768000000012,5.1194130000000095,-58.546438999999964,-4.331669000000004,-19.483463999999987,26.471913000000022,16.45688600000001,-45.70283800000005,0.6784079999999979,15.142446000000003,-17.237909000000002,21.614824000000016,13.869558999999988,25.66935200000003,-13.840547000000004,-11.755384000000012,6.845941,-28.25219199999999,4.967234999999995,-13.345769999999991,24.659426999999983,-40.51960500000001,-35.195336,24.240394000000006,-62.84900200000013,9.376069999999997,-48.202683999999984,4.865811000000002,-14.487299000000005,-23.897364999999997,-50.94268400000012,21.072750999999986,86.14837500000002,-5.098204999999996,13.285163999999996,51.05100100000002,21.82075599999999,10.237163000000002,20.102532000000007,36.37222800000001,-7.930054999999997,-25.87671,-1.8299650000000038,1.122591,13.992705999999998,-12.567491000000036,-40.95436899999997,24.4283,-35.09407199999995,18.966975000000033,-28.35011200000005,-36.48343799999999,-6.131881000000001,34.44807799999992,13.597360000000005,36.13741200000001,-43.321908999999984,-29.27361900000005,-15.582775000000016,-31.17663299999998,18.67880599999999,16.55267600000003,-30.37757900000002,-36.74117699999995,-0.0496889999999994,38.33821699999998,11.226169000000013,-24.314607999999986,-69.59694900000007,-30.79885200000002,86.63464500000003
Q9UL62,-62.360621000000044,-12.828019000000005,-21.374683000000005,-74.78562399999993,7.757376999999993,-17.057656000000012,25.396915999999994,-19.29617999999998,-27.45243800000001,57.123974000000004,-15.261832999999967,4.853523000000002,-1.540377999999999,17.178126999999996,-6.40193200000001,10.023734000000003,25.04179499999999,-34.89101299999999,-6.403845999999996,-17.523356000000028,-2.3836410000000003,-18.96862400000001,-41.092906999999926,7.418804000000002,-21.228149,-6.627286000000002,-12.649049,-16.853848999999997,-4.360445000000003,-25.155503000000007,-4.746245000000002,-49.425658999999975,1.0937339999999973,-22.174423999999984,17.618041999999996,13.694386,-33.53833300000001,4.462384,2.873670000000001,-15.740656999999985,17.90710900000002,12.995483999999987,13.999637999999987,-8.634166999999996,-5.443673999999996,11.074269999999995,-13.707538000000026,-0.5627810000000006,-3.358664999999995,34.47317600000003,-32.180827999999984,-24.225864000000016,29.657635999999968,-52.011707999999956,20.625115999999963,-47.400861000000056,17.357358,-12.015042000000005,-17.092526000000017,-52.909511999999985,2.169821000000003,70.43542599999999,4.315649000000002,-4.018277000000005,49.949689,12.530170000000014,9.292035999999996,23.466112000000003,42.03820599999998,-21.914535999999966,-9.972551000000001,8.48758999999999,8.610356000000007,7.1406530000000075,1.8057079999999948,-35.25418100000002,15.847064999999992,-20.067013000000035,15.549126000000005,-16.478713000000013,-37.33698099999999,-5.766777000000005,24.997042999999962,10.889260000000004,27.334138,-26.063143000000036,-28.902048000000022,-33.01580099999996,-33.400220000000004,23.53683500000005,11.76020200000002,-18.530459,-22.18796400000002,-11.978410999999987,40.514497000000034,4.019749,-19.788009999999996,-58.45078800000006,-19.089930000000003,80.57094500000008
Q8TAE7,-35.38537099999997,-0.7939990000000007,-5.544418999999996,-28.390397999999987,2.0336369999999997,2.271987999999999,13.256131999999992,-5.837082000000001,-8.194052999999993,23.617808000000014,-8.370279999999996,-4.709604999999997,-1.8514820000000007,9.179218999999993,-2.552222999999999,0.6550309999999999,10.22772599999999,-12.157557999999998,2.6318010000000016,-1.7914170000000005,-5.027897000000003,-18.170374000000006,-18.752716000000007,3.3262440000000018,-6.593309999999996,-4.923836999999998,1.913704000000002,2.809067000000001,-0.39301900000000056,-6.5990239999999964,-4.755575999999996,-27.60659499999999,7.513796999999993,-9.474367999999997,11.213338999999992,6.4666160000000055,-21.645352,-0.07677100000000024,12.161762999999993,-6.981762000000004,11.523934999999994,4.420652,9.470088000000002,-1.8598839999999988,3.2655540000000034,10.154107999999999,-8.643051000000014,1.4660659999999983,-10.526353000000007,8.361534000000002,-14.722334000000007,-14.200761000000009,7.446046999999999,-20.007807000000003,8.196922999999986,-21.13189200000004,1.8696269999999982,-0.9276580000000003,-6.407509999999997,-22.423811000000004,10.505320999999995,35.98729800000001,3.712047000000002,10.660033999999994,14.195448,11.335943000000002,-2.4868469999999983,12.97613000000001,17.534240999999984,-7.4014950000000015,-19.051981999999995,-2.184976,4.710690000000002,-1.8304570000000022,-8.121169000000013,-10.163060000000002,10.877893999999989,-11.924480999999988,6.795997999999999,-5.014958000000004,-6.247281999999996,-0.428864,13.6115,4.0908050000000005,10.183282000000004,-9.070764999999996,-13.742116999999983,-3.1153170000000023,-8.58444299999999,5.842762999999998,11.918127000000009,-16.078531000000012,-18.975838000000007,0.29197099999999887,7.921279,0.6722309999999998,-11.238819000000007,-24.777752000000007,-17.54634,36.61240000000001
P30532,-35.986376,1.4189879999999997,-4.829039,-36.706106999999996,4.416896999999998,-3.5943989999999992,14.461208000000003,-15.12309499999999,-10.080198000000003,21.827563000000023,-7.784885000000002,-1.046986000000003,1.5144019999999996,6.838828000000006,-3.6754190000000015,0.24456300000000117,8.401121999999994,-7.607393999999996,-1.512804,-10.607165999999996,2.076406000000001,-13.404854999999998,-24.35037,3.1911670000000014,-7.339254000000007,2.832236000000001,-10.575522,-4.126386,-2.619879,-10.314045,-3.121155000000004,-25.611037999999983,3.4058889999999993,-9.626491000000003,12.288664999999982,12.503496999999987,-21.98910400000001,2.7774540000000005,9.732147000000007,-15.104270999999999,8.801205999999993,5.588575000000006,7.2638529999999975,0.8309680000000021,-5.545837000000006,0.7786359999999997,-10.148120999999989,2.826291000000003,0.8734069999999985,10.874308999999991,-14.260333000000003,-15.496134999999999,17.644118999999986,-33.528933999999985,7.986782999999999,-27.257357999999982,0.6838059999999995,-5.400146999999995,-3.1964060000000005,-24.327118000000024,1.7391989999999986,29.647395000000003,4.127650000000006,1.897894,23.95342299999999,8.153780999999993,-1.536314999999999,18.661441,12.758550000000003,-11.482637999999994,1.932112000000001,-6.9875570000000025,4.677232999999997,5.692699999999998,-2.1923400000000015,-14.634511999999994,14.206780000000004,-10.414544999999995,12.22482099999999,-9.709440000000011,-14.403499999999992,-4.16696,7.795719000000002,7.514056999999997,16.819885,-11.664246999999996,-11.63243300000001,-9.691636000000006,-8.418039999999994,7.359949,4.360610000000004,-12.162284000000001,-13.921834999999998,-7.049308,10.025146999999997,1.683012999999998,-6.756099999999999,-27.884681,-12.595637000000002,42.54421299999998
O60359,-18.439337,-3.747221000000002,-4.8818589999999995,-23.446822000000004,3.1613070000000016,-6.168232999999999,10.793387000000006,-7.583087000000004,-6.733402999999997,15.742615,-5.870434000000006,-2.020901000000002,2.4044000000000008,3.476088999999999,-1.7604369999999978,2.8062669999999996,7.438128000000003,-6.185205,-0.3675629999999995,-1.7236840000000047,0.4027540000000004,-14.671960999999992,-14.549708999999998,4.138068000000003,-8.728802000000005,-1.565902,-0.8773420000000003,-3.164945999999998,1.2854249999999996,-6.361254999999997,-1.7835719999999995,-9.493779999999997,3.7720500000000006,-6.240896999999997,7.934731000000002,4.302380999999998,-16.343646,3.229692,1.4572160000000012,-8.876592000000002,12.978573999999997,7.962518,0.9709949999999997,3.6701719999999978,-3.128817,0.43474900000000016,-9.056179000000002,0.471101,-1.1364940000000006,10.867688000000006,-14.019401000000006,-9.325490000000002,6.611818999999998,-19.329501,2.2760299999999996,-11.350982000000005,6.435268999999999,-4.917680000000001,-3.980811000000001,-18.473680000000005,5.343992000000004,22.185776,2.0586219999999997,4.148820000000002,15.991486000000002,5.504330999999996,-0.8418920000000006,7.645672999999999,9.829552999999995,-6.487489000000004,-9.225954,-4.989893999999994,-1.2442500000000007,-0.541628,-1.9014679999999995,-12.593617000000005,4.171957000000001,-13.626325000000014,10.347697999999994,-4.656141999999997,-9.213045000000008,-3.724457000000002,5.666125,4.595746999999996,8.200486999999997,-11.522453,-3.7954250000000003,-5.992789000000002,-13.049425000000001,9.185411999999994,11.907044999999988,-4.5402689999999994,-8.833062000000002,-1.0981579999999986,6.909885999999996,-2.396904,-5.933345999999994,-21.341949000000007,-10.547208000000005,28.189138000000003
Q9UQD0,-139.51681900000014,-8.871362000000019,-15.657208000000038,-163.55763200000018,7.923043000000002,-27.375125000000015,65.46647800000004,-28.61530500000003,-53.41307400000011,93.20877299999988,-19.31446599999997,-8.403445000000005,-3.3944309999999915,16.854365000000023,-30.32954600000003,4.5640589999999985,47.33462100000001,-59.06643300000006,-7.673913,-34.976196,-1.7119750000000027,-43.088328000000075,-88.59422500000014,-8.102462000000017,-37.26433500000011,5.253974000000001,-16.92631599999995,-19.91400899999997,9.631991999999995,-51.60896500000005,-8.65143899999999,-91.03321999999989,26.121059999999975,-27.70333400000006,41.26198399999999,53.9966299999999,-81.15579699999999,2.488599999999999,29.82028900000005,-53.58197100000004,47.540406999999995,20.162417000000023,37.34812599999999,-14.968549999999958,-30.97259600000004,24.830708000000055,-31.574656,-9.79514,8.088762000000003,56.777895999999984,-58.788741000000044,-46.772485999999994,75.70615700000003,-137.44356499999995,29.692212000000026,-111.40714899999992,18.094740000000026,-16.247004,-31.02046200000002,-114.55928900000012,-12.077799,135.00647500000005,11.019374999999986,0.02723000000000092,101.96143099999996,38.45705700000001,-10.29766200000002,74.42032200000008,52.60035499999997,-53.40302699999998,-19.115468999999994,13.05736599999999,11.534790999999998,3.3765999999999967,9.500303999999982,-60.98409099999998,63.696290999999896,-18.310505000000038,25.696673000000015,-40.48590900000004,-70.27964499999993,-0.8446520000000111,35.82959099999999,18.776544000000005,68.0703980000001,-54.147737000000006,-41.96845999999995,-52.66304899999997,-63.76693000000016,32.13496,33.422136999999964,-58.55901199999997,-40.73795099999995,-26.368205999999972,60.219779000000024,0.9570259999999977,-58.26925500000004,-99.34548600000024,-33.971389999999964,172.98852499999933
P54289,-75.89006800000007,-12.764588999999999,-7.437093999999996,-75.782415,3.0351940000000037,-10.69628000000001,32.50697400000003,-23.737133000000007,-18.718108999999977,58.93624500000003,-10.228829000000008,-6.914502,-21.774841000000013,20.31075899999998,-7.91803900000001,9.433213999999996,24.89818399999999,-43.48278200000001,-8.870067999999995,-28.135560999999964,6.048738,-23.39193499999998,-56.40268700000006,-4.449697999999996,-18.825278000000004,2.4488430000000014,-22.132605000000005,-18.519275999999984,-7.024259000000007,-22.249366000000002,-19.125010000000007,-64.62943500000007,21.408762999999997,-25.00443399999999,19.628849999999996,32.90933800000003,-26.883873000000023,8.987401999999996,10.477184000000005,-13.337415999999997,21.81261899999998,15.521539999999986,13.905027000000018,-5.3206039999999994,-7.921046999999996,7.017345000000006,-29.82020500000002,-0.4064329999999979,-8.026757999999997,27.503603000000023,-23.283645,-33.45574000000005,49.05316800000003,-64.45800199999995,27.69969699999998,-62.59425500000009,12.631786000000009,-17.526635999999996,-10.048144999999996,-65.81297900000011,1.0432819999999963,71.70174599999996,4.746141000000004,1.358794000000004,52.74956800000002,22.718705999999976,6.620974000000002,44.866687000000006,30.970009000000047,-28.063711000000033,4.333312999999992,3.500639,1.2656369999999992,8.942076999999996,15.32508599999999,-45.872241,29.99818300000002,-13.165873000000005,12.173638999999993,-33.856730000000006,-32.752916,0.3171010000000012,24.022299999999994,4.8481429999999985,32.83449500000002,-33.14712900000007,-27.72593899999997,-29.862151999999945,-42.87411499999996,21.783024000000026,1.1251229999999972,-24.62745900000002,-28.19965999999999,0.2837540000000016,32.94090900000003,11.689779000000009,-23.181595999999995,-67.60752600000005,-17.867797999999983,81.18956800000007
P47870,-39.19536800000002,0.20796900000000054,-3.745010000000002,-41.268169,1.0027290000000013,-3.96357,13.685466999999997,-8.074310000000004,-3.8359529999999986,32.75251500000003,-7.746767000000004,-1.3977739999999998,-9.190646000000006,5.802848999999998,-4.413973999999999,5.398635999999993,17.652301000000023,-16.587176999999983,-2.4369639999999984,-11.918632999999994,1.0814679999999997,-19.57854300000001,-16.195621999999986,-5.015929000000002,-8.58561799999998,-1.332141000000002,-3.047436999999998,-7.496298000000001,-2.597527000000001,-13.121120000000003,-10.256065000000008,-20.531531,10.826321999999992,-10.623779000000006,10.417015000000008,12.093698000000005,-23.176146999999997,2.7608329999999985,2.701186000000003,-6.619047000000002,7.4402309999999945,2.0191589999999993,8.676017000000016,2.8280270000000023,-5.634058999999998,1.6634980000000006,-11.893176999999985,-4.785954000000002,4.749841999999999,10.586565999999994,-13.921305999999996,-16.189785000000004,21.424570000000003,-30.98464000000002,7.441335000000004,-25.66062100000002,1.3380679999999985,-0.7470659999999992,-8.404696000000001,-29.448121999999994,-0.5106480000000011,32.02224899999997,4.426460000000003,4.357887000000002,21.676995000000016,12.707372999999995,-3.2134470000000004,22.953451,11.511446999999997,-17.855818999999975,-2.7907180000000014,-3.059592000000002,3.7305220000000023,-1.9171480000000003,2.0847309999999997,-14.629080999999998,14.570304000000016,-10.412345000000006,8.159885,-15.661559000000011,-15.739400000000009,0.08780500000000019,19.896124000000004,7.373514,14.196394000000009,-15.376046999999994,-13.132645999999992,-8.54042,-22.909814000000022,1.2762380000000002,4.22521,-13.886246000000005,-12.358275000000004,-4.608692999999998,11.723657999999984,1.503199999999999,-16.035654,-29.86790899999996,-15.365339000000011,37.31411999999999
Q16445,-34.85628700000001,-2.4204280000000007,-5.925994000000001,-39.93782799999995,-2.617308,-4.171032999999997,13.053681000000005,-15.995287000000001,-4.776166000000002,21.799159,-7.829776000000004,-0.44420700000000024,-0.6390209999999993,-0.8691199999999988,-1.7212979999999976,4.981552999999999,15.152942,-13.257769000000005,-8.880499999999994,-7.403488999999998,-3.9153200000000017,-10.460234000000005,-16.208237000000018,0.5944500000000007,-8.516136999999992,-1.901380000000001,-6.894102,-6.138658999999997,1.0445400000000007,-9.875927,-1.7949369999999996,-18.11674699999999,5.015032999999998,-7.421866999999993,8.625482000000002,9.424343999999996,-18.208063999999993,0.2693030000000007,3.318734999999998,-11.947114000000008,8.457198000000004,3.183315000000003,3.6116,-0.8068240000000002,-5.653204000000006,2.1099719999999977,-8.292733999999994,1.1095849999999978,-2.8223869999999986,13.363101000000007,-11.165685000000002,-15.976369000000012,18.20010300000001,-29.08000800000003,7.662983,-20.660042,-0.7343819999999998,-0.8694830000000004,-10.323333000000002,-23.22961099999999,3.7831299999999994,29.438917,1.0844399999999996,-3.1364620000000016,23.73015799999998,11.541861999999993,-3.3489219999999977,15.443184000000011,13.007342000000016,-12.387607,1.522806999999999,-4.880985000000003,5.458879000000001,4.310206000000001,-6.129722999999999,-11.579852999999993,10.355156000000003,-11.964284000000006,11.284311999999996,-18.96253999999999,-13.190706000000002,-8.258079,9.822755999999995,3.174700999999999,17.417634000000007,-19.40356,-9.96370999999999,-14.668360000000002,-15.637804999999997,2.7231810000000016,8.072170000000003,-15.120215000000002,-10.208563999999996,-5.164162999999993,13.515909999999991,3.5655660000000005,-12.163195000000002,-28.95836000000001,-1.3531949999999981,33.530471999999996
O95264,-31.81978600000002,-2.112972000000001,-4.664684,-34.86733799999997,4.236360000000002,-2.5415939999999972,13.857043000000008,-11.606688000000002,-7.613510999999992,21.676332999999982,-8.335221,2.400027,-7.1962040000000025,9.932486000000004,-3.0464559999999956,4.057518999999998,14.32510900000001,-10.997105999999997,-6.411576999999995,-10.998535999999996,-0.7789219999999999,-11.552688999999999,-16.40398,3.1559489999999992,-7.994907999999998,-4.826101999999996,-6.891401999999998,-6.787519999999996,1.0735420000000007,-12.411403999999997,0.444631000000001,-27.080130000000015,0.2078590000000001,-11.099013000000003,12.53881200000001,8.491391000000005,-15.992368999999998,3.0477389999999995,8.498693999999995,-10.191222999999999,8.461347999999997,2.6508590000000005,11.99188600000001,-3.259882999999996,3.0688099999999996,1.816866,-10.204606999999994,2.942200999999999,-3.486480000000001,9.353601000000003,-12.9769,-8.707229000000002,10.123784999999998,-28.809328,3.9307180000000033,-22.957472,0.15524800000000055,-7.293494000000004,-9.221646999999997,-18.106181,4.102162999999999,29.30264000000001,-2.5111620000000014,2.019865999999998,22.549077999999977,7.080118999999998,2.3599420000000007,11.982068000000002,14.348284999999992,-7.3045839999999975,-8.571798000000003,-4.462505999999998,-0.3092990000000005,0.868544,-2.855619999999998,-12.035059999999996,12.569353999999995,-10.042112,5.658441999999998,-12.432877000000005,-11.684380000000006,-4.7008279999999925,17.467677000000013,9.212109000000005,16.140246000000005,-17.85702599999997,-10.535980999999998,-7.288634999999995,-13.960985,6.428581000000001,10.094337999999993,-10.800446999999997,-9.473447000000004,-1.4251679999999998,11.282424000000004,0.17367300000000013,-8.909973,-22.84584599999998,-14.115130999999998,37.8210460000001
Q99928,-29.978961999999996,-0.21405999999999972,-7.974007000000001,-37.592787999999985,6.117294000000003,-0.8307149999999988,13.530987000000007,-16.895855000000026,-7.735705999999995,25.39901,-7.559559000000002,-1.3412870000000001,-1.8075080000000014,2.9977040000000015,-5.339251000000003,7.823016999999994,16.221959999999996,-15.953622999999999,-7.811885999999992,-8.475979,1.3526369999999992,-9.503016999999987,-20.507952999999997,2.2570390000000002,-12.299631999999999,-7.1227779999999985,-9.104014999999993,-12.037712999999995,4.126564999999999,-10.030357999999998,-5.676997999999999,-23.814374999999995,9.641615,-7.792850999999997,11.516839999999993,4.375953999999998,-24.49113499999999,8.373131000000004,7.621560999999998,-16.981794999999998,11.107943,9.101028000000001,10.797663000000005,-0.9029469999999987,-4.5178860000000025,2.8819489999999974,-7.993006,-3.0173730000000005,-2.8637519999999985,10.719325,-14.883783000000008,-14.683375999999999,15.382513000000001,-29.715258000000013,3.079067999999995,-19.977270999999995,3.309485000000003,-6.425199999999992,-9.048325,-23.741314999999997,1.292426000000001,31.787533000000003,4.574312999999998,-1.8002979999999993,29.445315999999973,8.835203000000003,-1.0551990000000002,14.111553000000013,13.053634000000002,-10.64530999999999,-3.5257499999999995,-3.605689999999999,-1.7711919999999997,2.755526999999999,-1.0087759999999995,-13.417784999999997,11.543869999999993,-14.215964000000008,8.757029000000003,-8.070918999999996,-21.788633000000004,-4.534894999999997,16.865333999999987,8.698283999999996,15.594674,-15.912951000000005,-9.403118,-19.97449100000001,-9.402561000000006,5.1194990000000065,3.218333,-5.654181,-13.445132000000001,-7.679937000000002,14.71113299999999,-0.9691559999999997,-6.045678999999999,-34.24603300000004,-6.487570000000008,39.552767
O14649,-30.719769000000007,-2.6356750000000018,-5.534563000000001,-29.390068999999986,-12.199124000000007,-8.180191999999998,12.279344000000002,-6.362040999999997,-8.238983,23.64322799999999,-9.477053999999995,0.647915999999999,2.3829369999999988,5.397031999999999,6.953866999999993,-1.5271250000000005,1.0522719999999992,-3.79975,1.5460900000000015,-4.928343999999998,-0.6051269999999985,-8.794814999999996,-15.341773000000003,3.938441,-9.305219999999998,-3.9486860000000026,-3.358881,3.405591,-2.976002999999998,-7.663001999999998,1.0577260000000015,-23.065534999999993,2.7808410000000023,-6.860056000000005,11.228270000000004,10.757499000000005,-24.24582800000001,0.4977879999999999,8.311127,-0.8369629999999998,14.910371,8.540871999999998,10.257057999999995,-3.0310120000000027,-3.302743000000002,10.008140999999995,-18.567618000000003,1.5020970000000022,-6.740634000000006,4.145099999999995,-16.530957999999995,-12.211028999999987,9.710599999999998,-22.35316499999998,4.873668999999998,-12.207011000000001,1.3244019999999992,3.560208000000004,-2.7798409999999962,-18.86605600000001,9.358844999999999,24.494029999999988,3.434328000000006,7.971587999999995,8.005986,9.804194000000004,-4.7691820000000025,7.580984000000004,12.996106999999984,-6.944650999999996,-19.883520999999995,-7.356449000000002,6.4383950000000025,0.4423390000000007,-6.550589000000002,-5.925151000000002,4.883639000000003,-9.476707000000001,8.452545000000008,-7.560794000000006,-2.8075370000000013,-7.489317000000001,15.931342000000004,1.5430920000000017,15.777325000000003,-9.241335000000007,-15.449970000000013,-3.285944999999999,-7.430654999999998,4.0670509999999975,16.94780099999999,-12.96700500000001,-5.645677999999996,1.0748479999999996,12.815219,3.9488080000000014,-10.835233999999996,-24.193031,-15.775241999999997,36.502175000000015
Q96D31,-25.383194000000007,-9.009172000000005,-3.2741959999999994,-24.614634,-5.52895600000001,-1.9487440000000007,7.636171999999999,-7.612304000000003,1.681569000000001,19.536066,-4.362591999999999,-4.839061,7.39238,4.9807000000000015,4.25889,1.1724400000000004,5.057829,-6.973952999999998,0.6523020000000004,-0.15908699999999995,-4.362172000000002,-10.830463000000002,-11.048127999999991,2.8064379999999973,-7.5774530000000055,-8.648946000000004,-4.788494999999996,0.19288000000000005,-1.9598349999999993,0.03025399999999944,3.824925999999998,-13.413993000000001,-6.626373000000003,-8.846306000000004,4.324264999999999,2.176069000000001,-10.562768999999998,-1.704947000000001,7.082847,-1.2752029999999999,11.415807000000003,1.6103860000000028,10.708808000000003,4.854255000000003,-7.961356999999996,-1.0361710000000002,-9.699121000000002,3.909906000000003,-4.063333999999998,6.827428999999999,-11.570673000000008,-14.454669000000004,2.0443020000000027,-20.119829999999997,2.2472870000000005,-7.357804999999994,-1.680953,1.310427,-11.243639,-6.357878000000004,10.000526000000002,21.01972599999999,-6.012942000000004,9.292001999999998,10.468303,6.340909999999997,-0.9074609999999993,-2.447145000000002,15.901234999999993,7.367533000000008,-13.546312999999996,-4.133431000000001,2.7116140000000013,4.255033999999998,-15.070144999999991,-5.799494000000002,1.0285210000000014,-17.204651999999996,7.102830000000002,-8.828390000000004,-11.500565000000002,-6.869883999999995,7.468735000000005,-1.5196569999999963,9.619117,-13.896874999999993,-8.773314000000006,-4.548007999999999,-2.351343,2.396049000000002,9.282584,-7.528289999999998,-8.722751,3.948577000000001,12.336816999999995,2.5372040000000005,-2.7834420000000013,-25.412668000000007,-8.252068000000003,24.39837199999999
Q93086,-24.453634000000026,-1.061146,-0.11608999999999917,-28.60934200000001,-1.5962680000000014,-4.210326000000002,10.859746,-10.050231999999987,-13.292611000000019,25.753840999999994,0.6192649999999997,-2.897268999999999,-4.9412030000000025,11.062154999999997,-2.452731999999999,4.6329100000000025,4.179311999999997,-14.130984999999999,-3.499847000000003,-8.054963999999998,2.8683710000000016,-12.447020999999996,-21.573700000000006,0.7997680000000003,-6.640926999999999,1.3041290000000003,-7.6810240000000025,-0.3670480000000005,-4.336975000000001,-5.062559000000003,-2.8076140000000027,-25.368335999999985,7.821486999999992,-5.354095000000002,10.59724800000001,5.583684000000002,-15.706867000000017,0.6361159999999991,7.2011030000000105,-5.737817999999996,7.255517000000003,10.310483999999995,6.572953000000003,-5.627859000000004,-3.965975000000001,5.959486999999993,-11.028750000000004,-0.37602700000000017,-5.8025769999999985,9.607282999999994,-11.081148999999996,-12.102959999999998,9.658729000000005,-22.077225999999975,10.273305000000015,-26.142388999999994,3.23776,-2.824817,-4.076092000000003,-29.8728,2.1181269999999994,29.843391999999998,4.329993999999998,2.653833,23.774702999999988,12.945514000000008,-2.363345000000001,12.965059000000007,10.636138000000004,-10.187204000000001,-5.320441000000001,3.4374350000000025,3.181532999999999,4.485926999999999,1.9659279999999992,-16.076688000000004,13.442542999999986,-7.352787999999999,2.0367349999999993,-6.9596810000000024,-14.100165000000008,-0.9505030000000001,5.653421999999999,3.6428150000000015,11.403944999999997,-11.908763999999985,-11.865754000000004,-9.603795999999999,-12.506500999999995,13.453283000000006,4.483426999999997,-6.723698000000002,-5.8124219999999935,2.8429240000000027,15.553379000000007,3.1871509999999996,-10.510954999999994,-25.370557,-8.093425999999994,31.17785699999998
P48048,-24.983187000000022,-0.6767989999999995,-4.851369999999999,-31.664786999999976,3.396417999999998,-3.8994310000000034,12.596533000000015,-14.312251000000003,-7.7961389999999975,21.504976,-4.112379999999999,1.064639,-1.0358940000000005,3.926086,-5.940253000000001,1.733405999999999,11.310095000000006,-14.277670000000008,-2.069145000000001,-7.425197999999998,3.6108719999999987,-15.164850999999999,-16.503174999999988,0.9740359999999997,-7.333965,4.0138900000000035,-3.664064000000002,-3.614443,1.9799049999999998,-13.521265999999999,-4.340129,-22.309972999999996,9.631141000000001,-5.598208000000001,9.930168999999996,10.06668099999999,-10.395747000000007,3.471276000000001,2.2066709999999987,-14.196366999999995,9.327448999999994,4.278781000000004,7.9892129999999995,-0.11976600000000243,-3.7591289999999997,4.299498000000005,-8.005012,1.484716,-0.15227599999999936,9.157297999999995,-14.441819999999996,-5.299610000000003,13.023501000000005,-22.525990999999983,4.493167999999997,-20.377785000000006,1.9614130000000014,-6.236243999999998,-5.215981999999999,-22.760360999999993,-7.572277000000003,22.655318999999967,4.502521000000001,3.6541669999999975,24.622437999999992,10.061473000000014,-2.538484000000003,14.777817999999995,7.286582000000004,-11.224445000000003,-4.493208000000001,-1.3178889999999996,4.266315000000002,2.832416999999999,-3.3666899999999993,-17.547956,13.62391,-5.007500999999999,6.209209000000001,-4.789458000000003,-14.073818000000003,0.7003669999999997,7.962049999999995,13.407149000000002,10.535730000000003,-12.20686799999999,-10.45651699999999,-7.337902000000002,-12.69072100000001,3.5020900000000013,4.289268,-10.240948000000007,-10.25834,-5.807971999999997,11.894041999999997,0.7253170000000002,-12.154793999999992,-20.543363999999983,-8.537583000000005,31.89948499999999
Q14571,-180.13704099999984,-24.741377000000032,-19.60978599999991,-195.51184300000003,15.335302999999993,-30.605319000000048,71.74099100000012,-51.19149599999993,-72.53695200000004,168.78170199999985,-27.972749999999987,-15.341336999999996,-35.844294000000005,43.816756999999924,-17.25609700000001,22.003227000000006,80.35272400000004,-108.48577600000031,-19.024025999999992,-72.44039499999994,-11.661781000000012,-73.77053199999995,-115.25284499999978,-6.535589000000015,-39.10853000000001,9.582137999999985,-50.71469200000003,-25.84585599999999,11.289573999999988,-81.077998,-23.02881699999997,-142.2629099999999,25.820060999999992,-38.90951899999997,46.86468899999995,52.11060100000002,-79.137725,11.034346000000008,23.674784999999993,-31.64913299999998,35.631560999999955,30.588837999999967,34.66629799999999,-21.461017000000083,3.687833999999993,28.551156000000034,-67.27771799999985,-9.538026000000022,-5.700389000000009,74.64145099999989,-65.91653399999998,-48.39888299999999,110.08102700000028,-148.58133999999995,52.23409999999999,-148.53074600000014,35.815755,-29.164204000000073,-47.10906900000003,-158.26231199999955,1.2408760000000005,177.9758830000001,30.927171999999956,15.814704999999993,131.88239699999983,46.32570300000005,13.405633999999996,95.52090600000022,83.52965100000004,-76.08599500000005,-11.726818999999976,14.115756000000012,11.794609000000026,15.436080000000022,42.145303999999946,-95.54196999999967,93.67857800000002,-10.408093000000001,36.67263299999997,-55.17116100000001,-86.52550799999992,5.987883999999986,52.44620600000005,12.044523000000023,85.66110899999995,-69.20405399999994,-87.97180099999981,-80.84887800000001,-116.68985300000004,64.55571399999995,37.38217899999994,-63.36976799999986,-36.11508899999997,-10.283144000000018,101.24364700000007,2.608494999999991,-52.29813200000003,-131.31369000000015,-48.667662999999926,209.96085200000007
Q9P0X4,-172.28748199999956,-29.695913999999995,-36.22892099999995,-172.62277899999998,-16.511433000000025,-25.785692999999995,63.044291000000015,-30.77961300000003,-45.711608000000034,134.5717609999997,-31.93209199999999,-19.303159000000022,4.376554000000004,45.29773200000012,1.5838819999999862,4.0127640000000095,32.808871000000025,-45.36148700000005,13.11129300000002,-5.211535999999992,-1.7617769999999984,-76.95878899999991,-85.85612699999986,30.57639699999995,-51.59266099999993,-20.157045000000057,-39.4138209999999,9.667441999999983,-10.65780599999999,-16.567804000000013,10.324572999999992,-122.40131399999984,-0.5295500000000033,-46.515680999999844,46.86299500000015,21.047412999999956,-104.9508000000001,-13.361514999999981,51.52641799999999,-39.03175899999987,49.61336399999998,33.78462299999997,46.84462300000001,-14.231697999999973,-15.25581300000001,7.5338189999999905,-56.29962899999995,13.478162999999995,-32.72935199999994,54.6483249999998,-65.56271100000005,-72.39440699999996,36.57095399999991,-145.77861100000027,44.63387300000003,-91.08255399999973,7.931521,-18.31427599999997,-22.02112799999997,-93.76600299999978,68.52700499999996,181.7488399999999,-18.998419000000037,42.15303300000005,78.45901500000005,58.972713,-1.9212539999999874,26.661667999999953,85.78244200000024,-3.7630679999999996,-80.02613399999986,-11.200520000000015,13.745384999999988,29.424336999999994,-61.05376599999991,-53.29424999999994,36.92321200000001,-75.65433799999998,29.05657,-30.433563000000078,-63.60189699999996,-32.008226000000015,64.66060400000008,8.412776999999984,48.22949599999998,-64.290997,-51.17978200000001,-28.336312999999965,-29.414089000000022,32.628364000000055,37.646267000000044,-78.53536500000001,-69.228321,21.54255999999999,84.92071700000007,28.687247999999965,-33.864004000000044,-150.91222600000003,-71.49259900000003,199.33690699999968
Q8TD43,-96.318541,-19.08756900000002,-4.449909000000002,-83.18633000000001,-19.431749,-8.059172999999992,31.234714999999987,-7.843613999999999,-21.35990399999997,79.72288900000005,-17.596493000000006,-15.665702000000001,-0.7581799999999997,28.880899999999993,6.670817999999997,-2.1274340000000054,7.523453999999996,-30.96130200000001,18.22630499999996,-4.708449999999995,-7.116195,-41.17967499999995,-38.60218600000004,20.66033999999995,-13.285123999999989,-25.732587999999932,-15.105550000000013,0.22264900000000123,-15.863860000000013,-11.154566000000004,9.799258999999983,-79.6261059999999,-9.66582700000001,-18.562495000000002,28.60972500000006,5.769625000000004,-62.47061700000002,-12.062686999999999,40.168530000000054,-12.393069000000011,27.94348500000001,15.73841,33.40245300000006,-20.678832000000018,-0.1356640000000001,12.239802999999991,-30.471309999999974,1.2695050000000017,-30.05024500000001,20.637081999999968,-33.220617,-41.66731300000005,5.829793000000001,-71.42675300000003,32.231387000000005,-54.91876400000001,-4.2479960000000005,1.825791000000002,-16.619989999999998,-49.72807400000002,35.269803999999986,102.50054299999998,-12.097750000000014,39.27645300000007,37.15300599999999,33.24376100000004,-6.092638999999983,19.31992599999998,45.91033100000003,-10.26331600000001,-46.072813,-8.018626000000006,7.243297000000001,9.136469999999992,-28.54322099999996,-33.19774899999998,25.57349799999997,-31.675941999999996,12.558972000000015,-12.706822999999993,-24.614691999999998,-12.211420000000004,43.24009000000003,15.312377999999978,33.18856499999997,-35.10272300000003,-39.449985000000076,-4.3773350000000075,-10.140003999999983,13.500269000000017,34.605718999999944,-52.151229000000015,-37.85384700000002,17.368385999999987,37.43611500000008,16.342252,-19.354443000000007,-65.536571,-47.75017900000006,108.89253100000009
P17658,-42.65191700000003,-7.843293,-8.77642999999999,-43.13280199999997,-5.389248000000001,-10.37066899999999,18.597708999999988,-5.477553999999999,-10.779291999999984,32.262235000000004,-14.687963999999997,-6.296808999999998,4.076805000000001,13.905625000000004,4.658713000000002,-4.018149,10.339253,-5.407001000000001,4.7387159999999975,-3.1526540000000036,3.267657,-13.510611999999995,-16.25824100000001,1.9858119999999988,-14.906664999999997,-1.2687300000000021,-9.115564000000004,0.6481990000000021,2.7728109999999986,-7.403413,9.250325999999998,-33.332291000000005,4.966034,-10.76239999999999,5.468707999999999,5.402661000000002,-27.59642500000001,1.6572420000000017,19.516357999999993,-5.907180000000001,15.486379999999986,7.906649000000001,16.124107999999996,-5.401248,-7.307388000000008,0.396804999999999,-18.089781,5.627348999999997,-11.322950999999986,15.008581999999999,-8.306169999999996,-12.812184000000013,13.145832999999989,-37.55720199999997,5.957454000000002,-17.235356000000014,-1.0051839999999994,1.8729330000000017,-6.609489,-25.46305300000001,11.154948999999988,36.791432,-5.497218999999994,8.122335999999995,14.569835000000005,11.820152999999998,-3.221275,10.948265999999998,17.41586199999999,-3.9530040000000004,-16.529607999999985,-5.230820000000004,4.964959,2.4186869999999985,-4.2423329999999995,-15.753128999999998,16.851916999999993,-10.116354000000001,2.7496780000000025,-5.816607999999993,-7.930858999999994,-0.8731609999999992,22.12324400000001,1.6668409999999974,18.691360000000003,-16.431306000000014,-14.61877300000001,-8.434022000000008,-8.950032000000004,7.6978100000000005,13.872214999999995,-24.974463000000004,-10.57381,7.155979000000003,20.85562899999999,7.966142000000002,-10.079034999999998,-31.73139000000001,-21.541603999999996,38.450246000000014
Q8IZS8,-73.74630700000006,-5.683975999999997,2.6020400000000032,-67.17524299999997,6.126912000000005,-13.110879999999986,32.24977899999997,-21.974671000000015,-17.070214999999987,59.87012700000012,-8.605891999999999,-1.2033860000000045,-14.406407999999997,19.44457199999999,-13.904412999999963,8.650141000000001,21.636327999999995,-38.42136900000001,-11.049051000000002,-19.73488100000001,-2.868926,-34.554434999999984,-49.724711999999975,-1.155540000000001,-14.859058,-0.7883320000000003,-10.424320999999988,-8.830079999999999,-7.385869999999995,-29.015973000000002,-12.490272000000003,-67.93484200000003,16.302468000000037,-11.789690000000002,17.390523999999974,28.308159000000014,-20.00020999999998,0.4033200000000032,10.487431999999986,-13.535234000000003,23.503563,14.474824999999967,18.40783,-10.421667000000005,-3.7336329999999984,9.761731999999999,-19.886727000000032,-7.028122999999989,-9.166890999999964,34.82624000000002,-24.859393999999973,-26.642597000000023,41.50436900000001,-62.026286999999996,29.08853199999998,-62.523969000000044,5.586137999999989,-19.47803800000001,-17.925161000000013,-70.0963199999999,0.33998500000000154,75.67047999999993,6.311084999999999,10.76229900000001,46.53981300000001,26.015065000000018,2.6791100000000045,41.83984000000003,26.178065000000053,-33.96194899999998,-14.298233000000007,8.945190999999989,0.4340149999999998,10.608941999999999,12.042527000000007,-35.341189,30.351362000000055,-13.373188999999993,15.22696200000001,-30.761082999999996,-34.89244800000004,-3.3167069999999947,20.04352399999999,11.371087999999991,31.66880600000003,-35.94768200000003,-32.99963800000003,-21.210603999999986,-42.005045,20.234544,4.592498999999995,-25.323269000000025,-21.063785,-0.9125870000000016,36.54711200000002,8.634245000000014,-23.669533999999977,-56.66648700000003,-29.507218999999935,86.30741200000003
P51575,-25.59948499999998,5.278155,1.7077369999999998,-33.61739600000004,-3.249757999999998,-2.0106369999999996,9.521137999999997,-6.6549190000000005,-11.960119999999998,26.771867999999987,-1.2551930000000002,-7.076097999999991,-3.9846950000000025,8.715807999999996,-0.5963569999999992,3.049295999999999,5.351048999999998,-13.171629000000001,-3.3310449999999996,-6.830165999999999,-1.9525900000000005,-15.972237000000003,-17.003707999999992,0.9311070000000005,-5.218363000000004,1.38053,-8.249911999999997,-8.299033000000009,-1.5023879999999985,-3.892999999999999,-4.707254999999998,-21.345852000000015,8.563697999999999,-4.933663000000001,10.858445999999994,4.895687000000002,-13.271869999999993,0.3156099999999983,5.153061,-5.4055430000000015,6.289505999999997,7.028535999999997,5.521973000000002,-7.665168000000006,-2.8451390000000005,3.070294,-7.968324999999999,-3.0127390000000003,-8.546071000000003,9.601036999999993,-12.748403000000001,-10.95318499999999,10.893004000000001,-26.524546999999995,8.232229999999992,-25.098773000000005,2.804214999999999,-2.8005850000000003,-5.929475999999997,-25.652252,4.844796000000001,27.424824000000008,2.9673789999999993,4.907850999999999,17.936514999999996,7.631783000000003,-4.292994000000001,15.239190000000002,8.543398999999999,-9.492093,-8.900935000000002,0.884644,2.5940550000000004,1.5317220000000002,-3.117097000000001,-19.90312700000002,9.559921999999997,-6.429439000000004,6.997743999999999,-5.673741999999999,-7.501433999999999,0.6902050000000002,9.956402999999996,4.806010999999999,16.485679,-10.715877000000008,-9.202136999999997,-5.382206999999997,-9.968343999999995,7.187367999999997,2.1246200000000024,-10.476462000000016,-10.757356999999997,-0.22014899999999943,9.993432999999998,7.410756999999993,-7.456407000000002,-16.70816199999999,-7.919305999999996,32.09405799999999
Q5XXA6,-66.02413500000013,-0.6364420000000004,-8.855919999999987,-76.60428600000006,6.782071999999998,-6.678739000000001,35.19121899999997,-16.72031999999999,-22.03968399999999,59.1655679999999,-6.446284000000003,-5.910422999999999,-1.4809249999999996,19.33943000000003,-14.013026999999983,12.45286600000001,27.91285100000004,-42.17380200000003,-1.4894110000000047,-19.223074999999994,3.1013020000000022,-30.264768999999966,-34.207199000000024,-3.0941419999999993,-8.305401000000005,6.474115999999986,0.3598239999999978,-11.506763999999993,7.028650000000007,-23.07617200000004,-9.458722000000005,-46.591675,16.07119999999999,-10.318683999999985,24.48390399999999,18.660402999999974,-34.82498400000002,-2.5910240000000004,6.824316000000004,-17.918443000000003,17.08055599999997,3.240272000000003,19.035858999999977,-4.967612000000001,-7.1460949999999945,4.608298999999994,-19.021092000000014,-4.657247000000003,-3.6771580000000004,35.59456400000005,-23.703581,-21.222133000000035,32.23544599999992,-59.47726000000001,25.02792400000004,-56.77831699999997,10.373230000000003,-12.970005999999985,-16.841100000000026,-65.93500899999992,-0.8545240000000011,65.03447699999995,14.92306700000001,5.598807999999994,38.52018500000004,17.037998999999964,-6.225282999999993,32.369109999999985,37.20029100000002,-30.90650400000004,-11.999266,9.601589000000013,9.392527000000001,9.792819999999995,1.9362040000000014,-31.380954999999975,32.93322500000001,-13.109042999999968,11.441378000000013,-18.917001000000013,-33.21289099999998,2.253044999999995,27.042484000000023,13.390724,27.735518000000003,-26.103990000000003,-31.239316000000002,-30.773790000000044,-34.233171000000034,14.64491800000001,6.462821,-22.683812999999965,-18.425718000000018,-7.702853999999994,33.62277,2.409024000000005,-24.174308000000032,-53.01506400000002,-20.905534999999983,73.83820299999995
Q9H252,-76.82215600000002,-12.630501999999995,-21.547040999999975,-73.28174099999987,-4.308216000000006,-5.259171000000004,16.333176,-13.40822599999999,-21.78191900000004,66.61397399999996,-17.758526999999994,-8.704957999999994,-3.2878590000000023,17.396364000000005,2.134252999999997,3.0770569999999924,19.813015000000007,-22.82538100000001,-1.5711669999999986,-14.727371999999999,-9.017069000000003,-39.01704499999998,-37.29681700000002,12.024766000000012,-15.331343000000013,-10.583928,-23.57526900000003,-8.516139999999998,-3.7915880000000013,-7.789135999999996,8.020883999999999,-57.03431800000001,-2.1235369999999962,-21.851035000000003,18.908945000000028,17.11864099999999,-37.462579999999924,-0.31342899999999696,17.24829999999999,-16.323216999999993,20.213972999999964,11.930155000000003,24.90829699999998,-3.195333999999998,-3.567557,0.1729679999999997,-24.62349499999999,2.865042999999998,-20.38947599999997,21.689428000000003,-38.39706699999997,-38.894202000000014,11.400396000000004,-56.04674100000002,18.540773000000012,-37.20435499999997,4.0785339999999985,-14.668847000000016,-19.628528000000028,-43.85888300000004,32.64955899999996,68.96016899999984,-9.799168999999992,10.348540999999983,40.642865000000015,23.36568300000001,2.207694000000002,15.15976700000003,38.19126499999997,-0.40007500000000457,-30.36824399999998,-7.511635000000004,-0.006218000000000529,13.935499999999992,-21.400084999999994,-29.02412399999995,15.341663999999987,-37.716358000000014,14.826317000000007,-16.030491999999995,-21.81665700000001,-12.152074999999995,27.257417999999948,3.0858869999999974,32.659427,-37.42717300000005,-25.980520000000034,-8.071769999999992,-28.403299999999994,14.344644999999998,17.202713000000003,-28.89011399999997,-28.514188999999952,8.164949000000002,45.754743,16.746065,-20.401957999999976,-61.356072000000005,-26.207820999999953,83.55213600000016
P16389,-37.30177300000001,-6.011725000000003,-3.4815280000000013,-40.910851000000044,3.9212780000000045,-2.551560999999998,16.525790999999987,-9.854814999999999,-9.219001,28.046633,-12.536556,0.7616740000000003,-2.6360020000000035,7.098222000000003,-1.5745189999999945,2.4863239999999966,11.488564000000009,-9.792218000000004,-2.440864,-7.9069639999999985,-0.504942000000001,-13.490262,-17.86707000000001,-0.053765999999999564,-9.648361,1.1539489999999997,-5.0410379999999995,-5.989121000000004,4.675056,-12.09022699999999,3.878595,-24.657196000000006,9.610832999999994,-11.932140999999996,8.819118999999999,10.654456999999994,-17.53898699999999,3.210714000000004,8.475985,-7.841162,9.078780999999992,5.858952000000003,9.330602000000004,-2.4928350000000026,-4.498094000000004,6.15935,-14.074734999999997,3.737745999999998,-1.272234000000002,17.179488,-9.546937,-13.099022000000001,18.845489000000015,-32.42738100000002,5.083934,-24.07575,3.4424189999999975,-1.1470540000000005,-10.676769000000007,-28.939561000000026,1.8667009999999986,30.07343200000001,2.084216999999998,0.6170279999999999,21.691390000000006,12.026212000000008,3.8023519999999986,16.36737600000001,13.940891000000002,-13.869165,-3.4152840000000007,0.5577839999999992,0.7009590000000008,2.9164880000000024,-2.095503000000002,-15.504139000000015,16.603497000000004,-8.336148000000005,10.076433999999995,-5.722980999999997,-16.180847000000018,2.1997320000000005,13.08898499999999,9.950778999999997,15.864233000000006,-17.232019999999988,-11.490257000000005,-11.829994999999991,-15.717779000000007,8.491561,8.932859000000004,-16.246516999999994,-9.077009000000006,-0.8618890000000001,19.984589,0.27016900000000016,-10.308491,-28.084099,-11.865401,37.76438300000001
P39086,-66.22447899999999,-3.0574720000000024,-3.5448640000000005,-66.48784700000004,4.342209000000003,-14.823967000000007,24.86999500000001,-17.742636999999995,-16.45806499999998,48.15409200000005,-11.639567999999985,-8.505701,-8.641858999999998,16.437617999999986,-8.753769000000013,6.908652000000003,21.807580000000005,-26.28930200000003,-12.081104000000003,-17.085040000000017,-5.541483000000013,-26.468298999999984,-41.11178499999999,1.6934469999999997,-13.207932999999999,-2.0046470000000003,-9.082180999999995,-10.579010999999992,2.3822099999999984,-22.991851,-12.814507999999996,-43.36367600000006,20.017349999999993,-19.784430999999998,16.483499000000002,19.15618199999998,-35.63134100000003,-0.6930979999999999,9.21383400000001,-17.471220999999993,11.241644999999991,9.714600000000003,14.684860999999996,-8.087571000000004,-4.893549999999999,8.659020999999992,-27.326498999999984,-10.722283999999986,-7.907392000000003,26.006773,-35.147426000000024,-18.43286899999998,32.87350799999999,-57.45255399999996,11.929610000000002,-48.08165299999995,4.646099000000005,-7.591433000000001,-15.642772000000008,-47.604773,-4.998353999999998,60.431717,2.2598959999999995,0.31202499999999855,44.915710000000054,23.215999999999976,-3.3289140000000033,35.02848700000003,26.030271000000003,-23.96530700000001,-6.7235399999999945,0.875794,3.8018329999999994,7.517652000000001,5.396368999999997,-31.801658999999987,20.985725999999985,-16.985161000000016,12.668628000000007,-26.503309000000037,-37.60765800000001,1.732893999999999,18.116118000000014,15.983321999999983,35.458832,-25.363560000000007,-22.949868000000016,-21.979078000000023,-39.39280799999999,7.877687000000002,13.622840999999989,-28.610562000000005,-22.185277999999975,-5.526473000000001,23.81549099999996,-3.699750000000001,-20.62686800000001,-49.530911,-13.587839000000013,74.73455000000006
P56373,-26.310088999999977,3.634423999999996,-0.7930820000000001,-27.821977000000008,1.631301000000002,-3.093525,10.881508000000016,-16.053578,-10.136168999999995,24.401530000000022,-1.4922099999999994,-3.411424,-0.6470659999999994,4.096234000000002,-1.0297030000000003,0.8040929999999985,6.238862999999998,-14.340009000000018,-4.403095999999995,-13.941325000000004,0.512347999999999,-15.553774000000011,-25.30934200000002,4.074473999999998,-5.296472999999999,4.102841000000003,-13.954500000000008,-1.7098509999999976,1.0101040000000017,-9.363662999999995,-4.8383280000000015,-21.581798000000017,9.628305000000001,-5.161570999999998,5.648508999999999,9.273973000000005,-12.212284000000002,0.41677899999999846,5.561687,-11.191707000000006,6.788211999999995,8.797943999999994,5.1256729999999955,-1.0991229999999987,-2.588377000000001,4.900308999999994,-7.6787469999999995,-3.0360410000000018,-4.668000000000004,10.885015999999995,-9.813732999999994,-10.038079,14.672109999999996,-22.75937899999999,10.588224000000002,-21.669466000000007,8.084617999999999,-6.190853000000003,-5.357923,-21.935809000000006,-0.7213269999999987,26.202368999999976,1.6518279999999983,-3.2713040000000015,24.102309999999992,13.576655999999987,-7.514843999999998,16.227250000000005,5.986111000000002,-13.451989000000019,-1.079379,-0.9466769999999997,3.058562000000001,3.7378750000000034,-0.634742000000001,-17.52529699999998,11.174478999999998,-8.580421000000005,5.382558000000006,-8.510163,-13.470226000000006,-0.8740460000000014,1.838905,3.339206000000003,14.354178999999988,-8.657851999999998,-10.473599,-7.749105000000002,-13.272263000000002,6.725222000000005,2.1431959999999997,-11.796808000000006,-4.670104999999998,-1.9916120000000015,9.370335000000004,1.2632190000000016,-10.883624,-23.865159999999996,-4.086585000000003,29.554515999999992
Q9UI33,-111.28175000000016,-3.9730970000000005,-36.933941,-144.24172400000037,5.02855100000001,-20.30688400000005,57.64320900000007,-39.06555799999995,-54.66950000000003,72.85442099999986,-24.415404999999996,10.75894199999999,-15.413052000000011,22.527833999999995,-16.01113599999999,9.90009200000005,39.518314000000025,-56.54950099999989,-12.666401000000006,-37.60594500000012,-1.8445819999999982,-40.12121999999997,-73.7847499999999,-0.8634969999999985,-36.78442799999998,5.409208999999994,-36.989544,-33.21080599999999,22.055700999999996,-51.02530199999984,-13.496089999999995,-88.61446799999997,15.438028999999997,-29.082318999999988,39.07879900000002,49.46113599999998,-77.94859699999994,7.338820999999999,9.568964000000003,-43.54972399999994,30.196323000000003,7.435782000000012,29.68613700000002,-21.24281400000001,-21.39612600000003,20.096236000000008,-33.149118000000016,-6.129357000000016,15.451967000000014,46.71310899999994,-54.287220999999995,-33.192724999999975,65.21369400000002,-119.93975999999998,22.395600000000027,-105.93338400000013,14.129038000000001,-32.13165999999999,-29.095016000000022,-102.40968099999996,-20.695938999999967,132.92409700000005,12.370512000000017,-10.490556000000014,101.88283600000022,40.00544100000001,-3.340390999999999,52.878757000000036,52.833144999999895,-51.49116500000001,-16.67000400000002,11.079504000000014,20.038482999999985,0.6266239999999998,17.867123999999983,-58.28594699999994,53.61407400000003,-21.969587999999984,25.380039999999994,-28.436016000000073,-69.86240599999991,-0.6771960000000032,34.490028999999964,24.24301600000006,61.654615999999976,-57.430083999999965,-41.849536000000086,-52.83596099999997,-54.54487200000004,29.731531999999998,33.907908000000006,-41.217867,-42.722516000000034,-29.89783100000005,50.28160599999998,-6.835867999999995,-49.37036399999999,-98.14487600000012,-37.91926399999999,164.87475099999978
Q8NCM2,-69.3412339999999,-11.876648000000003,-14.501442999999991,-70.03214599999995,5.102046999999997,-14.709595999999994,26.102070000000015,-22.72315,-20.489514000000014,53.81712700000002,-17.613111999999965,2.842356000000004,-3.356624000000005,17.48902499999998,-4.101300000000005,8.519205000000003,25.531064999999998,-34.83822099999997,-10.980545999999995,-27.915312999999994,-1.124569000000006,-30.733646000000025,-42.29224500000001,-1.2211900000000009,-13.312021999999995,2.222167,-16.243097000000027,-9.412684000000008,2.5760850000000066,-24.990526000000028,-10.199808,-50.87180199999994,3.301729999999996,-15.125603000000018,8.020194999999989,18.78872100000001,-22.609858000000006,6.543812000000006,8.419877000000005,-16.927339000000046,17.335518,10.809707000000001,16.11206400000002,-3.7969169999999988,-6.270837000000003,9.769054000000002,-22.672548999999993,-6.837355999999994,-0.34325999999999934,30.74566399999997,-29.48154899999999,-19.70960999999998,37.60609499999996,-59.37131599999994,18.944508000000027,-47.75171800000002,10.377707000000001,-8.408409999999993,-19.015720999999992,-55.15182200000002,7.8630220000000035,64.04764799999995,6.153384999999993,1.9892460000000012,50.280393000000096,30.608906,2.0328019999999993,33.859747,28.264347000000047,-28.611520000000006,-8.459935,3.2178250000000035,7.9990739999999905,11.537643000000005,13.18325599999999,-33.60932199999993,29.820710000000016,-12.36803799999999,9.73119,-24.897787,-35.71115600000001,-1.2779319999999987,14.743733000000015,4.937412000000001,33.33695600000001,-34.72243300000001,-30.303670000000043,-23.34769900000003,-43.33014499999995,21.767704999999967,14.458455000000017,-17.426744000000006,-20.182254,-6.4534530000000006,36.58002399999997,0.9864300000000006,-21.492789999999996,-52.79566299999995,-11.402980000000017,77.58427399999998
Q06432,-16.420277000000002,2.8688690000000014,-3.3804629999999998,-19.284037000000005,1.7488500000000011,-4.540492999999999,7.045518,-6.577901999999998,-6.742600999999999,10.811743,-2.3098810000000003,0.5905600000000001,-1.4949200000000005,2.013745000000001,-1.5964380000000002,1.5796010000000016,3.3550619999999984,-2.2824710000000015,0.6505829999999995,-3.9691790000000005,0.6905170000000006,-5.0299619999999985,-8.384593,4.7729380000000035,-2.3891269999999976,-1.0608279999999997,-3.321869000000001,-1.1059320000000001,2.9230969999999985,-4.491054999999999,-0.053017999999999905,-12.308264,4.613651999999997,0.09361299999999967,8.533277,2.343401000000001,-12.094948000000006,1.4223889999999992,5.226075000000001,-12.559849000000002,5.918046,0.03381099999999984,3.567214000000001,-3.239063999999999,0.9657479999999998,4.007163,-4.093241000000002,1.8477439999999998,-2.2068839999999996,4.29403,-10.655287999999997,-5.110930000000003,2.9661720000000016,-15.489284999999997,2.541729000000001,-13.751779000000004,0.7735250000000012,-5.296967000000006,-6.890075000000003,-9.516701999999999,1.3509329999999993,19.021283000000004,-1.17173,1.8863349999999999,12.208365999999998,8.284529,-0.5907259999999998,4.1443590000000015,6.13952,-2.6406810000000007,-7.5542440000000015,1.5915650000000001,4.839008000000003,-0.7614269999999994,-5.182561000000001,-5.735368,3.6341190000000005,-6.665530999999999,3.2309790000000005,-0.3116199999999999,-8.037153999999997,0.2987000000000001,4.861636999999998,5.732675000000001,4.500560999999999,-4.871552,-4.740971999999995,-0.9199399999999993,-0.6285520000000006,2.265425999999999,6.088262999999995,-9.356735999999998,-7.105447000000002,-3.9386899999999976,3.143407000000001,2.2971419999999982,-7.931925000000006,-12.337771,-10.266110999999999,23.781829999999985
Q13003,-69.11449099999999,0.5707340000000012,-0.8307980000000015,-62.75366999999995,0.16358,-11.879672999999986,25.37888399999998,-12.641539999999997,-19.438268999999963,55.44838899999992,-10.713155,-8.53017700000001,-6.835729000000013,12.77215400000001,-4.404043999999995,2.3864309999999986,18.309721000000014,-23.90581299999998,-3.735540999999999,-15.571605999999996,-2.1793679999999997,-30.353341999999987,-34.92790100000001,-1.8306370000000014,-9.609556000000019,-5.422577000000009,-11.388340000000012,-11.491192999999992,-2.671201,-15.605342000000011,-5.345488,-45.64371600000001,15.312601999999991,-17.372149999999994,14.68689599999999,17.938526000000007,-38.70500999999997,1.0197679999999991,12.955956999999982,-16.204340000000013,9.409703000000002,4.053150000000001,15.470008999999992,-8.979347000000008,-1.2244399999999998,12.006310999999977,-30.04370299999997,-3.5628900000000034,-12.943072000000004,20.080322999999993,-29.49831299999996,-26.65559200000001,33.875797999999975,-59.27599499999997,22.179370999999986,-47.286778999999996,5.592517000000003,-1.8182149999999986,-17.50624700000001,-47.69953700000005,3.7839569999999956,62.901485000000015,2.205121999999998,13.42775800000002,36.55186300000002,21.019548999999994,-3.7795410000000036,36.23529800000003,29.14280900000002,-21.197464000000046,-12.320881000000009,-0.9695969999999978,2.2970189999999984,9.435841000000009,0.29936900000000444,-31.579475999999993,22.504237999999987,-20.214183000000002,13.667713999999986,-22.40158199999999,-28.122865999999995,3.533000000000005,21.246836000000034,12.024151999999985,33.752637000000014,-24.598378999999955,-26.802249000000007,-14.239239999999993,-35.04103099999998,10.985937000000012,14.851714999999986,-29.180685,-19.675520000000038,-6.13318699999999,24.535988999999983,-0.09580399999999997,-17.169757,-45.23268700000004,-23.284183000000006,75.704867
Q16478,-77.20131300000008,-15.743681000000015,-9.570200000000009,-69.58269899999986,-4.695426999999998,-15.582470999999977,24.31535,-9.561219999999988,-24.396649,67.29192899999994,-20.13581099999997,-12.00778900000001,3.8731959999999988,24.32282200000003,-0.26093,0.31152599999999603,12.010166999999996,-29.195106000000013,4.343631999999994,-0.8140239999999985,-5.5049630000000045,-35.650624999999984,-36.338712000000015,5.145196000000005,-5.226662999999995,-13.08636200000001,-10.983659999999979,-1.4256149999999972,-5.124311000000002,-15.683038000000002,-4.314079999999996,-53.58933400000012,-1.333690000000002,-21.95230100000001,22.119525999999997,12.850408999999978,-42.257725000000036,-4.101559000000001,26.810778000000024,-13.329650999999991,15.079266999999993,15.437518999999995,18.039396000000007,-6.299624000000008,-4.29194600000001,6.112451000000002,-24.64050099999998,0.7443350000000009,-19.324479999999962,21.30280200000001,-31.434068000000003,-29.542553999999985,18.671466,-50.52203099999999,20.006066999999994,-42.40196800000003,0.749536999999996,3.073148000000003,-17.607778000000003,-50.10275900000002,22.234308999999993,72.199456,-5.83796,20.358233999999992,34.949085,20.713688999999995,-2.2895800000000035,24.180000000000017,39.522492000000085,-6.782561000000006,-30.262330000000027,-2.9866679999999963,4.852166999999997,8.588495000000007,-15.871098000000005,-20.03906500000001,21.475893000000035,-32.700240000000015,21.975346999999967,-13.72528100000001,-30.80102899999998,-5.362016000000001,26.784248000000023,5.926502000000008,37.05452999999997,-30.270988000000003,-31.48127399999999,-10.803683000000007,-22.13899699999997,17.02431600000001,19.172007,-31.415045999999975,-31.04084899999998,10.192707000000016,34.97595300000001,6.005700999999995,-17.372215000000015,-57.64533300000003,-25.55436199999998,72.9887540000001
Q13002,-68.21548800000008,-2.1941990000000002,1.587176999999999,-65.63374900000012,-3.4571209999999994,-16.378602,24.435221999999985,-16.520824000000005,-15.025381000000007,48.153882999999944,-12.860679,-5.790833000000002,-9.666334000000013,16.894474999999986,-8.057033,5.452154,22.541371000000012,-22.024526000000016,-10.023346999999987,-18.537171000000008,-3.3500390000000095,-26.056473999999977,-37.32878499999998,-3.732040999999999,-10.742391000000003,0.3970000000000006,-7.126435999999997,-8.91091499999999,-1.7747000000000006,-19.514120000000005,-3.2661500000000103,-39.71471399999996,14.299747999999987,-15.773851000000002,15.206231999999988,19.546391,-34.198494000000004,2.241946999999999,8.466531000000005,-18.711125000000024,11.717169999999989,8.529053000000006,15.691243000000005,-9.300439999999996,-2.717414000000003,7.981777999999997,-25.902587999999977,-2.6294020000000025,-8.713080000000001,20.01445,-30.448188000000037,-22.42635699999998,35.84292699999999,-59.12873100000002,19.531632000000002,-50.07779800000005,4.129249000000001,-5.184657999999996,-14.631129000000012,-48.95088300000004,-1.7733420000000018,59.70962299999994,1.7125060000000016,4.715723000000004,43.72350700000006,21.820459999999986,-5.247202000000003,34.83244099999995,26.10376800000002,-22.83164400000002,-3.9702780000000004,1.3958229999999996,3.7114080000000014,11.073372999999984,7.062948999999995,-30.730923999999963,22.310498999999975,-17.34740499999999,10.945186999999999,-23.96765500000006,-30.223973000000015,-0.8190380000000003,18.841426999999996,11.670981999999993,34.699383999999974,-25.433410999999975,-28.167577,-21.134088,-36.66023499999997,10.948523000000009,17.044791999999998,-27.64715299999997,-16.267366000000028,-7.919163999999994,25.308531999999964,1.2884570000000006,-23.936848000000033,-49.91628100000003,-15.728118000000002,73.12731100000005
P23415,-32.348351000000015,-4.116485000000001,-6.441700999999998,-37.52043899999999,2.064473000000001,-4.377172,14.966516999999989,-11.00320300000001,-8.878618000000001,24.498346000000026,-1.470654999999998,0.4973760000000004,-5.91415899999999,4.206730000000001,-4.320509,5.283244000000001,14.817269999999994,-14.144733000000002,-0.5591800000000064,-7.959923,-2.8978130000000006,-8.45204599999999,-15.125157,0.5586480000000023,-7.749896999999993,-2.204378999999996,-5.081462,-4.788122000000004,-0.33700799999999953,-8.193254999999997,-6.155617999999997,-20.259563000000018,7.665059999999993,-6.997351,7.870926,10.660395000000007,-17.27870500000002,-0.0453119999999991,1.6362730000000003,-6.647368999999998,7.7059000000000095,2.0426629999999983,12.963639000000002,0.5706469999999993,-3.401144999999998,5.011746999999998,-10.57093,3.4912019999999995,0.4382940000000004,11.317456000000005,-13.237837,-13.548766000000015,15.91166700000001,-29.407367999999995,8.380303,-26.655042999999985,2.6648669999999997,-3.764688000000001,-10.442777999999997,-22.777852999999993,-0.6658719999999998,30.785824000000005,7.577766000000003,1.7914509999999995,20.048947999999985,7.969260999999996,-3.4669339999999984,12.191232000000001,16.903634999999998,-11.455727,-2.8692740000000003,-1.4238939999999998,2.3344739999999997,1.047742000000001,-2.4789009999999996,-16.287441000000005,11.502891000000009,-12.966922000000004,3.744092999999998,-13.592765000000004,-20.361517999999993,-0.05871999999999955,12.368088,2.291531000000002,11.063200000000002,-16.803662999999993,-10.585564000000002,-10.567631,-15.584101999999987,4.354672000000001,7.214061999999997,-13.556885000000007,-10.238434999999996,-1.7061560000000011,15.701712999999978,-3.0293309999999978,-9.450956999999994,-27.488419999999987,-9.047626000000001,36.34832300000001
P35498,-145.69240400000027,-11.236291000000008,-17.135390000000026,-165.44575899999995,10.390532999999989,-26.539993999999986,65.65197000000002,-39.55548599999995,-54.1399740000001,93.61635399999987,-27.447517000000023,0.13877999999999596,-12.913053999999995,19.703820999999987,-21.608192999999968,5.206876999999991,51.354524000000076,-57.50657400000009,-17.56644700000002,-45.97183200000003,4.047317000000003,-42.23359200000002,-88.60618999999998,-1.9534059999999986,-44.37961899999999,7.8669600000000015,-21.056527999999922,-28.711594999999996,11.599929000000007,-60.3236760000001,-13.471920999999993,-91.90723999999999,28.092460000000003,-28.535367000000058,42.62590799999996,59.95133599999999,-81.62445100000026,9.642938999999986,20.334697000000002,-52.37774899999999,37.4058329999999,19.962224999999965,32.53265800000002,-7.626761000000002,-21.919722999999976,21.721443999999966,-33.65681199999992,-8.227991000000014,9.39957500000001,60.19928800000007,-55.88738800000005,-43.808889000000036,76.50134399999997,-129.10704400000003,23.91998200000006,-103.70069200000006,16.988345000000027,-16.527182999999972,-29.965253000000008,-117.90230399999984,-5.910201999999993,138.39060599999976,2.9490250000000033,-1.9908280000000147,104.21699199999986,40.270030000000084,-9.50338500000001,74.94790599999997,57.754601000000086,-47.88294499999995,-2.803318000000004,16.82133799999999,14.732921000000024,7.34986400000004,11.570223999999994,-58.431883999999975,67.55102600000001,-16.45610899999999,26.830313999999998,-50.256304000000036,-74.81878199999994,-6.107696999999985,34.25114600000001,15.924153000000013,72.02520500000001,-58.45848499999995,-51.96701299999998,-58.25267799999994,-71.02542999999993,31.891276000000076,32.40412899999999,-59.161482999999954,-52.35329000000002,-24.96304100000001,50.227939000000056,-3.1950789999999993,-48.89748599999997,-109.85694100000015,-35.76196399999994,169.3209759999997
