0,1,2,3,4,5,6,7,8,9,10,11,12,13,14,15,16,17,18,19,20,21,22,23,24,25,26,27,28,29,30,31,32,33,34,35,36,37,38,39,40,41,42,43,44,45,46,47,48,49,50,51,52,53,54,55,56,57,58,59,60,61,62,63,64,65,66,67,68,69,70,71,72,73,74,75,76,77,78,79,80,81,82,83,84,85,86,87,88,89,90,91,92,93,94,95,96,97,98,99,100
Q15139,-64.20562299999997,-8.196663999999988,-9.773469999999996,-63.138904000000025,1.505717999999999,-13.30879899999999,23.888070999999997,-12.080147999999982,-17.92878000000001,55.60206099999999,-8.438985999999995,-9.694337000000013,-3.610918,12.712213999999989,-6.636728000000002,4.229949999999997,20.30506300000002,-30.644943000000012,-10.261022999999994,-9.960262999999989,-1.9667389999999993,-33.75823299999999,-37.936569000000034,9.046372999999999,-9.370188,2.850219000000002,-25.489380000000008,-2.0300160000000003,0.25548399999999793,-17.84420300000002,-3.298630000000001,-41.13497300000004,3.3708710000000015,-18.873456000000026,13.441960999999997,15.699020000000012,-23.536321999999977,1.6877929999999999,9.564252000000016,-8.45723300000001,15.649370000000003,7.145123000000001,13.909633999999997,-7.193911999999997,0.7049629999999991,6.414594999999994,-24.661482999999986,1.7940079999999974,-14.459694000000004,25.85409900000001,-28.41046000000002,-26.59787600000003,25.531133999999955,-51.740675,17.298635000000015,-42.70877999999999,17.556718999999998,-12.100044,-11.035196999999997,-47.596046000000044,24.560485000000003,70.40560899999991,1.9270020000000008,3.0717710000000062,43.5875220000001,23.726958000000014,4.479374999999998,23.27691400000003,34.11549699999999,-15.066741000000004,-16.379970999999983,0.7090259999999979,7.009731000000007,18.588711000000004,-5.850351000000007,-23.467873000000004,19.15619799999999,-26.559544000000017,12.01254599999999,-22.110540999999998,-24.001138000000026,-8.728575,10.195448999999993,5.063793000000004,31.147781000000005,-22.714128,-33.68911699999999,-22.606202000000028,-30.783939000000018,26.88916400000001,11.708455,-13.67465400000002,-23.081981000000024,8.989500999999995,28.48781,11.38282000000001,-10.61420700000001,-64.87568799999998,-15.835207999999978,74.03744600000006
P57058,-52.51332099999997,-8.343369000000004,-12.337399000000007,-56.75980300000005,-4.407005999999997,-11.996793999999989,17.102432,-12.754659000000007,-9.79407400000001,43.83235799999997,-10.687741000000003,-2.4035699999999998,1.7604450000000003,19.405374000000016,-4.5200980000000035,1.5996340000000007,14.958350000000008,-21.88528100000001,-1.2103409999999997,-9.552551999999991,-2.9793039999999973,-22.20790200000001,-27.739300999999994,7.203437000000001,-4.987702000000003,0.06084200000000019,-11.482419999999994,-4.338193999999998,-2.850863000000003,-4.809167999999997,-0.34164999999999546,-34.919138999999994,-1.0711909999999996,-9.072049,7.423210000000003,5.365942999999997,-16.311518,-2.4790369999999986,8.338316000000003,2.6034849999999916,9.489594000000007,12.617378000000002,19.34581800000001,-1.420735000000001,-6.454896999999999,-3.9101169999999983,-16.98208899999999,-0.963624,-13.939546,27.39764300000001,-19.72267000000003,-20.70816000000001,20.195213000000024,-41.732978,16.49644899999998,-31.076898999999983,3.7575779999999965,-3.442376000000001,-17.519336000000028,-39.00432899999996,21.718403000000016,47.604400999999974,8.820595999999995,7.8297539999999985,28.76151699999996,17.86659999999998,1.3729859999999994,8.65466300000001,36.60447099999996,-5.6104419999999955,-10.492578000000009,-1.883455000000002,-0.32596500000000056,12.348062999999998,-3.5920100000000006,-18.997338000000017,10.555672999999974,-17.15096799999999,6.263279999999998,-17.633705000000038,-32.82738800000003,-8.162600000000001,15.016947999999998,-7.742995000000003,20.217200999999992,-26.149020999999994,-23.112025000000024,-20.182692999999986,-18.313727999999973,17.662261000000026,10.616067000000005,-15.932993999999997,-16.69817600000001,10.062009000000005,27.378924000000026,4.721930000000002,-9.972218,-46.75473699999998,-10.100996000000016,56.461674000000045
P07332,-58.203749000000016,-17.517135999999997,-9.015816000000013,-50.83626399999995,-10.85282200000001,-4.357536999999997,16.200164999999984,5.709421999999999,-24.61105099999998,62.40579299999995,-17.80398500000002,-1.9951909999999977,-5.6426289999999915,24.275570000000013,-1.416369999999999,9.518863,16.298633999999996,-29.743903000000007,-0.5892009999999961,-7.137492999999998,-14.583958,-22.000519000000008,-19.914577999999988,-4.494257000000005,-16.54496600000001,-16.19766499999997,-6.0196430000000065,-10.389564,-1.1859520000000003,-19.945971000000025,7.885598000000004,-60.354282000000005,-21.147215,-13.564086000000012,8.870612999999997,7.620245999999998,-17.995272000000014,-5.085096,12.499334999999993,13.22752499999999,5.545422000000011,7.9871289999999915,26.97947800000001,-13.572810999999998,8.932855999999989,5.157772999999991,-21.35997299999998,8.299755000000005,-18.020220999999985,24.46068000000002,-21.26366500000006,-17.927719000000007,12.516291000000004,-45.06668800000003,19.127682000000007,-31.74838299999996,3.1903010000000016,5.043664000000007,-16.900270999999986,-49.79882499999996,21.827016,68.330065,8.710389999999999,17.820825000000003,31.285731999999978,14.478323000000001,9.35423599999999,5.195023000000002,34.84874600000003,0.5246889999999994,-19.811849999999993,14.720513000000023,3.9502949999999966,10.181518000000015,2.2166540000000023,-24.427883999999974,26.36189,-18.850872000000003,-0.8672080000000009,-23.04342700000001,-28.660528999999965,-4.1282619999999985,26.295677000000037,0.5915019999999992,25.59456600000001,-27.73043900000006,-41.29782699999998,-17.101839000000012,-33.30375200000003,30.726578999999973,26.751533000000016,-14.558669,-4.262935000000001,2.4981819999999977,44.97670399999996,12.378198000000001,-19.550417,-32.180088000000026,-20.49286400000001,50.03762600000003
Q15303,-74.3984769999999,-2.518581000000003,-25.879967999999977,-88.33048999999995,11.079100999999996,-6.238870999999997,22.654683000000023,-26.431768000000023,-47.48179199999997,76.56132699999996,2.477311000000009,-7.505753999999994,-5.204169,21.702983000000014,-8.640156000000003,13.375175000000024,29.469867,-41.08172199999994,-4.618494000000009,-24.658649999999962,8.698397999999992,-37.44705600000004,-64.56048399999995,12.882883999999978,-7.405923999999993,3.1076690000000133,-43.90224299999996,-11.795780999999996,-5.404807000000009,-8.807136999999999,-0.12262800000000343,-81.55915900000015,21.149602999999964,-20.783928000000028,33.81274299999997,17.307230999999963,-38.39928599999997,6.497772999999999,19.08511500000002,-27.825430000000022,14.887830999999995,27.134603000000023,22.892155999999993,-26.598652000000012,-4.128511000000002,10.197277999999994,-52.55633899999998,-2.9217300000000006,-28.667219000000017,37.246819000000045,-41.56884500000005,-45.46718900000003,38.066017999999964,-73.22682300000014,32.89840800000005,-73.51405300000012,18.013393000000004,-20.222336999999957,-30.62224100000001,-78.95607699999994,20.52678500000002,97.15519299999997,12.939144999999993,-9.280527999999997,67.36608799999989,37.96459299999997,-18.14502299999997,30.885355999999987,49.57044399999997,-20.088094999999996,-27.275426999999997,-2.7877570000000023,15.049396000000016,26.69698300000001,-10.054517000000002,-49.16766999999991,31.338724999999947,-39.40084599999997,14.071402999999986,-24.826363000000036,-35.87973599999998,-0.4400250000000001,22.443724999999976,4.094502000000008,24.83504599999997,-37.86577899999998,-37.57252499999992,-29.942999999999984,-32.487429000000006,40.89011499999997,-11.57942400000002,-13.532787000000015,-40.42828799999999,6.290334999999999,54.704242999999984,26.01618300000002,-19.848041000000006,-85.87773699999995,-25.63261400000003,112.87901399999994
Q32MK0,-68.65758400000009,-10.255045000000004,-4.303236000000002,-57.796051999999996,-16.17103400000001,-8.73121199999999,19.17650700000001,-7.423168,-14.931015000000011,71.10454199999998,-5.047641,-26.148996999999948,0.7851590000000007,18.182657999999993,7.839986000000003,-1.7525889999999995,3.4952030000000014,-27.643895000000025,9.175877999999999,4.312954000000002,-4.995488999999998,-27.744720000000015,-22.88462100000001,4.260120000000001,-5.585723,-4.972870000000001,-18.856091000000006,-2.2168719999999977,-12.714504999999967,-8.407330999999997,2.006789999999995,-48.998358000000046,-11.850422000000009,-15.099460999999998,5.5419499999999955,6.349739000000003,-12.807736999999982,-14.314415999999996,23.877307999999996,8.386185,12.284316999999994,16.937996999999992,19.621140999999973,-10.427094999999998,-10.42201800000001,-6.73371500000001,-19.09586200000001,5.611106000000003,-30.665989000000014,19.539156000000016,-3.9020450000000015,-31.676425000000027,13.019771000000008,-52.01210899999999,29.452788,-36.27585499999999,1.9494500000000021,8.177125999999985,-8.239306,-43.346944000000036,37.53728600000006,67.01137199999997,-8.74367900000001,22.490177999999982,16.24201799999998,29.786846000000015,1.8455860000000026,5.491755999999995,36.392355999999985,-5.401785999999998,-23.345427999999995,2.724538999999998,2.936151999999995,24.714538999999984,-27.62213300000001,-16.105926000000004,16.708153999999972,-25.10440400000002,-0.498013,-15.390035000000001,-22.778248000000026,-9.248903999999996,8.607292999999999,-9.949963000000006,24.650274000000024,-22.772864000000006,-28.908347000000056,-1.789475000000001,-24.62212700000002,12.93789600000002,14.743507000000017,-31.72521400000002,-14.90996900000002,21.819144999999956,41.52338199999999,16.437893000000006,-9.767450000000007,-44.02732099999996,-15.848484000000004,54.602383
Q9Y2I7,-135.62864000000016,-36.98922200000003,-39.77611699999995,-148.21917400000027,-8.814452999999993,-36.61197600000003,49.18211800000005,-42.490541000000015,-37.05086400000005,129.38067099999992,-33.02716399999997,12.770774000000014,1.7715450000000006,43.545564999999954,-6.472412000000006,13.936482000000039,64.65189900000011,-62.62298500000003,-41.10815099999994,-42.18815400000004,-15.539216999999999,-57.98416800000008,-89.2530909999999,22.84105999999995,-31.462036999999984,-5.574510000000007,-42.024695000000015,-21.76827700000001,-1.423764000000003,-45.378251999999875,4.526680999999991,-111.37373099999986,-28.469135999999967,-36.51951399999998,36.39160800000007,38.500571000000036,-52.48712200000004,8.947436,26.046491000000024,-22.82874000000004,35.45281500000002,40.29935600000001,42.86921800000007,-20.35678399999998,-0.3648040000000077,13.61482899999996,-54.85745400000003,5.204897000000002,-27.658598999999956,68.44750599999998,-52.354374999999955,-35.18916700000001,51.36738099999992,-117.98675999999992,34.700676999999935,-92.12468000000001,38.89181999999996,-20.695898000000053,-42.52288300000006,-125.85683200000003,46.8485379999999,144.81288099999986,16.881973000000013,10.538180000000024,108.44693399999974,50.437020000000075,5.794533999999997,41.44337400000002,82.36601299999985,-26.398950999999983,-18.61518699999997,-7.236784000000009,-9.123299999999983,32.62670899999999,-4.8328359999999995,-66.98553400000002,64.51284300000003,-52.563841000000075,16.87398800000002,-49.10323799999998,-98.53145800000019,-24.671328000000084,38.66402499999999,1.7606670000000018,69.56419399999994,-64.721518,-55.4152839999998,-81.00073600000007,-82.49066300000005,77.82442899999992,42.77312000000009,-21.429841000000007,-35.678538000000025,8.903680000000001,87.39506300000001,20.558848999999984,-33.08757300000001,-148.121853,-43.39799899999989,138.7055249999998
O14757,-31.302414999999986,-2.0127010000000007,-1.9650950000000003,-33.819516,4.149222999999999,-5.377497000000003,16.255629000000003,-7.879319000000006,-11.902474999999999,24.10102199999999,-3.5593730000000012,-3.861997,-4.0611900000000025,7.819967999999997,-3.919944999999999,3.7372889999999974,16.803131999999998,-19.645310000000013,-6.725402000000004,-10.650737999999997,3.775815000000001,-9.42589100000001,-19.459439999999972,1.770966999999999,-6.324728,2.1284470000000013,-7.8272529999999945,-7.460804999999999,-1.5645879999999994,-7.9041609999999975,-3.7315170000000037,-26.56687199999999,4.009725000000003,-7.592463000000003,12.173220999999986,7.333329000000008,-8.193394999999999,2.508528999999998,3.1752139999999986,-3.7010680000000042,5.0324269999999975,4.524557000000004,8.966325000000005,-6.448235000000008,2.3549000000000015,7.563924999999996,-10.015512000000014,-4.181731000000002,-4.374402000000002,12.971337000000021,-12.315298000000002,-9.232985999999999,18.234673999999988,-29.36146800000001,14.283998999999994,-23.42494099999998,3.4518890000000013,-5.053134999999998,-5.209066999999999,-33.93610000000002,10.938778000000006,31.535356999999987,6.548103999999999,1.1857120000000012,24.55840799999999,13.018897000000006,1.9656059999999989,14.38155,15.782072999999983,-14.299223999999997,-3.5607610000000007,-1.2984419999999999,-0.04291099999999995,8.842944000000001,3.7663779999999996,-15.621516999999981,13.232687000000004,-7.867488999999995,-1.5729680000000021,-11.930507999999989,-19.148098,-1.2987699999999993,6.410196999999996,0.7421700000000009,18.095555999999995,-11.938995999999992,-15.122320999999992,-14.379072000000011,-14.388321,16.241330999999995,0.16430100000000009,-6.289648000000003,-9.117999000000003,-3.1226609999999986,14.814365000000002,2.176167000000001,-8.927112999999997,-33.65008999999999,-4.167364000000001,35.928757000000026
P20594,-81.401764,-10.454328000000013,4.288449000000004,-68.08285499999995,-7.349406999999969,-0.41347299999999915,26.860406999999935,-10.784691000000002,-13.769571999999997,73.84683699999997,-17.12038100000001,-13.428549999999989,-12.051659000000006,21.634567,0.09617099999999898,3.4622479999999998,15.085999999999995,-33.99728200000005,5.558927999999984,-10.196576999999992,-11.659661999999996,-43.306417999999915,-35.20998700000002,0.3661150000000018,-11.499168999999995,-11.927157999999997,-13.064482000000016,-6.801579000000004,-6.081801999999997,-14.87262399999999,-2.3507990000000016,-62.182065000000016,3.985731999999999,-17.08741500000002,23.653682000000014,15.895442999999997,-44.831317000000034,-5.536811,19.713882000000005,-4.6679669999999955,20.889200000000013,16.579591000000008,29.507196999999977,-11.51409,1.5523469999999995,5.788997999999997,-21.901824000000012,-0.5466269999999978,-20.989049999999995,19.902762000000042,-26.902185000000042,-33.93038699999995,26.540110000000016,-56.970516000000025,28.28,-52.306035999999956,10.588653000000003,8.502672000000004,-18.599939000000035,-57.92841899999999,18.626916000000012,77.6273490000001,-4.744197000000003,22.486668999999992,33.904856999999936,22.659000000000002,7.464226,29.54051999999999,32.195964000000025,-18.675651000000013,-25.623669999999986,-2.0802770000000015,-3.5303880000000043,7.043252000000004,-11.635911999999998,-28.111809000000004,22.981160999999997,-22.574388000000017,15.907966999999983,-17.478423999999997,-17.04628100000001,1.0637510000000028,30.46503899999997,12.023367999999978,28.596351,-31.950353000000003,-42.090072000000056,-2.7042419999999976,-32.67435099999997,18.933234999999986,22.702684999999974,-42.20191500000003,-30.707276000000004,10.840044999999998,38.204741000000034,7.741948000000008,-20.054281000000003,-44.53536200000003,-30.42566499999997,82.81302099999998
Q08345,-73.91306799999997,-13.498466999999986,-4.314487999999999,-67.774921,-10.606141,-1.5440380000000014,16.757521,-3.501490000000002,-17.97330099999999,65.36471100000013,-14.120098999999989,-17.218075000000006,-0.5353300000000014,21.607938999999988,4.185712000000006,-3.9207010000000033,10.498288999999996,-32.91891399999997,15.750678000000002,1.590810000000002,-2.674363000000001,-35.23892000000003,-25.894453,5.6327950000000016,-21.20483700000001,-24.673275999999998,-19.139938999999963,-3.563497999999995,-13.214790000000017,-5.474330999999996,12.674934999999993,-55.66227300000007,5.622846000000007,-21.645078,18.534346,10.466817,-42.04524200000003,-6.475412999999994,31.836113999999966,-3.1586630000000007,20.14387899999999,16.571505000000005,29.115226999999972,-8.440612999999997,-3.846906000000008,-1.163070000000002,-22.646335999999998,9.277058999999994,-27.513996,15.653397000000028,-20.253030999999986,-42.94252500000006,10.508492999999994,-58.53041999999995,18.990495000000042,-36.95794500000004,1.5153840000000007,-0.38751299999999983,-14.266260000000004,-34.81679900000006,35.31871799999998,80.3923539999999,-14.49304499999998,17.89266099999999,26.231794999999977,20.895072000000013,-8.476491000000001,9.746298,44.12134900000003,1.5838450000000002,-31.970590000000005,-4.509595000000005,-0.9621009999999989,15.932595000000015,-25.46485399999999,-25.42763300000001,8.340395000000006,-34.68545400000001,1.1687569999999996,-11.935844999999986,-21.95950500000002,-3.3377639999999955,36.513554000000056,7.650338000000003,23.204402999999992,-30.875841000000015,-26.631205,-0.7601050000000042,-6.418251000000003,11.304249999999987,13.125177999999993,-35.82075899999995,-33.706032000000036,23.715743,36.188334999999974,16.352536000000008,-16.490605,-56.12751599999996,-25.92855300000004,68.91388700000003
P29597,-92.75633199999992,-13.115054000000008,-17.913901,-75.8777759999999,-5.387197000000004,0.6448060000000017,25.556897999999993,-9.974966000000009,-23.996296999999995,87.95086699999993,-10.93687900000001,-21.510996999999982,-7.978202999999999,33.23839999999998,-5.313370000000004,-1.3484490000000062,23.56950800000001,-39.06484600000007,13.350626000000004,-4.699214999999987,-7.151464999999996,-47.72416,-40.01610600000007,7.454109999999994,-13.276017000000005,-16.651763,-26.90722199999999,-0.3972949999999976,-5.857267000000008,-13.656682000000004,4.697451999999995,-77.50439800000004,-8.65242000000002,-18.009342000000004,27.972788999999953,14.025936999999987,-42.61525800000002,0.24818200000000035,29.200427999999945,-5.772555000000002,16.850542999999977,9.947966999999991,32.19690499999998,-21.15510899999999,11.260584999999999,1.0839869999999985,-29.732670000000002,2.786786999999998,-32.74536800000004,23.967364999999997,-30.212272000000002,-36.72046799999998,14.100548999999999,-62.23382899999988,33.71784900000001,-57.603002999999966,5.970653000000002,-7.781664999999998,-33.38962800000005,-58.21634200000006,36.819921000000015,99.45774800000004,-4.860934999999997,16.613083999999958,36.650277000000024,32.038029,-1.8960199999999978,19.484903999999986,48.62386400000003,-12.412930999999999,-38.55489400000003,-0.2239280000000005,0.20441899999999982,14.346981000000008,-25.614694000000018,-38.195606000000005,27.912257000000004,-35.307924000000064,9.133736000000022,-19.483308999999974,-26.527697999999955,3.5480230000000037,34.93116399999996,12.299153999999998,24.652273999999995,-33.84196300000002,-38.66820199999999,-9.075066999999988,-26.82970199999999,37.067682999999974,23.93087600000003,-32.53487600000001,-27.832801000000014,21.23865600000001,50.774187999999995,18.54982599999998,-15.081857000000008,-66.15314199999997,-35.19631899999998,92.35988199999994
P49761,-46.931479999999986,-15.797856000000005,-11.235348000000005,-38.15387,2.2119550000000006,-11.053713999999994,15.443278999999993,-1.5609320000000018,-12.202067000000001,48.81124599999998,-10.07737,-5.889298000000003,10.166316000000009,14.170297999999995,3.9854780000000014,-1.380768999999997,15.866998000000006,-26.740624000000015,8.407059999999989,11.301465000000004,2.6466599999999985,-30.31970100000002,-21.050550999999977,8.511729000000017,-4.090471,-6.227713000000003,-1.9110719999999997,-1.151515999999998,-7.761234999999994,8.009552,3.989961000000002,-31.558447000000005,-7.180670999999998,-10.815857,18.707449,-8.764962,-26.270086999999986,0.9824290000000011,16.42369599999999,6.849772999999999,25.155628,12.612125999999993,11.735388000000011,-5.981545000000002,0.19792999999999927,-1.9427839999999996,-11.701033999999991,-0.5199309999999977,-14.30533800000002,23.800723999999988,-19.324904999999998,-19.15885999999999,2.0117969999999965,-32.39590299999997,27.350551000000024,-21.86833299999999,7.771447000000006,3.6978969999999975,-8.223608,-43.09266000000005,29.469024000000033,47.14373099999995,13.446815999999998,21.76037500000002,16.210313000000017,2.9213570000000004,-5.876789999999996,10.716080000000009,32.91780700000001,-6.087172999999997,-36.67460499999997,-1.367162000000002,-4.7786190000000035,4.786070999999998,-17.22871599999999,-18.352288000000012,15.488318999999999,-27.728802000000012,12.018089000000009,-11.914198999999998,-14.237170999999998,-1.5087479999999995,20.686330999999978,-4.4357429999999995,8.438855000000006,-18.245220999999972,-24.39424500000002,-13.345039000000009,-19.57722400000001,29.94673299999999,11.263864999999997,-3.4299910000000002,-22.576425000000008,6.333911,25.397375999999987,4.763672000000002,-4.004815999999995,-43.67512199999996,-19.719988,49.49238800000007
P53779,-30.55093700000001,-1.504989000000001,-2.0569269999999995,-38.65802599999998,0.34940400000000094,-6.705948000000003,10.740370999999998,-12.556897999999999,-10.345023999999999,31.054847999999982,-5.879028999999998,-5.705456999999997,-6.230570000000001,10.300892,-3.797128000000001,6.928396000000005,14.539627000000001,-16.181629,-3.893927000000003,-10.199042000000004,-5.557219000000001,-13.29038499999999,-19.69362899999999,-2.5293590000000012,-4.67681,1.0228110000000008,-8.471064,-2.097753000000001,-3.2578120000000017,-10.906421000000003,-3.7722550000000012,-20.840623000000008,2.319191,-10.892342000000001,10.189378000000001,9.262133999999998,-9.999908000000001,-1.086307000000001,1.6228930000000001,-7.712366000000001,2.753601999999997,5.028775999999996,6.3742839999999985,-0.5486100000000012,2.198208,5.090170999999996,-11.995411000000006,-5.174319999999995,-5.245879999999999,15.98041700000001,-10.824770000000019,-9.310662999999998,18.84899100000001,-23.285448999999993,7.661920000000007,-19.690143999999993,5.788063000000003,-6.005609999999999,-9.449181000000003,-27.59203200000001,5.978897,32.87437900000001,2.2216370000000003,-3.2278940000000005,19.648459999999996,11.928776999999991,-1.3899109999999992,14.15330900000001,16.55855799999999,-9.842367999999988,-0.06477399999999894,2.249582,3.740699999999997,5.208347999999997,-0.5924959999999998,-12.730383000000002,10.933212999999991,-9.636966000000005,1.613259,-16.593963,-16.84514199999999,-1.3690770000000014,3.946444,-0.3301620000000002,14.261130999999992,-13.819682999999996,-14.700509,-14.440136999999998,-16.667269000000005,15.774770999999994,0.608262000000001,-8.483358000000008,-5.942089000000004,-0.9478700000000015,17.214397000000027,1.8576049999999997,-9.400957999999996,-25.388148999999995,-6.787406999999999,35.817626
Q13976,-45.923484999999964,5.4488790000000105,3.798119000000004,-46.34599899999994,0.9032239999999996,-7.395397000000001,21.14178,-12.211323000000009,-13.027244999999994,42.84911499999996,-5.245517999999999,-4.601384,-1.232228,12.981557999999987,-13.178477999999995,7.381810000000002,18.916798999999997,-33.39131099999996,-1.9917169999999982,-11.195401999999996,1.5417700000000016,-17.40091100000002,-30.01208500000002,-3.0680239999999954,-3.832120999999998,8.858708000000004,-12.364159000000011,-7.433179999999995,-0.2921040000000001,-17.81418199999999,-9.313462999999993,-35.449336999999986,8.385732999999998,-7.089678999999998,6.663048999999997,10.124505999999993,-14.480545999999995,-0.7495049999999983,6.544616000000001,-6.803281000000004,3.634067000000003,8.923959999999985,6.1382530000000015,0.35800800000000016,-5.962315000000005,3.9361040000000007,-5.606737999999998,-3.8800290000000026,-7.628790000000001,28.755909999999993,-11.668684999999991,-17.809746999999998,32.969652,-41.573340000000094,18.901333000000022,-40.861945,8.483138000000006,-1.019006999999998,-4.260046999999998,-52.06959499999999,2.8419919999999945,42.380549000000016,8.326949999999991,2.7358070000000017,29.060549000000005,11.872920999999995,1.1495050000000027,25.064983999999978,18.703552000000002,-28.44063099999999,-4.412048000000007,5.9692630000000015,5.032670999999995,10.899066000000005,11.643833999999996,-19.004810999999975,24.47696400000001,-2.8608350000000007,7.399719,-18.49541599999998,-25.228973999999997,3.1906570000000007,5.445422000000001,2.470124000000001,21.37634499999999,-16.935165000000016,-17.783065,-19.004768000000013,-28.596463999999965,18.218458000000012,2.028160000000001,-16.176911999999984,-6.047644999999998,-0.33291499999999846,24.937527999999986,-0.24595300000000014,-12.574084000000017,-32.90971099999998,-4.097871999999997,45.91851000000001
Q9NRM7,-77.17670400000014,-16.52657800000002,-8.17655299999999,-73.57912899999991,-26.527071999999986,-22.936730000000015,22.504450000000006,-10.780649999999998,-17.319839999999996,86.78318599999987,-18.59817199999998,-16.502802999999957,2.671698999999998,29.510459999999963,6.12864400000001,8.822757000000005,19.70488200000002,-34.14155599999999,4.680381000000008,-0.41207300000000024,-9.639972999999983,-34.35343099999997,-31.71004400000003,9.929682000000009,-8.153852000000004,-11.583480999999988,-22.04322100000003,-10.161416000000004,-12.963911999999981,-9.482021,0.7901879999999974,-60.36879599999998,-4.029032,-22.694652000000016,13.801108000000012,16.86142199999998,-21.092315,-7.525231,16.143805000000015,9.185168999999982,12.461829999999999,7.442538000000012,30.01568099999997,-8.30564,-14.712430999999992,-14.18188599999999,-37.26543700000003,0.36042100000000143,-28.634790999999986,30.10201499999999,-16.11675000000002,-43.923866999999916,14.375510000000016,-75.79246100000013,24.06000800000002,-36.353161000000036,12.500986999999977,1.3216080000000006,-27.78313700000001,-56.908065,38.16026200000001,80.01507299999999,-2.0291669999999975,20.113864000000017,36.86003300000001,16.437713999999986,-0.4915079999999976,5.274561999999999,49.842494999999985,-6.1932279999999995,-26.814525999999972,-1.8044250000000026,4.370059000000001,30.177515000000003,-32.782561000000065,-25.826437000000013,19.000829999999965,-43.472016999999994,8.873130999999988,-27.751430999999993,-38.1478270000001,-16.675849,25.332143000000013,-14.089513999999992,29.98758099999999,-40.192667000000014,-39.227202000000005,-15.666025000000035,-29.41236,18.778551000000004,8.566652000000005,-29.89598400000003,-17.890999999999988,24.680457000000025,52.74490700000003,17.378068000000003,-9.058372000000023,-74.730754,-19.24768799999997,78.17609200000003
Q6ZWH5,-81.40306399999987,-22.274739000000014,-8.423238000000005,-85.51408500000008,0.43394699999999997,-16.31615800000002,33.35843399999994,-15.617015999999985,-25.604989000000003,68.67117699999993,-22.159833000000017,-0.3212319999999996,-5.850219000000004,23.62417699999999,-8.969636,10.820401000000007,32.89905100000005,-42.691105000000114,-17.180173999999994,-22.80506199999997,-5.0083260000000065,-23.942583999999997,-52.693805000000076,-5.635404999999993,-19.320087000000015,-4.637505000000003,-16.403576000000008,-14.348763000000012,-4.249722999999994,-36.69833299999993,-8.521407999999989,-60.154016999999996,-8.650565000000006,-20.306894999999994,17.45299600000001,24.147210999999977,-27.828944000000018,1.363016000000001,4.151625,0.31795000000000234,8.659102000000006,12.784236000000005,14.751395999999998,-8.672425000000011,2.8001389999999957,13.345785999999999,-16.189476,4.979974000000004,-7.795380999999997,35.912370000000024,-36.402818999999994,-14.64481599999999,41.09099399999998,-63.08539699999999,23.62598600000001,-53.96408200000007,18.608601000000007,-9.29389,-18.877790000000008,-69.72022000000004,7.864353000000002,72.88745900000008,12.886019999999972,6.926078000000008,57.835642000000014,19.69407000000002,20.590197000000018,28.21696799999999,44.18242300000007,-22.017463000000003,-7.321439999999988,9.71340599999999,7.408383000000007,9.429425999999985,20.90779800000002,-29.500458999999953,36.546542000000024,-20.073027000000017,11.566812,-30.68633899999999,-53.32364000000006,-14.669212000000016,21.501128999999995,6.007587000000008,37.77821099999997,-39.42612799999999,-46.18498500000006,-41.9149930000001,-53.800028000000026,39.72170699999996,24.77526299999997,-18.313220000000005,-11.48522900000001,-6.335239999999997,54.54794300000003,6.179277,-22.638538999999984,-65.75689400000014,-15.305447999999995,80.14312699999985
P42356,-145.99737300000004,-13.248844999999976,-20.26324999999997,-157.87245199999998,-4.487486999999993,-18.718361999999942,49.681326999999975,-25.343250000000037,-39.44376199999997,123.8293029999999,-37.31932900000008,3.8297119999999993,-8.68385699999999,39.87513200000007,-13.764816000000005,14.516761000000008,45.19923000000007,-69.24015800000004,-16.42166000000001,-41.22181900000004,-11.176826999999976,-50.36392800000005,-76.60296900000012,7.819484999999993,-36.60559399999993,-17.656221999999985,-34.37833200000006,-12.08104599999999,-14.564751999999974,-55.21561799999997,-8.862070000000008,-110.07293699999991,4.745922000000003,-41.388335,43.58577600000008,41.83341900000003,-71.07338700000007,2.2927470000000154,22.646323000000034,-19.188701999999996,25.138743000000012,33.02056499999999,40.33038799999988,-19.487591000000016,2.8378360000000002,25.607519999999997,-52.57546499999994,6.65415599999999,-31.758803999999976,57.95846900000003,-59.036322,-48.97549299999994,65.34502499999992,-119.90451300000001,45.90923699999989,-101.09793600000012,27.75022100000003,-25.49702700000003,-39.97235599999997,-119.89458799999987,25.661953000000025,140.31190700000016,4.583622999999987,20.931926999999984,88.4851379999999,57.628744000000076,11.240809999999989,62.985779999999934,77.1897289999999,-49.77106,-28.742355999999965,3.487341000000002,12.365217999999993,19.019005000000046,-2.033339,-70.06707900000005,43.92978700000001,-42.84537599999998,22.455986999999986,-40.98228800000006,-72.96750200000007,-15.293924000000015,41.51075999999987,13.076953999999988,69.42264,-74.08696400000005,-72.60464400000004,-44.645351999999875,-55.66582299999991,44.75789300000003,32.58056199999995,-51.96053999999999,-38.43134000000002,-2.9998609999999943,76.76588800000009,13.82046500000002,-40.929584,-119.67054799999983,-53.950262999999914,167.2847929999999
Q9NQU5,-57.83634399999998,-13.756189999999998,-5.6182079999999965,-49.98400899999997,-11.459458999999994,-11.108695999999988,12.543709999999997,-8.051084999999997,-7.626715000000001,50.14551899999999,-11.566002999999988,-3.750090000000002,5.781603000000001,16.127581000000003,9.529392999999995,4.122529999999998,15.474951000000004,-19.532884999999993,0.9122739999999976,-0.4157690000000002,-7.426952,-30.771886000000002,-15.864724999999996,2.978727000000003,-8.927697999999992,-10.358936000000007,-3.4450949999999994,-11.261959999999997,-6.373769,-10.852849999999995,8.806587999999985,-33.408864999999956,-14.942113000000015,-14.053514,6.411531000000001,7.014305999999996,-15.910402000000003,-1.965005999999999,12.528736999999989,0.31640900000000016,11.189779000000007,17.15708799999999,20.959391999999998,2.4287269999999994,-10.149151999999999,-6.432281000000004,-16.75157000000003,3.551716000000001,-12.506019000000004,14.468509000000019,-11.670419000000019,-22.492836999999987,6.5429680000000054,-41.154120999999954,14.547626999999983,-18.012390000000003,2.307989,-0.2152859999999991,-22.532594000000014,-31.118900000000014,31.07750599999998,55.35644100000003,-2.666399,8.902290999999996,23.064756999999982,18.150054999999973,-0.8085090000000015,3.2333780000000027,32.59549199999998,5.989860999999996,-20.130945000000004,-0.3255620000000008,-0.9861120000000005,23.043130000000026,-18.069234999999985,-18.185032999999983,8.440426000000006,-28.833088999999983,6.397926999999998,-16.893990999999996,-28.093248000000003,-14.741978000000026,18.393533999999992,-4.994829999999998,24.48951699999997,-26.51530300000001,-23.71702899999999,-10.453087000000009,-12.474336000000008,17.522767999999992,14.355677999999996,-15.438677000000007,-19.757959999999986,12.125974999999992,28.297557000000005,9.962866000000023,-4.694044999999994,-51.36122900000001,-15.288025000000028,45.64592500000004
P21802,-57.365979999999965,-3.840695999999998,-7.040013000000001,-64.64117699999998,-0.5229480000000012,-12.147684999999997,22.388514999999998,-17.380886999999987,-16.269300000000005,52.95622200000003,-2.4019349999999986,-9.306005000000004,-5.269860999999995,11.048406999999997,-2.2459770000000012,8.262946,21.622951,-24.378660999999973,-7.638846999999993,-15.08669200000002,6.689797000000004,-25.877841999999966,-35.07218900000003,2.4011560000000007,-8.971031000000002,3.316865,-17.69345399999999,1.537904999999996,-9.435628,-18.620460000000023,-3.632879999999995,-42.698690999999926,8.831234000000018,-10.03933499999999,18.657904999999992,14.135445999999986,-18.183401000000003,9.805634999999999,18.130579999999988,-12.57832000000001,5.154944000000004,11.72688299999999,15.496384000000003,-1.6739589999999964,-6.671233999999994,-1.7639580000000017,-19.489722999999998,-5.1642160000000015,-14.984475000000003,23.57269799999999,-15.34982199999998,-28.483390000000004,26.099142,-52.12669999999998,20.085311000000008,-38.042205,11.853143999999983,-5.486919999999997,-14.642111999999992,-44.415157000000015,22.26385900000002,60.92975800000001,-5.005847000000001,3.707756,34.432463000000006,24.591863000000036,-10.781282999999995,24.71301899999996,31.492318000000008,-12.927562000000004,-3.5310709999999945,-0.12691900000000006,0.6494340000000001,23.363221999999997,-3.2488860000000024,-29.272568999999997,22.438106000000037,-14.552756999999996,14.638749999999998,-22.090922999999982,-23.662896999999973,-5.367291000000007,11.492239000000005,2.516562999999999,22.753782999999984,-23.346230000000013,-28.427489000000012,-13.502158000000005,-27.337360999999987,13.89492700000001,1.7029379999999996,-26.24454399999999,-21.061770999999986,3.4386680000000003,23.84059600000001,5.736324000000007,-15.731385999999983,-50.48757600000003,-10.925703000000004,58.874161000000015
Q96SB4,-41.24236500000001,-7.121418999999999,-0.24113499999999927,-43.22575700000001,-2.180696999999998,-16.98028000000001,19.214388,-11.313466999999996,-17.13052199999998,43.84588899999999,-5.345652000000005,0.7473719999999994,-6.184858000000002,14.566616000000003,-6.586169000000012,11.415229999999996,16.56860100000001,-28.051240000000032,-12.300666999999999,-8.954678999999995,-3.7053400000000027,-9.30791,-27.44147400000004,-2.9394789999999955,-5.929413000000009,6.524455000000002,-6.797259999999996,-8.869666000000013,-1.062949999999999,-21.67750799999999,-7.799500999999994,-35.57468200000001,-5.928456000000002,-0.24269899999999883,6.421545000000003,11.26214899999999,-7.076694999999995,2.3336690000000058,8.73150499999999,-3.719253,8.901666000000004,7.427295000000004,6.426407000000004,-11.828803000000017,-3.9705749999999984,2.4155090000000032,-15.25653299999998,-2.7865700000000015,-1.4009710000000037,25.936731,-8.287820000000002,-14.391957999999997,18.65992099999999,-42.70831300000005,22.099098000000012,-32.11246200000001,12.368996,-0.9223429999999988,-9.676491999999994,-46.78893400000005,10.344485000000008,43.60334700000001,12.855148000000005,1.1986299999999999,29.202004999999982,12.004326999999998,3.1664669999999964,14.778815999999997,26.55678100000001,-14.74490999999999,-2.196808999999998,6.733551999999992,0.4787179999999982,16.533482000000006,11.899666000000007,-22.102491000000015,21.685353999999993,0.28015199999999973,4.632963000000002,-15.957275000000005,-30.453680999999985,-2.853242000000002,4.579450999999998,-9.586191000000017,25.523712000000003,-12.388038999999987,-26.621272000000015,-31.792982,-26.412310999999992,19.001322000000005,14.40997699999999,-4.465039000000003,-6.935494999999993,-0.2436570000000019,31.660800999999992,6.273977000000006,-9.353535999999997,-42.00381700000001,-0.29466799999999904,42.54137500000003
Q12851,-62.36172400000002,-5.1914139999999955,-6.372226999999986,-55.696349999999946,0.4635430000000007,-4.222132999999994,18.793571000000007,-5.672786000000003,-18.444467000000014,58.59546099999998,-10.974414000000007,-9.816239000000003,-3.537445999999999,26.084906999999987,-1.2778409999999993,3.4369850000000044,22.555244,-23.433089000000024,2.331404000000007,-5.278920000000002,-11.28343300000001,-30.243233000000007,-24.553830999999985,7.123464999999992,-13.770158999999996,-17.341288000000002,-15.315078000000002,-6.708575000000003,-8.313350000000007,-9.086071000000016,3.376411,-47.556297000000015,-10.769659000000004,-17.096973999999992,17.801442,10.113441000000002,-18.941578000000035,-7.2785340000000005,13.802073,-6.511354000000001,4.135324999999997,12.229149000000007,19.558706999999984,-8.159559000000005,-0.2695920000000012,-5.1068710000000115,-20.942546000000007,2.776690000000002,-20.314588000000004,18.73040800000002,-19.106158999999995,-29.529579000000012,14.177420000000017,-50.419263,16.487972000000006,-33.75243000000002,1.7257820000000024,-8.593898000000003,-17.308663000000017,-39.716035000000026,25.50484299999999,61.839232000000024,-1.5693319999999977,12.241911000000005,34.33491499999997,23.264306000000005,9.35543400000001,5.663002999999988,38.41865699999998,-1.2224650000000008,-22.687231,1.5355050000000015,3.420058999999997,17.455099999999995,-14.97505699999999,-18.090916,16.369304000000003,-30.750520000000012,3.954517000000001,-13.369116000000012,-19.266879999999993,-2.956817999999998,23.516414000000005,-3.9497349999999987,28.949869999999944,-27.387264000000012,-30.832277000000037,-12.426285000000016,-21.760631999999998,20.837179999999996,15.347369000000004,-23.29748899999997,-22.94688500000001,10.900582000000007,34.531178000000004,15.874448000000015,-11.846369999999991,-42.11440700000006,-17.882130000000004,62.67376099999992
Q9H0K1,-63.65028499999997,-22.449892999999964,-18.988086999999986,-65.00526000000006,-13.814582000000001,-9.509859000000006,17.777302000000013,-9.258168999999985,-20.48130000000001,64.98125700000001,-20.548734999999997,-8.665236999999998,-5.311919000000003,23.386725999999992,3.464717000000003,15.35460700000001,25.51155899999999,-33.75625499999998,-0.544473000000001,-6.851586000000003,-16.246565000000032,-19.283500999999983,-18.355378000000048,1.3312089999999983,-17.76630399999999,-13.587864999999994,-23.118505000000017,-17.184913000000012,-2.0856349999999995,-13.148598000000003,19.957544000000002,-57.05190099999998,-29.840931000000023,-25.35460100000001,-2.2446060000000014,18.976955000000014,-15.870757999999975,-6.8115419999999975,9.481470000000002,18.74655600000001,6.534831000000005,6.585201000000009,31.586446000000016,-4.165040999999997,6.636060000000002,-8.070972999999997,-40.69894800000004,9.896223000000003,-24.290748999999987,32.42086199999996,-21.488543000000018,-31.374139999999993,13.212675000000006,-56.796051999999975,17.626744999999975,-18.267345,4.255262999999999,0.914346000000001,-30.910306000000055,-39.465235,33.02657199999999,78.42969000000004,-5.009188000000001,6.199102000000006,34.533758999999996,20.736172999999994,0.813502000000006,-2.9439199999999994,57.431053000000006,15.786466999999996,-20.835312999999978,9.690788000000007,7.175166000000002,30.46158799999999,-19.016411,-26.167761000000045,14.305448999999996,-36.14461999999999,14.301799999999979,-25.535721999999996,-40.04431699999998,-16.801803000000003,33.93496699999996,-16.844372000000018,26.880670999999975,-45.57620500000005,-24.352048999999973,-25.37540200000002,-33.338724,24.374182999999988,9.138020999999997,-17.563592999999983,-9.342906999999999,15.17487499999999,48.861685000000016,8.368780000000005,-8.449995000000005,-58.978809000000005,-15.572388000000004,63.708064000000014
O00329,-65.73133200000005,-11.37235299999999,-12.966269000000016,-66.45417899999995,-6.454792999999996,-6.511938999999988,25.06108199999996,-6.207782999999989,-21.271511000000004,67.68091699999997,-10.81884999999998,-1.194517,-10.328725999999993,27.70098800000001,-12.043200000000006,13.044940000000011,21.17771200000001,-46.80494099999999,-3.87610699999999,-21.466550000000005,-9.061263000000006,-35.763702,-36.11475099999999,1.034293,-11.773581000000014,-9.925300000000005,-10.332815000000002,-13.941630999999987,-0.8824759999999998,-25.506131000000007,-0.4127290000000017,-64.43884999999999,-5.9784329999999954,-19.096318999999998,25.446382000000007,10.273272000000011,-29.876366000000047,2.1346619999999956,9.62680400000001,-10.894301000000006,9.532649999999986,8.962574,20.58649899999996,-19.326205000000012,3.404564000000004,17.21010000000001,-20.983018,2.041534,-20.585764999999984,26.893316000000016,-27.546330000000026,-27.22952100000001,21.383685000000003,-60.417078000000004,23.927197000000017,-60.33194099999993,12.68558100000002,-8.226211999999999,-18.86625600000001,-65.10140899999999,10.536176999999999,76.75971500000001,14.000711000000008,5.937341000000011,44.899858999999985,21.477118999999977,3.411105000000006,20.102151999999997,37.232847000000014,-20.178574999999977,-15.965513999999999,8.77994399999998,7.023475999999985,14.891714,-2.7340239999999976,-35.99268999999999,35.184362,-17.494891999999986,8.315269999999996,-27.26929100000004,-32.86598499999999,5.9981809999999856,28.701132000000015,8.368459000000007,30.290246999999997,-31.960816000000072,-37.648197000000025,-26.482810000000015,-30.522896999999972,29.777591000000008,15.86646399999999,-17.696274000000003,-16.78586,1.7137610000000008,47.70633900000002,13.664330999999988,-19.02954799999998,-49.28932600000002,-25.760615000000012,79.413737
Q05513,-36.011439999999986,-1.9286269999999979,-4.077750000000003,-40.13235399999993,1.7981129999999999,-8.340912000000012,13.134404,-5.843989000000006,-14.890327999999993,38.377785000000024,-9.575618,-5.50777,-0.11238799999999985,15.010889999999991,-8.372663000000005,-2.099923999999999,14.190075000000004,-24.741318000000042,-2.5467759999999986,-8.541188000000002,1.8231619999999988,-21.170162,-21.601963999999967,4.606214000000007,-6.84744699999999,-1.511762,-11.568620999999998,-2.625784999999999,1.7465539999999997,-8.121985000000002,-0.9884809999999999,-37.512408,8.998968000000005,-5.196278999999997,11.672714,6.448447999999996,-16.938600000000015,-0.6516629999999993,7.790049999999995,-6.8888900000000035,7.014801999999994,7.4974050000000005,11.288346,-8.451468999999996,3.033790999999999,-1.2730209999999988,-13.609920000000015,-2.756196,-14.873775999999998,23.839682000000007,-15.015949999999998,-10.985092999999996,19.62433099999999,-31.512262999999983,15.09060199999999,-31.975553000000012,10.759978000000004,-2.503107000000003,-11.112483999999997,-42.49574899999998,11.347461999999995,47.89837999999995,5.158547,3.9899969999999985,23.189270999999987,12.704141000000009,-5.283326000000004,15.896011,23.107439999999997,-12.584791999999998,-11.22657,3.8950430000000034,-2.1263929999999984,5.104398,-0.8571079999999986,-18.21607999999999,21.563793999999998,-8.768059999999995,3.6484950000000014,-10.211706999999999,-16.533812999999995,1.429699999999999,14.531935000000004,0.4915449999999999,15.903227000000001,-14.77154399999999,-19.200163000000003,-14.066784000000007,-21.351965000000007,20.66907199999998,1.4575039999999997,-7.182259999999998,-12.598432000000015,0.04376300000000033,23.35573400000001,6.374173999999997,-8.901681000000009,-35.48901100000002,-14.388975000000006,40.60874300000002
P80192,-82.97271799999993,-22.631489,-12.436740999999987,-83.70173199999988,-19.889565000000015,-20.147182000000004,24.179604000000023,-11.106568000000003,-12.377799000000005,72.51114599999995,-15.393247999999982,-9.373758000000011,13.802276,28.42625499999994,4.531183999999997,1.7236069999999986,25.42577400000003,-38.63550599999995,-6.52066,6.904010000000014,-6.275517999999999,-22.42410499999999,-38.53030699999999,13.832639999999998,-13.86006,-9.467892999999995,-8.000235999999994,-1.5622140000000038,-10.07603599999999,-18.503101000000022,11.664620000000012,-55.776112000000055,-28.253610000000034,-15.105435000000005,14.245857000000003,1.876571999999999,-25.670262999999995,-3.1143919999999965,29.31151900000003,-13.241772,23.306752999999972,22.740021999999982,28.25193599999997,-4.174941000000001,-18.308015999999977,-6.320990999999993,-15.366606000000015,9.729426999999996,-24.355491,37.61136799999994,-24.021130999999954,-45.002576000000026,11.453827000000015,-75.05692700000017,15.741822000000012,-40.73385900000005,7.431605000000002,5.369889000000003,-12.698635999999984,-63.31472199999996,58.278727999999994,88.20981500000008,-1.3001319999999987,25.333998,45.82330399999997,29.152594,7.373049999999987,4.272920000000001,62.3713309999999,10.591826000000006,-28.485511000000052,-1.0725140000000033,0.15519600000000006,27.114268999999993,-24.530044999999955,-24.89102399999999,26.39699100000004,-37.860409000000004,7.764024999999991,-17.913596999999996,-44.56742000000002,-19.584143000000008,28.408853000000008,-18.688610999999995,35.24334699999997,-30.777448000000014,-30.865995000000037,-41.39538900000004,-28.910134000000014,30.944014999999997,28.090853000000042,-15.245015000000016,-33.539619999999985,23.920533999999996,57.44365199999994,14.904930999999983,-5.015759999999998,-90.74006200000001,-13.395037000000004,69.63971600000002
O94804,-65.94913899999992,-22.503670999999997,-2.7787809999999995,-57.050572999999936,-15.790831,-13.222070999999989,25.128846999999997,8.834001999999993,-17.73938100000002,75.56730499999982,-6.272498000000005,10.964633000000003,-3.8748579999999953,32.48167300000001,-6.087025999999999,21.10941399999995,25.52172100000002,-51.883037999999985,-9.51982700000001,-8.546247999999991,-9.257648,-2.2658609999999966,-26.186945000000016,-10.128736999999987,-10.167729999999995,-0.06219699999999927,1.0116670000000008,-17.604592999999998,0.7328670000000057,-33.78585100000005,-0.13541499999999998,-53.920507000000036,-19.471438000000006,-8.379663000000004,7.75109299999999,16.159665999999994,-3.0374129999999995,-4.896255,4.857836000000009,16.910591000000004,3.8857609999999934,9.839247000000006,15.214373999999994,-6.3681880000000035,5.659837000000004,4.788420000000005,-21.339271999999994,-10.60894000000001,-8.610341000000007,45.43234699999998,-9.26148,-9.564225999999994,19.41851300000002,-50.72302600000005,42.38872399999996,-46.426218,12.087753000000003,9.185942999999984,-21.03856499999997,-79.65000199999993,16.173756000000036,80.58785399999992,24.966184999999978,19.760403999999994,33.483826999999906,17.280987000000014,16.11527099999999,13.411552000000007,47.27389599999991,-16.367358000000007,-4.922103000000003,21.162839999999996,-0.9047090000000018,18.79931099999998,24.647588999999996,-25.44411700000002,42.38659200000004,-0.5247960000000017,2.0851179999999965,-30.348239000000007,-51.043187999999994,-3.5487940000000044,23.93478699999998,-20.327656999999995,30.447623000000004,-25.373989999999985,-45.892003000000045,-48.63099499999998,-47.95112699999995,35.598609999999994,33.379883,0.43205600000000755,14.216149,1.7040639999999998,64.66910000000007,-3.9815290000000028,-17.840112,-39.492282999999965,-10.865414999999992,49.90935200000005
P43403,-41.902539000000054,0.17424700000000065,-4.420224999999997,-37.641352000000005,-2.856899999999999,-4.933120999999998,13.684299999999991,-6.493777000000006,-15.388640000000002,46.331313999999956,-5.304376999999998,-6.695954999999991,-3.6904259999999964,10.366962000000004,-6.2061630000000045,3.1539900000000016,7.744542000000002,-22.597706999999996,2.3808780000000005,-2.498991999999998,-3.1738460000000046,-15.55292,-22.62579699999999,3.116893,-3.0848180000000003,-5.830450000000001,-8.227427,-1.8046420000000003,-3.369330000000004,-5.187112000000002,-2.595217000000002,-38.229457999999994,2.863810999999999,-10.890879999999992,19.827719000000002,6.163818,-16.241102,-4.232008999999992,10.26121399999999,-2.7394520000000013,0.6873559999999983,6.50871,17.23058300000001,-9.065565000000007,-0.6208689999999996,4.6825119999999965,-14.532058999999993,-1.7831960000000002,-16.69977200000001,14.05923800000001,-15.996466,-18.54867800000001,12.131449999999992,-38.76952700000002,22.113439000000024,-32.274916000000026,5.472400000000002,2.2215109999999996,-20.860802000000017,-43.392671000000014,15.011278000000015,50.513336,2.3085789999999986,7.700700000000005,21.929778000000002,18.339809000000006,-3.5100410000000024,16.500840999999994,20.414966000000003,-15.971037999999995,-11.317455000000004,8.430131999999999,2.638409999999999,4.931335000000005,-10.676299999999992,-20.02769199999999,17.320448999999982,-14.841265999999987,8.613075000000013,-11.605777999999987,-20.126009999999994,-5.166428000000003,10.472960000000004,0.4116910000000003,9.017860999999995,-16.8122,-23.166803000000005,-6.448401999999997,-18.704701999999997,13.400755000000025,7.137847999999995,-15.546412000000014,-9.874755999999998,0.7295489999999999,22.863426999999994,6.054474000000004,-13.747067000000005,-33.54853699999999,-14.974219999999985,47.81752799999996
P37173,-30.08463699999998,3.0558709999999953,-10.734374000000006,-41.65556400000002,6.379208999999998,-3.3656840000000026,14.677862000000003,-9.617230000000001,-17.10233099999999,31.705482,-2.982888,3.7220069999999974,-4.036349999999998,7.209752000000003,-8.668115000000011,4.902585000000003,16.557719000000013,-18.525154999999998,-6.1244499999999995,-9.983089999999999,6.353832999999996,-11.545689000000001,-26.172958999999988,2.3792250000000004,-3.108121999999999,-1.5390200000000014,-14.222620000000015,-6.045592000000006,2.496691000000001,-10.795614999999996,-7.962506000000005,-36.843352999999986,4.721328999999999,-3.568328,19.00303099999999,3.126177999999999,-13.976256000000019,1.8104779999999994,2.2655169999999982,-13.921693000000003,7.527178999999995,9.628962000000001,11.482106999999996,-13.25326400000001,-1.5616670000000015,3.111953999999999,-18.990232999999996,-4.6437909999999984,-2.775702000000001,18.596837999999988,-21.471797,-11.10793899999999,19.547722,-23.48492400000002,13.147759000000008,-34.12194300000001,7.995852999999995,-8.644987000000018,-8.828156,-35.64561700000001,6.028269999999999,40.292036999999965,12.09312299999999,-2.1530419999999975,34.38756899999998,18.10938,-1.1568790000000024,15.036506000000003,17.09497399999998,-11.367408999999997,-0.7716050000000019,-1.020770999999997,2.4257199999999988,6.331552999999997,4.274686999999999,-21.026703000000005,16.723843000000006,-10.199370000000004,9.556871000000006,-5.588393999999993,-21.858614000000035,1.159582,8.56161400000001,5.573790000000002,13.118004000000003,-14.071282000000002,-18.158650999999995,-18.043540000000004,-19.171458000000005,24.274291999999992,0.3751909999999993,-7.462331000000007,-16.817469999999997,-2.9055599999999964,23.50488300000002,11.274776000000006,-11.585690000000007,-33.50487600000001,-12.033725999999998,49.894138000000055
P17948,-87.947858,-5.145592000000013,-16.40625400000001,-102.23944400000003,10.472126999999984,-19.777704999999983,38.65208100000001,-35.25920900000004,-30.16739700000005,69.14167599999999,-10.964104000000003,1.1620879999999993,-4.205899000000003,13.05569000000001,-11.504852999999999,11.823806000000008,31.356746000000037,-37.49344900000001,-24.56672999999997,-33.273953999999996,2.969918000000004,-39.18517800000004,-74.208405,1.592441,-18.029591,17.703325999999986,-25.19172900000003,-25.352940999999944,7.549717000000002,-35.44391899999999,-14.367570999999996,-63.967622000000006,5.222300999999998,-15.93953399999997,28.63067999999999,29.95781300000003,-28.322736999999982,9.51616000000001,14.553605000000012,-27.434884000000018,24.018394999999998,25.628047999999975,19.55272100000002,-11.555181999999993,-4.921067999999995,3.902347999999998,-27.19654299999995,-10.197634999999995,-6.850521000000008,44.60085900000006,-40.04027399999997,-27.502980000000022,45.34848899999998,-75.59364299999994,25.689313999999975,-70.82714200000005,17.284640999999986,-16.70806299999999,-16.118301999999986,-88.78286999999996,21.486763999999976,88.47702099999985,15.372133000000002,-8.177066,72.93610199999989,34.38059900000003,-6.347793000000004,39.83619800000004,49.4918839999999,-27.384268999999975,-13.784871000000003,-1.1372050000000022,1.8419599999999976,26.98747000000003,4.366102,-38.68650499999995,31.36385500000001,-29.504759000000014,15.728008999999984,-28.829292000000002,-55.51942599999992,-13.189181999999992,16.26056999999999,7.720952999999985,42.136588000000025,-43.8643770000001,-31.88087399999997,-38.29863200000003,-46.958308000000045,40.00229800000002,16.839182000000005,-22.567344999999985,-34.458696,-2.637179999999997,53.602567000000086,10.870998000000007,-22.946952000000042,-82.63407300000013,-17.149866999999993,100.78004599999997
P51817,-27.543112999999973,-0.3032600000000002,3.195540000000001,-25.98607100000001,-4.010098,-4.872422999999995,15.430603,-4.401870000000002,-2.1557910000000002,25.436479999999978,-4.152133999999998,-4.079632999999999,1.8316200000000014,9.222890000000008,-7.468132000000003,2.54026,11.007250000000004,-11.892127000000004,0.04372000000000025,-3.489040999999997,1.4760259999999996,-10.972304999999993,-13.714200000000007,3.8522110000000014,-4.334921000000002,2.462927999999997,-3.756982999999997,-0.5396210000000002,-0.7155529999999984,-7.218064000000007,-2.0738709999999996,-19.803388999999996,6.241591000000003,-5.191648999999998,8.159072000000004,5.4664870000000025,-6.576536999999997,0.08165199999999981,7.379868999999997,-1.6123960000000006,0.9709649999999999,0.17958900000000133,9.499538000000006,-1.410849999999999,-2.2600989999999994,-1.0679220000000007,-3.318787999999998,-2.2519929999999997,-4.235917000000002,13.509921000000004,-6.500168000000005,-12.069334999999995,12.885860000000001,-26.652325999999974,10.660477000000002,-17.417892000000013,-0.4193309999999993,-5.424562999999999,-7.274830999999997,-20.927425000000014,4.240769999999997,22.539846999999998,2.7141820000000028,3.7073410000000004,9.525217000000014,5.277175999999995,-2.920584999999999,13.181165,6.146273999999999,-11.269113,-5.210420999999997,3.215043999999999,0.4876019999999996,3.456165,-5.058816000000003,-8.220796000000004,9.184096000000002,-6.069447999999997,2.601429,-8.627661,-12.923209999999996,-0.6522010000000001,10.151259999999994,1.8779559999999993,11.046172999999994,-11.004931999999997,-11.829321000000004,-3.1155810000000024,-11.318290999999997,5.292297000000004,3.2083640000000013,-8.064520000000005,-8.369380999999992,1.0766290000000005,10.165502000000004,2.6130510000000005,-8.971398999999996,-20.720371000000007,-6.615445000000004,27.013065999999995
P33981,-43.37475399999997,-16.11269800000002,-11.305253000000006,-64.55198699999991,-1.8618179999999998,-17.649414000000007,16.79811100000003,-20.122442999999986,-19.67827099999998,48.646343000000016,-13.890654,8.465776999999994,-6.531619000000002,15.553663000000002,-4.250252000000001,11.883531000000009,31.48609099999997,-29.978349000000016,-14.144081999999987,-21.840725999999993,0.0910449999999996,-13.269648000000014,-40.014317,-6.197968000000004,-10.502235000000008,5.138804000000009,-12.507795000000005,-18.678310000000007,8.859586,-28.53145799999999,-8.158582000000006,-42.671372000000034,-3.928438999999999,-15.398752000000004,7.049813999999996,28.102558,-9.643686000000002,3.816009000000002,2.1494049999999993,-6.984683999999994,7.921885000000008,9.314345999999999,21.35184499999998,-8.153447000000007,-7.318219999999993,10.399881000000006,-21.927371,-3.700927999999999,-2.943789000000001,34.85402500000002,-18.69991099999999,-10.065694999999995,33.15836000000002,-46.933665999999945,18.306991000000007,-36.78710499999998,17.881946000000003,-11.896905999999998,-17.910768000000004,-60.176639000000044,2.649158000000002,51.42680099999997,10.357867,-11.075011999999992,49.962937000000004,17.389867999999993,14.907919000000001,19.264132000000036,31.71405100000002,-14.346707999999998,4.203061000000009,-1.451449999999999,5.446831999999993,11.076294999999998,19.576009999999982,-30.531405999999993,21.394313999999998,-16.999933999999982,7.575502999999996,-35.18003299999999,-52.28269999999993,-14.489965999999985,11.378594000000012,-6.7386489999999934,33.12488500000001,-24.143278000000006,-27.996389999999977,-43.70268199999995,-43.61286199999999,31.24326000000002,8.201404,5.338726999999999,-3.0977259999999966,-2.2722810000000004,37.85642900000003,5.541044000000001,-11.171357000000002,-56.498366999999945,-0.588786999999999,60.64241799999998
P48729,-22.07629500000001,-3.1642669999999984,-1.3725860000000005,-22.125922999999997,-1.4316140000000006,-6.573280999999998,7.367034999999994,-4.849096999999999,-6.019990000000001,19.895125000000004,-3.3104750000000007,2.231143999999999,-2.103712999999999,3.033542999999997,-2.1363100000000026,6.884124000000003,10.076963999999997,-13.298309000000003,0.7412460000000003,-4.971160999999998,-2.3925249999999982,-8.699814,-11.533928000000001,0.19846700000000017,-9.49279600000001,2.4358980000000003,-2.812080999999999,-4.058021999999999,-0.8976750000000006,-5.979682000000003,-6.549877999999995,-18.550045999999995,6.581119999999997,-5.545253,7.500142999999998,7.336527000000006,-9.799124999999998,1.2750039999999998,1.2433049999999986,0.5500849999999993,3.572678,5.0516950000000005,4.59666,-1.8771029999999973,-1.8307240000000031,4.490165,-3.8965829999999992,-1.2786269999999995,-1.5983820000000006,9.391942999999996,-11.50498,-4.149290999999997,10.606267999999993,-23.022707000000004,8.766448,-13.80846700000001,3.464346999999999,-5.100472000000001,-9.669517000000004,-22.931536,-0.21251900000000185,17.027708000000008,2.575107,-0.7947309999999996,16.511391,7.538380999999999,-1.5450050000000002,11.986209000000004,11.692306,-12.888786000000016,-5.048629999999998,1.526738,-0.5329140000000006,0.3243070000000015,3.8824850000000017,-12.932126999999996,10.654846000000003,-4.582452,2.7728939999999977,-11.414864999999995,-15.013139999999995,-4.555296999999998,6.096182000000004,2.303334000000001,12.258351000000003,-11.578706,-13.059874,-11.456658999999998,-13.99649800000001,5.341271000000003,1.996206000000002,-8.143864999999991,-3.702675999999999,-2.190121,11.841233000000003,0.06425199999999914,-8.618524999999996,-14.597954,-6.382133000000001,25.866436999999994
P17612,-25.901297,3.0801899999999995,1.5930560000000007,-25.400365000000026,-1.4582130000000004,-5.610001999999997,15.67932,-5.914762000000001,-4.813428000000002,25.300641,-4.411007999999999,-2.727487999999999,-4.715470999999999,9.435410999999993,-6.2045580000000005,2.5326720000000016,10.428598999999998,-17.107928000000005,1.170692,-10.265775000000005,0.7035630000000006,-9.50589,-11.181268000000005,-3.236133,-5.366234999999995,5.760150999999998,-1.9405679999999996,-4.5812269999999975,-0.5868040000000012,-8.967498000000003,-3.8023200000000004,-18.279027000000003,7.985293,-5.0028319999999935,9.028458000000008,10.424956999999997,-5.503239999999999,1.159528,2.9623280000000016,-2.168205,0.6161190000000009,0.2270379999999988,6.960207000000002,-3.5019609999999957,-3.5074080000000003,2.3307150000000005,-4.221924,-1.5238800000000006,-2.066858999999999,16.583835999999998,-6.6068000000000024,-8.550595,18.244513999999988,-20.295708,8.297121999999998,-19.015326,-0.6900599999999999,-4.3574209999999995,-8.164460000000007,-28.403824,1.6103930000000004,17.489393,5.296123999999999,-2.3146619999999993,14.674041,6.836652999999994,-1.9035199999999992,11.532310000000006,10.611476000000005,-14.150682999999994,2.693220000000001,6.173680999999999,-3.080176,-0.18732300000000007,5.504768999999993,-9.609005999999994,10.884639,-0.7467530000000003,2.3543110000000005,-11.649793999999993,-14.05420000000001,0.5642320000000001,1.931991,3.401538,12.176285000000002,-6.1157029999999954,-12.542494999999981,-7.012128000000005,-18.067459,6.318514000000003,-1.2044209999999997,-3.0547929999999996,-3.4469969999999996,-2.8295280000000034,13.097757000000001,0.0017170000000006486,-11.92784500000001,-14.534976999999992,-2.369163999999998,25.502078000000004
O14730,-32.39618200000002,-1.4459419999999983,1.5309409999999986,-32.46439400000004,-2.3820350000000015,-6.204125,18.035239000000008,-5.526173999999993,-6.748542000000004,37.575331000000034,-2.8366530000000005,0.595451999999999,-4.816589,10.549093000000004,-4.563432000000003,9.309883999999995,10.783334999999997,-25.96069899999999,-8.124103000000002,-10.410207,1.9900199999999997,-14.967923999999998,-25.437992000000015,-1.7492669999999992,-7.215505999999997,2.2675739999999998,-3.602986,0.05973399999999934,0.23890700000000015,-10.131200999999999,-1.7843010000000006,-24.754399,6.785063,-2.555965,10.222085000000005,5.958186999999995,-12.674479000000009,-4.180920999999995,5.017163000000002,-0.6767639999999998,4.827719000000008,4.880381000000001,5.789261000000005,-4.006483999999998,-2.9587829999999995,4.847182000000003,-10.468928000000004,-6.368625000000004,-10.074169000000008,16.120719000000005,-7.486849999999996,-13.886220999999992,17.274269,-33.42823499999998,14.306180000000008,-31.69037899999999,4.441931999999999,-3.424606,-8.641373000000007,-39.55944800000001,8.864908000000009,36.09980500000002,10.429840999999996,9.798767000000007,19.671057999999988,8.399484000000001,0.7718330000000001,16.106568,17.801673000000005,-18.424832000000002,-5.048042000000002,9.546262,-0.800855999999998,7.690950999999994,8.302377999999996,-16.419327000000006,17.550289999999986,-1.7003439999999992,1.3956499999999994,-15.570539000000005,-22.219633,1.7748530000000007,3.006353999999999,-2.538465,17.39710300000001,-12.431055000000002,-16.601367000000003,-15.396309,-16.748934,14.343864000000004,9.737231000000001,-9.898381999999998,1.0652199999999998,0.7992810000000009,22.450981000000017,-2.227518000000001,-8.491054999999998,-25.571090999999992,-6.465386000000006,35.93568100000001
P50053,-21.730906000000022,-5.736365,1.8881339999999998,-19.058274000000015,-3.124488000000002,-1.8361009999999993,3.853910999999998,-2.9739229999999997,-10.130769,22.107838999999988,-0.9287750000000004,-5.044680000000001,-2.421345000000001,4.578020000000002,3.249723999999999,-1.0047000000000017,1.1204219999999998,-8.737115999999997,0.6937750000000001,-3.327719999999999,1.871645,-10.070974999999995,-14.536261999999997,1.8142820000000006,-3.358559000000004,0.6764270000000007,-5.414675000000003,2.3525399999999994,-2.514951999999999,-4.099256999999998,3.804766000000001,-19.261488000000018,-1.18331,-2.8994470000000008,4.072135000000001,5.057542000000001,-10.408341999999994,-0.604206,5.3578019999999995,-1.151916,6.922088000000002,8.314148999999999,7.098942999999996,-2.9928480000000017,0.14702699999999988,0.5825719999999998,-6.238530000000001,-3.4686750000000006,-6.520301999999995,6.823717000000003,-8.331425999999999,-9.291578999999999,5.6417420000000025,-12.679445999999993,5.212102999999997,-14.985024999999998,-1.0596240000000003,-3.303799999999998,-3.762251000000001,-17.52909199999999,8.018316,26.095041,-4.065295000000002,5.617551,11.146771000000003,5.245486999999998,-1.531097,8.93045100000001,9.698193,-2.7552349999999994,-9.916494999999989,-1.3074950000000016,-0.22262799999999955,4.5504739999999995,-3.0155630000000024,-9.410328000000009,7.545805000000001,-4.741283000000002,4.334881,-3.110534000000002,-7.128196999999998,-3.464834999999999,7.000523000000003,1.6094910000000011,7.417890000000002,-7.8960149999999985,-10.815436000000005,-0.7618979999999993,-8.744364999999998,5.999088000000001,4.283420999999999,-10.877058000000012,-6.219214999999999,4.508105999999994,12.083101000000012,3.082749000000001,-5.128179000000002,-17.194125999999997,-7.672993000000004,22.810972000000007
Q13557,-32.42689600000002,1.2137579999999988,0.8570130000000007,-35.80811099999999,-1.9845420000000058,0.5480209999999993,13.275046000000016,-7.060270000000005,-7.610783000000001,35.322712999999986,-4.080780000000001,-5.176584999999995,-2.3896360000000016,4.190207000000005,-7.081955000000004,-1.225952999999999,7.964259000000005,-20.389449000000006,-5.103578000000005,-8.299411000000008,-3.113940000000003,-14.285781999999994,-20.717677000000016,0.5375759999999996,-7.212742000000003,3.1495220000000033,-8.807973000000004,-1.332596,-4.868654000000004,-12.029716,-5.637540000000004,-29.75534399999998,4.5211380000000005,-2.8144569999999995,9.60331300000001,5.5627970000000015,-7.557457999999996,3.8489949999999995,4.103313000000001,-0.8223300000000001,3.5672550000000034,4.821025000000001,8.420822000000003,-3.527434000000001,-3.317292000000003,3.7682809999999995,-13.252077000000003,-3.820679999999998,-5.7093189999999945,17.03805000000001,-12.610274999999989,-9.069714000000005,18.53347699999999,-29.983801999999994,13.981889,-21.92749399999998,7.647963000000011,-5.924981999999991,-4.400821000000004,-36.443049,5.117525000000002,33.514183999999965,6.704777000000002,3.4437689999999983,19.369944999999998,12.101731999999998,-0.6296130000000005,19.279894999999996,16.866491000000007,-11.641052999999989,-7.205254999999992,1.2275750000000016,2.5067820000000003,6.371797000000004,2.5367570000000033,-16.41417300000001,19.27513299999999,-5.273931,3.9592100000000023,-14.230558999999987,-16.20110199999999,-2.7822799999999996,6.113273000000003,3.725634999999999,15.066553999999986,-14.418742000000004,-18.33019799999998,-11.911155999999998,-18.97434500000002,6.54856,2.349261000000005,-10.013794000000015,-8.553759999999993,1.733542999999999,18.45969600000001,3.711119999999993,-6.756152000000004,-24.318738999999994,-6.4402999999999935,38.676919000000005
P08581,-81.89610999999988,-0.35127300000000106,-13.303610999999982,-114.27310800000001,7.842342999999984,-16.57734100000001,31.573319999999992,-41.694468999999955,-32.346150000000044,78.828388,-9.724957000000003,-3.6441860000000013,-13.772410000000008,17.142239999999997,-8.855322,5.862879000000001,41.598559000000044,-29.343386000000024,-25.79856900000003,-30.732026999999952,4.272054999999998,-52.327551999999905,-63.87417599999986,3.107455,-17.19392200000001,4.932194,-39.74563399999996,-17.227584000000018,-1.0740459999999978,-34.86730900000003,-5.931920999999998,-67.78725200000004,16.494661999999998,-29.243901999999977,32.81939599999997,25.364410000000017,-33.486987,5.6108769999999994,9.993654,-25.432351,24.327428999999977,18.465662000000002,26.10279400000003,-17.883475999999977,-7.887172000000015,14.03740300000001,-38.37316699999997,0.2685260000000021,-11.883145,34.48103399999998,-42.9303799999999,-31.725568000000028,51.09536400000009,-63.065162999999984,19.963577000000015,-75.6199740000001,22.29511299999997,-29.213758000000016,-18.824365000000004,-82.32759800000005,15.277638999999978,89.01880099999994,9.285018999999995,-17.323932000000042,82.81436399999997,38.725356000000076,-5.5046620000000095,42.03711499999999,43.01835700000006,-30.08927900000003,-14.941194999999988,-8.145280000000001,6.69346200000001,20.27616600000001,-5.698441000000006,-50.79390600000002,28.04305600000003,-35.08382399999995,27.790236999999987,-31.345498000000035,-45.79586399999993,-11.884250999999999,24.421461999999984,16.81479500000002,45.48695699999997,-40.24161100000005,-42.64954500000004,-29.75333700000001,-53.534880999999956,34.531145,5.207,-27.43971199999999,-30.85359199999997,2.057787999999997,37.730739999999976,17.036255,-28.505025000000003,-84.89321400000001,-24.857318999999993,120.37260699999987
P37023,-33.468213999999996,-6.442388999999992,-3.929611999999991,-35.84098699999999,-2.7852969999999946,-1.6389840000000049,4.543843999999998,-7.591433999999994,-12.542103000000019,33.15612700000003,-5.802831000000005,-2.162349999999999,-0.8380519999999962,8.384391,-0.753174,-1.3469349999999993,5.847161,-18.440759000000007,2.6397860000000026,0.9969580000000009,-2.6071539999999986,-20.85393600000002,-18.491862,7.0177220000000045,-7.493972000000002,-3.8530080000000018,-7.697469,-5.0696629999999985,-0.7149729999999997,-4.730794000000002,2.3689299999999975,-32.53358400000002,-0.05119899999999977,-6.795018999999994,13.864195999999989,3.4416630000000006,-18.67984399999999,5.435017000000001,11.451472999999996,-7.373784000000014,8.006572000000006,7.061916999999997,9.552698000000003,-13.074723000000004,3.2892979999999983,3.9322390000000023,-14.353910000000015,0.027318999999999732,-11.452957000000003,9.503889999999995,-14.20836500000001,-18.843181000000012,4.283882999999999,-25.434221999999988,12.267849,-26.391454000000003,8.003802999999996,-3.2394180000000024,-9.118060999999994,-23.683241999999975,8.675721000000008,45.589357000000014,2.5708009999999986,8.881637000000001,19.773114999999994,14.265186999999996,-2.506659999999999,12.026111000000009,17.343483000000006,-1.6258830000000004,-19.572166000000003,-7.352279,0.8609730000000011,6.120029,-5.0449509999999975,-16.024023999999997,12.407804999999996,-18.901739999999997,4.998406999999999,-3.798559,-9.867869,-0.7785599999999998,11.440648,5.204880000000001,16.96761699999999,-15.933408,-16.712387000000007,-1.9398300000000004,-10.376917000000008,15.805987000000007,7.8329210000000025,-12.973624999999998,-18.017169000000013,6.716407999999998,16.980847000000004,9.33518100000002,-7.024162999999999,-24.109623000000006,-16.894349000000002,45.53941800000001
P29322,-74.89942999999982,-10.340424000000008,-6.950213,-65.71568899999988,-11.380908000000007,-1.0462299999999982,21.525366000000016,-9.533831000000008,-19.969323999999986,74.58945199999991,-8.073538999999977,-17.888664000000002,7.485617,18.506250000000005,12.741976999999983,-0.2798259999999964,10.713233999999996,-25.263843999999963,3.156139999999997,-7.358532000000009,0.44609700000000296,-32.738463999999986,-38.40789400000002,14.739735000000008,-15.900124000000002,-10.258907999999995,-21.094065999999984,2.361714000000002,-7.257691000000027,-9.707790999999995,-1.2822359999999988,-61.00808399999999,1.517871000000001,-21.543879999999984,27.125295,10.300983,-36.259444000000016,6.476152,25.215116999999996,-11.19065299999999,18.472072999999995,16.22754900000001,32.007127999999966,-12.685212000000007,-3.0630230000000003,3.8401680000000042,-35.030363999999985,3.2964679999999995,-34.647124999999946,28.603321000000008,-29.063718000000016,-42.280921999999975,13.455124000000007,-51.11949599999999,21.228645,-37.89978200000004,4.797483000000003,-0.12748499999999413,-14.985383999999977,-55.002089999999946,35.72573400000004,90.78999099999987,-2.9587040000000044,25.10628599999998,31.58094600000002,23.385820000000002,-13.720338000000005,27.42728700000001,37.006312999999984,-5.959203000000004,-33.779944999999984,-3.7213150000000046,10.511287000000003,23.006625000000003,-29.99873800000001,-28.98828400000001,9.911015999999979,-36.67172500000001,17.990720999999997,-10.302119000000012,-16.13201400000001,-9.788011000000003,26.18084599999999,0.4414549999999998,22.66433199999997,-27.463972999999985,-40.433159999999994,-2.8194339999999998,-19.527397,15.133315000000003,18.891497,-28.001097000000044,-34.217037999999974,14.729555999999995,33.44394600000001,27.755209999999998,-6.981683000000001,-65.33199799999988,-33.77952599999996,81.63547599999998
O75716,-17.22193099999999,-1.4897030000000004,-3.9418160000000015,-20.595926000000016,0.14400600000000002,-4.673270000000003,2.578659000000001,1.7933990000000002,-8.294862999999998,23.246909000000002,-6.601442999999997,-2.6691660000000006,-2.890392999999998,5.694288000000001,1.209373000000001,1.7048969999999994,5.726893000000003,-10.612826999999996,-0.87235,-1.116722,-3.190321999999996,-11.047757999999986,-6.970007999999998,-0.07570800000000055,-6.089674000000003,-7.292800999999997,-5.963829999999997,-5.6589899999999975,1.538517,-4.762051999999998,3.6804439999999983,-22.93637700000001,-1.971082999999999,-5.825679,9.615596999999996,1.0865609999999997,-9.964782000000001,-1.2957880000000006,3.4576040000000003,0.2512549999999997,5.4139919999999995,0.2772820000000007,10.030329,-4.825925000000004,4.997117000000001,0.9258959999999998,-7.725564999999999,0.5479030000000003,-2.643834999999999,7.719662000000002,-8.848037999999999,-6.238861999999997,6.081462999999996,-19.171905,5.869621000000005,-12.728525000000003,1.5235379999999987,-2.1414969999999984,-6.0926629999999955,-14.164163000000004,3.6670129999999976,23.564924000000012,2.3114819999999985,5.375563999999997,10.483260000000012,6.004044999999997,0.08492000000000058,5.927028999999999,9.735249999999997,-4.605894999999998,-11.763158999999996,2.515549999999999,0.6580839999999998,1.8143409999999995,-4.837305,-12.068772,6.136264999999997,-4.987972999999999,5.273669999999999,-4.427822999999997,-3.7608600000000005,3.4453429999999994,10.915598000000008,4.029012999999999,7.198332000000001,-11.231789000000004,-10.551051,1.0673419999999996,-9.657644000000007,8.763374000000002,8.255263999999995,-11.148442999999993,-10.994404000000001,2.026959,15.004321000000004,4.780429999999997,-7.077084000000002,-9.668990999999993,-10.238912000000004,28.832627999999993
P41743,-37.02998099999995,-0.34805899999999956,-5.100652000000005,-39.963294999999995,2.3476039999999982,-8.474939,13.38238299999999,-7.186698000000002,-17.289181999999975,39.530987999999944,-8.632957999999999,-5.3645659999999955,-3.0486099999999974,13.842260999999992,-4.912369999999995,-0.182000000000001,19.586834000000025,-22.883383000000006,-6.191443,-9.338132000000002,6.093820999999994,-21.215243000000022,-26.84669700000001,4.071979000000005,-6.1292870000000015,3.0528190000000035,-13.841026999999997,-1.3299709999999991,2.0978310000000007,-8.889040000000016,3.0575660000000013,-34.466317999999966,9.066874000000006,-6.540711999999992,13.865157999999987,8.307381999999993,-24.849286999999986,-3.410392,8.551339,-9.044422000000004,5.877204999999993,6.659162000000002,12.251595999999994,-13.067360000000006,0.24796299999999954,5.323835000000007,-15.03159499999999,-1.196743000000001,-13.334648999999997,18.548362000000015,-19.152305999999992,-10.761631000000005,16.475479000000014,-32.001381999999964,12.226848999999993,-32.71512599999999,16.786859000000014,-4.1215689999999965,-9.280967999999998,-42.50795700000002,11.654446999999989,41.161918,5.395756000000005,1.9593269999999972,24.213188999999996,16.617206000000003,-5.548224999999994,19.450347000000022,20.088839000000004,-13.506357999999997,-7.651841999999998,4.856440000000003,-1.728005000000002,3.5277640000000017,0.32810999999999985,-20.307719000000002,21.144227,-10.203754,4.420574999999996,-14.087642000000004,-14.346300000000008,-2.7696640000000086,14.413574999999991,0.9334389999999981,12.031122000000007,-9.638166999999996,-18.613432999999983,-16.502129000000004,-25.445712000000036,22.951380000000004,2.9029620000000005,-6.688182000000002,-11.398648000000009,-1.964097,27.595689,3.4732350000000034,-6.173068,-35.05742000000001,-12.142064999999997,43.139227
Q9P286,-53.60675300000001,-12.482872000000008,-14.381193999999999,-53.876125,-1.5579060000000007,-18.077148999999967,19.863062999999997,-14.108707999999991,-15.310321999999985,46.13782299999999,-10.816187999999995,-2.997155999999999,6.955772999999991,13.904077000000019,3.4618979999999975,5.272891999999997,28.906500000000005,-15.673394999999978,-8.60060299999999,-9.553578000000007,-1.8768210000000005,-23.41725799999997,-32.579768999999985,5.100716999999993,-13.606919000000012,3.1603760000000025,-8.402214999999996,-10.898726000000003,-6.734910000000001,-13.118469000000006,1.4402369999999978,-36.392906999999965,-5.591894000000003,-11.116798000000006,8.271091999999987,12.059486000000007,-26.162583000000023,2.5417399999999994,11.314152000000005,-2.738463,8.480213000000006,10.705181999999995,18.12451500000001,0.4280290000000002,-6.963015000000003,-5.546681000000006,-20.916780999999997,0.6839300000000009,-10.324020999999991,18.17865599999997,-24.581790000000012,-16.949490999999988,14.59535900000001,-40.462343999999995,7.406966000000005,-21.362817999999983,16.62537099999998,-10.797251000000006,-14.396508999999996,-43.41598600000002,25.06082,49.593388999999995,-6.171114000000002,-2.387082000000001,30.703098999999977,11.265932999999992,-1.9776780000000023,2.3287339999999985,32.59310600000002,-0.13277300000000125,-10.449303999999985,-2.672627999999997,-9.228791000000008,14.479628000000021,-17.617305999999996,-20.002759000000005,11.972182999999996,-27.454095999999957,7.887182999999997,-26.30136000000001,-31.14790900000001,-16.967215999999997,15.880265000000012,-4.477176000000008,23.23516499999995,-25.630414999999985,-14.911967999999995,-24.548753000000012,-21.032786999999995,21.914318999999992,15.753426999999988,-8.426562000000002,-14.503707000000011,3.138253999999998,34.013122,5.561839000000001,-7.277383000000007,-63.36476899999999,-16.29843599999999,44.14456900000002
P32298,-35.01990100000005,2.9207460000000007,5.177659000000003,-34.73379600000004,2.018466,-6.972415999999997,15.816126000000008,-4.297044999999998,-19.243349000000002,35.62847199999997,-3.615742999999999,1.1850099999999997,-4.587492,15.692244000000002,-9.303975999999992,2.8684910000000006,13.171369999999994,-33.34217700000002,2.126318999999999,-9.149687999999996,3.6201840000000036,-16.152585000000006,-21.251307999999998,-4.828082999999992,-5.299975000000003,4.243275999999997,-9.788356000000002,-2.1065709999999966,-0.0783499999999987,-5.430511999999995,-5.668958999999995,-30.776568,4.565070999999999,-2.706603000000002,14.436064999999974,6.244846999999994,-13.596528999999999,-0.12354099999999985,10.897972000000014,-2.7629989999999993,8.53130900000001,5.587254000000004,10.993668000000003,-7.630482999999997,-1.9149189999999998,6.849415,-4.701396000000007,-7.56514900000001,-10.815342,23.788168000000024,-10.541315000000012,-15.013271000000014,19.332841000000002,-32.90166099999999,16.73974000000001,-36.20621099999997,4.062489000000005,-4.1089369999999965,-8.869348,-47.955162000000044,5.558118000000003,42.121542000000005,10.185553999999996,0.5558149999999987,29.03550099999999,13.611915999999997,-4.061247999999997,17.708229999999997,19.277553000000022,-18.375189,-3.9700510000000033,8.617017999999993,2.415544999999997,6.699390000000008,6.9612519999999884,-22.535388000000008,18.758627999999998,-8.787825,6.190563000000001,-7.958293999999989,-21.904368000000005,5.013268999999996,12.234558999999994,2.7952070000000004,13.024844000000016,-8.299099000000002,-23.688601000000006,-19.091041000000008,-15.992725999999987,22.56140500000001,3.4362080000000055,-5.556766999999999,-11.576390000000005,4.412263999999998,25.306179000000014,5.304970000000005,-13.108029000000005,-32.23349700000001,-9.966506,43.096078000000006
P54753,-68.01258599999991,-15.252342000000027,-4.983949000000002,-71.98959299999994,-6.793389999999998,-5.658149000000007,19.623360000000016,-17.962844000000004,-20.201833999999977,68.90264899999997,-7.601970999999994,-11.153863000000001,1.1114750000000009,18.256326,4.892371999999999,7.491022999999997,19.062571,-32.16066399999997,-0.9864689999999999,-14.288654999999995,-9.403161000000004,-33.21555399999999,-41.79092800000002,13.815297999999988,-15.805966000000009,-6.528237999999994,-25.371613000000025,0.7030079999999991,-3.7035359999999984,-17.37275600000001,1.8866029999999998,-56.57623900000005,6.548967000000004,-22.99443300000004,21.00825000000002,17.506342,-31.720550999999954,3.773613000000002,23.961665000000067,-19.451830999999956,16.553921999999996,18.983186000000003,26.231097999999974,-0.48029000000000077,-6.119605000000006,3.0904779999999996,-37.56522499999993,8.742394999999997,-25.39141100000002,24.262029,-18.016490000000005,-38.22545999999996,17.681425000000015,-54.844154000000074,19.946140999999983,-41.95636600000004,2.6994740000000004,-7.853966999999998,-19.909381999999997,-53.19212300000011,30.615998999999995,85.76128800000004,-9.775405999999986,17.21562700000002,31.936101999999973,35.42810699999994,-12.292983000000012,26.782355000000013,41.47622499999999,-4.984483999999997,-22.143964000000025,-9.440305,8.787726999999993,22.25600899999998,-22.875118000000036,-29.861309000000013,15.540633,-38.142247,14.845567000000026,-11.75257500000001,-24.299692000000004,-2.4811139999999954,15.84734100000001,2.8646430000000005,28.360566000000013,-24.790462,-33.455133000000004,-18.62957000000002,-23.076756000000042,18.16670200000002,11.300118000000001,-24.415740000000014,-26.23209499999996,16.542322000000002,35.34665699999997,18.329088999999982,-18.641150999999972,-70.44136199999997,-21.168687,71.20517899999987
Q96Q15,-255.82094399999963,-59.350407000000025,-25.738788999999873,-251.00196500000004,-16.585790000000017,-32.66101000000008,84.09990500000005,-51.311016,-63.55333599999992,233.6005119999997,-46.2246769999999,-0.18093999999999383,-39.8370759999999,81.0453370000003,-15.18786599999997,32.26268099999996,83.4464520000002,-128.0085330000002,-53.05916600000002,-66.87756500000008,-39.10318100000013,-88.78774499999987,-131.73996999999974,9.72379800000002,-50.16742400000002,-45.499683000000076,-45.35410200000006,-38.454469999999965,-10.493414000000012,-121.789041,-10.95130300000004,-222.3408149999989,-39.33120699999999,-64.06886099999986,65.91075400000003,71.13072500000007,-87.34858000000015,0.7679219999999998,32.291664999999924,-22.810178000000025,58.056478999999946,42.40323499999992,67.87344199999981,-23.52123400000004,16.073346000000026,39.40774000000008,-96.98476099999995,-2.1863789999999934,-47.74231500000004,85.90112500000016,-97.96535299999964,-81.52076000000015,102.20570999999995,-179.33673499999986,79.800718,-163.7166000000001,36.99229400000009,-7.874113999999992,-64.14818899999997,-214.18951299999955,52.02637900000023,279.1620799999993,0.07676599999999598,35.89558800000006,155.43391099999985,87.39854500000018,38.10674400000007,92.80955299999997,126.05097399999954,-58.09916899999989,-58.09439900000005,3.753442999999995,31.880054999999967,48.83345499999981,23.132424999999945,-112.14404299999995,101.46052700000031,-70.88798400000016,65.27142500000012,-82.48114400000011,-135.60670400000026,-49.0890200000001,74.53971299999975,31.19949000000006,141.42389599999987,-115.20066899999982,-120.3521600000002,-98.11138400000006,-156.98617200000007,73.042699,82.48689499999998,-76.4247669999998,-46.63286400000008,19.958398999999996,154.61119000000022,46.0854609999999,-69.21943400000008,-185.851832,-71.89231999999993,249.0249640000003
P51617,-56.71785599999999,-19.546710000000004,-5.966611000000003,-49.70970500000002,-18.794637999999996,-8.354179000000004,12.242525000000011,-8.445753000000005,-9.710576999999995,50.96043299999998,-10.661355999999993,-5.842137000000006,5.662440000000005,25.680668000000004,9.646766000000008,6.051632999999991,0.11598599999999999,-18.23900600000001,6.7532240000000066,10.206206,-8.880980000000001,-20.061681999999994,-20.550680999999997,13.008093999999998,-6.798733000000005,-20.637864,-11.179847999999982,-1.5891509999999978,-10.857979000000007,3.733952000000001,7.282121000000004,-45.532834999999984,-19.349339999999966,-17.01254700000001,11.797912999999994,4.723435999999999,-22.091266000000022,-9.448651,17.156508000000006,-0.3456059999999998,10.514028999999994,7.450686000000007,19.306789000000002,-4.858428000000012,-4.932485000000004,-2.8242440000000038,-20.106974999999995,10.016624000000009,-23.954439999999995,20.036389000000018,-14.541805999999996,-38.39286900000002,0.8452299999999993,-45.464440000000025,18.962266000000014,-22.825991000000034,4.101126000000003,1.2362090000000034,-9.687674000000008,-26.812416000000038,36.474121000000004,68.02598999999994,-16.309123999999997,18.29668200000002,17.98792300000002,22.677927999999977,3.7983169999999995,-4.881384000000005,37.246971,13.959498999999997,-29.657127999999997,-12.042295000000003,7.835958000000011,20.492767999999977,-33.21423899999997,-12.436759999999998,5.225441,-34.51595700000006,6.285023,-11.385463000000014,-21.803099999999993,-20.352124000000007,22.15756099999999,-1.3722379999999994,24.266974999999984,-32.31820900000001,-21.167121999999992,-3.279447000000002,-4.432181000000001,10.60883,19.613663999999993,-19.14454300000001,-21.526579999999992,27.840431999999975,36.40608999999999,17.930880000000016,-5.669920999999995,-55.92236199999993,-18.602502000000015,49.25520299999999
P53667,-45.965289,4.758388000000004,-7.357750000000004,-47.54496400000005,6.853627000000001,0.2274390000000004,9.907161000000004,-8.3092,-22.576422000000047,46.72857600000005,-4.925378999999996,-5.274833000000002,-0.34091999999999945,11.992640999999992,-4.609139000000002,-1.939983000000001,17.51739500000001,-25.052467999999973,2.879504000000002,-4.485682999999994,-0.6568930000000012,-31.052247999999985,-27.784290999999985,4.550678999999999,-8.756133,-1.4183000000000008,-15.178635000000002,2.5196330000000007,0.8563990000000007,-7.655836999999999,-0.10997200000000024,-42.17509799999999,1.4556120000000006,-9.514472,13.480864999999984,-2.339877999999996,-18.424635,0.8801299999999986,19.24388899999998,-9.555822000000004,7.748880000000002,10.893209000000006,14.301732000000001,-12.60357399999999,2.9568010000000045,1.8462029999999998,-20.473720999999987,1.6945320000000024,-14.982662000000005,15.544964000000006,-20.014545999999978,-19.44482899999999,12.745911000000016,-30.041550999999995,16.987931000000007,-31.404426000000008,11.283145000000008,-8.336632000000003,-9.064677999999999,-36.54544700000003,16.869490000000013,51.50115900000003,0.35436199999999934,0.8485710000000013,26.521287999999956,21.212875999999948,-7.62381799999999,15.194821999999983,21.823716,-13.014537999999995,-20.439242999999983,-1.3872239999999993,1.5123409999999995,16.602815999999997,-13.619358999999987,-21.41011199999998,10.686047000000006,-20.307385000000025,8.027642999999994,-6.236911000000003,-17.322067000000015,1.0131959999999998,7.788884000000004,10.863142999999997,9.228839999999995,-13.002791000000013,-19.98943000000002,-9.398911000000002,-11.47361600000001,24.643910000000027,-1.1680699999999993,-9.646555,-16.820009000000006,6.9363390000000065,25.369874999999958,15.877194999999999,-4.432494999999997,-42.234934999999965,-14.058632000000005,56.116257000000026
Q13237,-52.12044800000003,-0.9927150000000042,2.4826190000000015,-48.81050199999995,1.0956659999999985,-9.112862999999995,19.771202000000013,-13.028044999999985,-17.665255999999975,51.55304999999996,-11.519760999999987,-4.263344999999996,-8.012652000000005,16.706348999999996,-11.040831000000003,9.985172,22.047487999999998,-37.215544000000044,-0.895227,-14.875554999999993,1.4277469999999985,-22.593096000000013,-28.818949000000003,-8.416170000000003,-12.663722000000007,6.954431999999999,-9.186860000000008,-6.7591759999999965,1.3040980000000006,-17.828283000000003,-6.741943000000004,-39.64377400000005,5.822605999999998,-6.425681999999992,15.442249999999978,10.198323000000002,-10.278543999999991,-2.575129999999996,4.071058000000003,0.595027999999999,6.655916999999994,8.378226000000014,5.834764999999995,-4.523046999999996,-6.8935089999999875,9.270652999999992,-12.35648000000001,-4.514657999999998,-6.053042,29.830290000000012,-16.191181,-13.692140000000013,37.74685400000001,-45.45774700000003,23.99013499999999,-40.87203600000004,6.396688000000008,2.6458499999999994,-15.016937000000015,-58.088392000000006,1.2961660000000008,48.04244099999996,11.86506,4.486302000000001,33.440205999999975,16.749813000000007,0.5214670000000015,26.547916999999973,21.630351000000015,-23.786297999999974,2.067490999999999,8.296445000000004,1.9109509999999978,7.750988000000005,15.619835000000007,-27.833698999999967,22.786679,-5.064976,1.6578390000000005,-20.260336000000017,-32.685033999999966,0.043273000000000776,11.936006999999988,0.7203110000000004,26.860953999999982,-23.101226999999977,-26.710433999999996,-23.236855000000016,-34.06934900000004,26.17596399999999,6.750455000000002,-11.598704999999986,-5.307229,2.9599740000000003,30.468439999999987,0.23876200000000042,-15.804304000000029,-33.82806200000002,-10.374631999999988,51.62003800000005
P14618,-37.370772000000024,-3.6626410000000007,8.329959999999996,-34.853980000000035,-6.9863739999999925,0.7473330000000007,12.065914999999995,-4.096867999999999,-2.378514999999998,37.022467,-2.9203240000000004,-12.43935899999999,-4.403742999999999,9.370596999999995,1.273751999999999,-1.614011000000001,5.280559999999992,-18.984802999999996,-0.4129780000000012,-9.877928000000006,-3.159007000000001,-24.990085999999977,-20.143481000000012,0.2773950000000017,-0.7932109999999991,4.8242750000000045,-1.6402200000000007,1.8109039999999998,-8.252152999999998,-14.73929099999999,-5.618245000000002,-29.13323099999999,10.452694000000008,-4.376681000000011,9.417184000000006,5.974825999999998,-10.756792999999998,-3.8293820000000025,9.63745900000001,-1.7922690000000012,8.267727999999996,5.712277000000005,8.878076999999996,-4.507291999999995,-7.0946420000000066,2.5861340000000004,-12.495432999999997,-0.16673400000000044,-6.700444999999991,14.202733000000006,-6.700697,-18.489192999999993,19.151355999999986,-24.36915099999999,19.347027000000015,-28.72183500000002,0.48245599999999894,3.4574830000000008,-9.167499999999992,-41.67354100000004,7.489717000000005,38.800562000000006,5.363221999999997,13.610333999999995,20.459779000000008,18.088026000000003,-1.3483599999999998,22.857532999999975,13.461389999999993,-15.074561,-15.800051999999996,4.835876999999997,2.7819419999999986,6.503922000000009,-0.9369680000000001,-12.595515,15.928272000000002,-4.312005000000001,12.062358000000007,-9.922555999999997,-11.86100100000001,-0.8649379999999998,-0.3235360000000003,-0.9661350000000017,18.49162900000001,-15.31198700000001,-17.435430000000014,-1.3564169999999995,-21.29582700000001,7.025914000000003,6.457997999999999,-20.010027999999984,-5.508933000000003,11.307684000000013,17.157746999999954,4.445961,-7.020127000000004,-19.063395000000014,-13.949911999999987,38.37991600000002
P25098,-46.176255000000026,-1.5833980000000027,1.230103999999999,-49.00748100000003,-3.8047100000000045,-5.013252999999997,24.127094000000042,-4.031313999999992,-12.04085300000001,41.070352,-9.082353999999995,1.7963099999999983,-5.962391999999999,10.239723000000005,-11.568090999999995,4.1342690000000015,23.907979999999974,-31.556271000000034,-0.27623599999999704,-15.865710999999992,-9.242427000000001,-19.831369000000002,-23.57153100000002,-3.9085410000000036,-7.276347000000003,-0.16500400000000034,-7.561056000000006,-5.285544000000007,-3.778016,-13.322057999999988,-2.1383930000000007,-37.27403700000001,-0.797962000000001,-9.327088000000009,16.684284,7.695302000000007,-17.774348,-2.6785020000000017,14.528286000000012,-1.1743999999999954,8.162144,3.848081,12.459889999999989,-6.747586999999996,4.667895,1.6667750000000012,-6.6999290000000045,-7.487532999999996,-6.674754999999996,25.017762000000015,-12.264074999999997,-11.101068999999999,20.087682000000026,-38.34581099999996,26.797837999999995,-42.12391199999996,4.552006000000002,-4.488308000000003,-15.960988999999994,-49.539504000000065,6.446653999999997,49.09643299999997,8.870442000000004,12.742842999999993,25.523933999999997,10.846489000000009,-0.8529910000000002,18.18235200000002,26.820370000000004,-22.10235200000002,-10.480435000000009,5.916847999999991,1.1056459999999992,8.156315999999991,3.0491009999999976,-24.760698000000005,21.77993800000001,-4.244619000000005,1.1163619999999985,-13.681741999999995,-25.37965800000004,7.8426620000000025,13.88809500000001,1.9774740000000008,12.301830000000002,-23.031111000000013,-28.604621000000037,-21.822358000000005,-24.65449599999998,25.759027000000007,10.736776000000003,-11.779525000000001,-9.371404999999998,4.4918219999999955,35.49255599999998,-1.0074500000000017,-11.209229999999987,-29.223489999999988,-16.325535999999992,45.481882999999975
Q9Y6K9,-25.264874999999993,-13.980086999999987,-3.4437059999999975,-19.533127999999998,-14.043093000000011,-1.286932,5.300665999999999,13.029177999999995,-13.265042999999997,36.28704099999999,-7.45037100000001,1.740328000000001,-6.4197239999999995,15.944369,3.322885000000002,12.918242999999995,5.071459999999999,-24.931685000000005,-3.925622000000003,-1.7243050000000009,-9.55008699999999,4.440251000000002,-5.835786999999999,-1.5514979999999998,1.850754000000002,-10.258354999999996,1.263384999999999,-5.043688999999996,0.4240939999999997,-14.36529399999999,4.498929,-33.153809000000024,-19.248222999999992,-5.853131999999999,-0.13771299999999861,3.0004620000000006,1.903082,-5.858577,5.324006000000005,14.433583999999996,-2.6403450000000004,5.383650000000005,10.874998999999999,-5.488388,13.833474999999996,2.4196389999999983,-12.864840999999988,-2.9518209999999994,-13.073084999999992,14.956454999999998,-4.324744000000002,-7.215894999999998,-2.1529939999999996,-20.749201000000017,23.078458000000005,-16.082697000000007,4.8479269999999985,11.315838999999997,-12.564171,-31.18190599999997,11.41945600000001,44.017691000000006,9.247976000000005,13.589775999999986,12.729625000000004,9.551897,9.882470000000003,0.09682999999999847,24.401819999999994,-3.6038249999999987,-9.357331000000006,16.903929999999978,6.510924000000004,11.451281000000005,7.934887999999998,-7.029644000000007,18.204702000000005,-3.3867670000000003,3.5468469999999983,-7.506121000000001,-26.515558000000016,-3.7752459999999974,12.827070999999997,-10.881695000000002,14.041102999999996,-17.644336999999993,-20.661565,-14.948899999999997,-20.155388000000006,16.508575000000008,18.897548,4.372447999999998,13.536947000000005,7.62361600000001,38.64685299999999,3.4680309999999945,-2.571955000000001,-8.338881999999996,-9.546781999999997,19.77675
Q9UKI8,-48.04427400000004,-15.864969999999989,-13.340734999999995,-54.26616199999993,-2.270136999999997,-18.719378999999982,16.092671,-16.112161,-12.427238999999995,49.43990800000007,-10.642562000000012,0.5454829999999984,4.693756999999998,19.572059000000007,0.2454740000000009,3.8787760000000016,25.537684999999982,-31.27413599999999,-11.523964000000008,-7.4805939999999955,-2.1366219999999982,-11.132777999999993,-29.937663000000022,-0.8736950000000017,-11.743791999999987,-0.06607099999999862,0.3924649999999982,-12.105885999999991,-3.9416169999999973,-18.49064900000002,-2.2328950000000023,-43.598685999999965,-3.8582859999999934,-7.966916999999996,9.617567999999997,10.959744000000004,-9.757552000000008,-3.2506169999999974,1.5097139999999996,8.505478999999992,14.440750999999997,15.018110999999994,13.912531000000001,-1.4472650000000036,-5.963146000000001,2.503102000000001,-12.085969,-0.5089550000000027,-3.8857590000000037,31.55177999999999,-18.545629999999985,-16.298852999999998,22.540289999999988,-39.69351600000009,17.66244300000003,-32.63168999999999,16.593933999999997,-3.146350000000002,-12.059551000000003,-49.30836000000004,14.422072000000025,50.35726100000003,8.189587999999999,1.1872089999999997,36.85398500000002,15.916347999999989,9.031984999999983,10.294296000000005,34.31748899999998,-6.125019000000001,-7.87703300000001,-1.6325479999999986,-1.873987000000002,13.416723999999999,6.736974999999995,-25.179575999999994,22.237846000000022,-21.244343,6.218440999999998,-19.899390999999998,-39.38299200000003,-12.935329000000005,17.5242,-6.187555000000003,25.217640999999958,-23.976405999999983,-29.766931999999997,-36.69110199999998,-31.377254999999995,24.01019800000001,20.438931999999976,-7.424570000000004,-9.289763999999996,0.13813300000000006,38.16128600000002,3.041799999999998,-9.513384000000002,-53.67474,-8.088784999999994,46.10963900000007
P11802,-26.61144600000002,0.1736789999999993,1.1055699999999982,-20.295977,-4.881306999999999,-2.5950180000000005,8.893055999999998,-4.173245000000006,-2.9517279999999992,19.462936000000024,-3.501144,-6.031550000000003,4.182126,3.579823000000002,1.5486720000000025,-4.994350000000002,1.7123399999999993,-13.328638000000009,4.156646,0.2469699999999989,-1.971695000000001,-15.769113999999995,-5.304023,-0.4176340000000005,-3.900406000000003,-1.5147440000000008,-3.830969999999997,2.131577000000002,-5.615104,-2.486328000000001,-0.6085930000000008,-18.301858,1.0501440000000002,-3.7684380000000015,5.082496999999998,2.1897679999999995,-9.612991000000001,0.6847420000000003,7.913943,-2.8758830000000017,3.800659000000001,6.8457969999999975,10.651318000000007,-2.8467059999999993,0.3597929999999996,-0.05838900000000044,-8.753228000000005,1.0949810000000004,-6.7575059999999905,4.906955,-6.164776000000001,-10.411252000000003,11.819496000000006,-17.603974000000008,7.624866999999997,-10.222861000000004,3.2827379999999993,-0.7390120000000002,-4.637661999999999,-15.329469000000001,13.510601000000001,23.477089,1.062784,7.531649999999997,2.908096000000001,8.662456000000006,-5.900842000000002,6.857213000000001,9.661058999999996,-3.5291460000000003,-14.330114999999996,-1.4526249999999998,-0.5250220000000014,2.444792,-4.477279000000001,-3.226772999999999,6.235659999999999,-9.557627999999989,1.1386640000000006,-7.151445999999997,-2.513194,0.6897890000000003,10.566963000000003,-0.16057700000000028,7.414654000000003,-11.465217999999991,-17.444284000000007,-3.9134489999999995,-6.2615870000000005,5.250816999999996,3.0525080000000036,-14.638755000000003,-4.336494999999996,6.2375929999999995,10.499496999999998,6.70616,-8.464823000000003,-15.749641000000008,-4.766917000000002,25.49581600000002
Q99683,-94.21302499999992,-12.997702000000004,0.306957999999999,-102.74787000000003,-5.316062999999991,-14.144290000000016,46.04636700000003,-24.150160000000017,-27.596195000000005,85.21126900000007,-19.282828999999985,-6.763858000000004,-8.134209999999998,29.485671000000007,-12.666524999999975,11.884541999999994,38.74511700000005,-44.38040900000003,-15.377455999999977,-27.77699499999997,1.4643050000000004,-42.676170000000006,-63.60958299999995,1.054324000000004,-22.801145,3.5496979999999954,-16.54831300000002,-8.920367,-6.869363000000003,-43.357279000000034,-13.542586000000012,-71.5322170000001,5.377005999999998,-22.78256300000002,21.74858000000001,28.69813399999999,-38.05332900000001,0.7355880000000004,18.682075000000005,-15.739141,12.716256999999986,20.08327599999997,23.89397300000002,-4.835861000000001,-7.233929999999999,6.702646999999981,-24.68304300000005,-2.7074450000000034,-14.214036999999996,45.909111000000046,-28.18585699999999,-27.691205000000014,50.487996999999936,-72.63774599999996,31.069523000000014,-68.79867999999992,16.727211999999994,-3.7769049999999935,-11.920410999999985,-90.31621300000009,22.703674999999986,94.52026800000006,9.469753999999996,11.765328999999994,55.73826199999997,30.198838000000038,-0.8667779999999957,38.018102,42.32381800000005,-29.495833000000022,-10.871069999999992,10.572186,4.279508,18.201362000000003,6.588584000000001,-38.50197299999995,37.79445000000008,-18.502968999999986,16.305645999999992,-35.80531399999998,-49.81025900000007,-8.488110000000026,15.720687000000007,4.172777999999999,49.38490899999998,-41.304133000000014,-40.23111900000002,-42.690135999999974,-52.943487999999945,38.669043000000045,17.63449399999997,-30.096677999999994,-25.04705600000001,2.969594,55.378144000000034,12.061423000000019,-20.664868999999975,-81.70802500000002,-21.459978999999983,91.80319299999975
Q9Y2U5,-45.13547400000005,-13.688049000000007,-6.722778000000004,-46.01411000000001,6.537044000000005,-11.444303999999985,17.43879599999999,-15.380913999999994,-9.435699000000014,39.75808099999997,-11.062517000000007,-0.4408829999999998,2.074624,8.487566999999995,-2.5130930000000022,3.0329889999999984,18.921475000000004,-19.738119,-6.940245000000004,-4.749106999999998,2.1356369999999973,-22.473888000000017,-21.50851200000002,-0.3399499999999968,-8.605001000000007,2.8394629999999985,-6.186082000000001,-6.161004,-4.401160999999999,-11.436151000000011,0.5865339999999986,-27.077309000000003,-2.9457270000000015,-9.665971000000003,9.949908000000008,11.731092000000006,-11.703851999999996,6.473327000000004,10.92430400000001,-0.602833999999999,8.955251999999998,15.907413000000007,11.116581000000004,1.694989,-1.0566859999999998,-3.6738949999999955,-9.678984000000003,5.4662479999999904,-10.501887000000004,16.623300000000025,-14.456729999999988,-14.359165999999991,21.574770000000008,-34.22351999999999,11.186310999999996,-25.303094000000016,8.165264000000006,-3.820829,-8.902481999999997,-41.98771600000001,15.546065000000013,42.873485,2.663013000000001,7.318995000000004,27.72238399999998,14.276096000000013,2.6755799999999934,18.010701,29.383305000000007,-7.274957999999994,-9.783948000000002,-0.6057739999999973,-1.796421,14.325695999999997,-1.3139189999999998,-15.898996999999998,12.095346000000008,-21.82566599999999,6.077980000000001,-18.027137000000018,-22.093505999999987,-10.141123999999998,11.314289999999994,-3.2927489999999997,20.975005000000003,-21.250587999999997,-24.351239,-16.899746999999998,-17.676830000000034,17.60987200000002,9.17966900000001,-9.761584,-11.179411000000007,3.5651929999999976,23.89643800000002,1.3583170000000002,-8.933867000000001,-42.019109999999955,-8.897925000000011,41.77006000000004
